{"layers": [{"W": [[0.02048126608133316, 0.0635518804192543, -0.1331380158662796, -0.03530976548790932, -0.060957714915275574, 0.07948502153158188, -0.0046816919930279255, -0.03251539170742035, -0.13966603577136993, 0.07824228703975677, -0.008017762564122677, 0.08902552723884583, -0.15311841666698456, -0.011631473898887634, 0.10852397978305817, -0.12514758110046387, 0.030648067593574524, -0.1289745420217514, -0.08905403316020966, -0.07851304113864899, -0.10271522402763367, -0.0709315687417984, 0.0023035858757793903, 0.13896304368972778, 0.15855911374092102, 0.024219922721385956, -0.06831133365631104, -0.06181914359331131, -0.09750788658857346, 0.0807042121887207, -0.04606364294886589, 0.0016246457817032933, -0.1625320017337799, 0.03691729158163071, -0.07791167497634888, -0.05116548761725426, -0.14531739056110382, -0.1567430943250656, -0.1258564591407776, 0.14739786088466644, 0.07877103239297867, -0.11657202243804932, 0.1562657654285431, 0.04953887686133385, -0.03411930054426193, -0.039041634649038315, 0.03574049100279808, 0.06999416649341583, 0.08526202291250229, -0.13892926275730133, -0.08569342643022537, -0.025587165728211403, -0.14487330615520477, -0.07055157423019409, -0.04022516310214996, 0.059104811400175095, -0.03781751170754433], [-0.05361407250165939, 0.16148412227630615, -0.13072238862514496, -0.045895982533693314, -0.14353226125240326, 0.0321812741458416, -0.005601461045444012, 0.016204826533794403, -0.10040155798196793, 0.10866918414831161, -0.08547696471214294, 0.03207462653517723, -0.13521544635295868, -0.07870078086853027, -0.06668177992105484, -0.01801665872335434, 0.14451925456523895, 0.04883824661374092, -0.09045898914337158, 0.028211072087287903, -0.01947738602757454, -0.0298210009932518, -0.050009340047836304, 0.14227086305618286, -0.05767156556248665, -0.07618862390518188, 0.09036040306091309, 0.10403629392385483, -0.0630379319190979, 0.03685407340526581, 0.10060381889343262, -0.11078684031963348, -0.009118993766605854, 0.06149951368570328, 0.10938403755426407, 0.10032796859741211, 0.11011568456888199, 0.11698055267333984, 0.07375510782003403, -0.09554586559534073, -0.04719680920243263, -0.05959474295377731, 0.007958241738379002, -0.0505702868103981, -0.03196239471435547, 0.0036428284365683794, 0.11858800053596497, 0.10809443891048431, -0.11710842698812485, 0.0005064866854809225, -0.14463040232658386, 0.06330803036689758, -0.004973425529897213, -0.09933602809906006, 0.01760982908308506, -0.1583249717950821, 0.07296312600374222], [0.1676919013261795, 0.13840879499912262, -0.1126527264714241, 0.06316990405321121, -0.0919499397277832, -0.05766890570521355, -0.09722862392663956, 0.1515273153781891, -0.15679745376110077, 0.00048450700705870986, 0.09939335286617279, 0.11991044133901596, -0.10116554796695709, 0.07008281350135803, 0.1506672203540802, -0.0435563363134861, 0.12391762435436249, 0.11120900511741638, 0.019329367205500603, 0.02553366869688034, -0.09336045384407043, 0.07627448439598083, 0.10573364794254303, 0.07257110625505447, -0.026478931307792664, -0.10682961344718933, -0.061252620071172714, -0.07931612432003021, 0.028654154390096664, 0.0042027998715639114, 0.1018916517496109, -0.1557462066411972, -0.14857792854309082, -0.10469672828912735, 0.07247360050678253, 0.1329759806394577, 0.06935732811689377, 0.07243947684764862, 0.013699143193662167, 0.13078995048999786, -0.06609734147787094, 0.003192541189491749, -0.12892146408557892, 0.10771813243627548, 0.07126647233963013, -0.11019116640090942, -0.10331420600414276, -0.09139290452003479, 0.03792443126440048, 0.0709737166762352, 0.05658922344446182, -0.1444481462240219, 0.05899013206362724, 0.042929716408252716, -0.10845230519771576, -0.07326341420412064, -0.0755835473537445], [-0.10538733005523682, 0.06317925453186035, 0.15333503484725952, -0.014390077441930771, -0.09606663137674332, 0.05788455531001091, -0.08531368523836136, -0.04139280691742897, -0.005693388637155294, 0.060225602239370346, 0.0021777008660137653, -0.028598880395293236, -0.11415223032236099, -0.13874481618404388, -0.13542409241199493, 0.038488056510686874, -0.028056103736162186, -0.14266081154346466, 0.16449086368083954, 0.02770008146762848, 0.18773296475410461, -0.02415311709046364, 0.11510825902223587, -0.038171425461769104, 0.1356690675020218, 0.16762331128120422, -0.08043782413005829, -0.12995050847530365, -0.016027946025133133, 0.0652039647102356, 0.029360691085457802, -0.12698161602020264, 0.05889883264899254, 0.11666303873062134, 0.1360940784215927, -0.09253669530153275, -0.09526868164539337, 0.03359011188149452, -0.10029739886522293, 0.12915506958961487, 0.05309159681200981, 0.07619883120059967, 0.04821712523698807, -0.14754943549633026, -0.11815561354160309, -0.10830189287662506, 0.16216760873794556, 0.13558833301067352, 0.0591062493622303, -0.046554747968912125, -0.14995060861110687, 0.07332112640142441, -0.03407679870724678, 0.03972785547375679, 0.0010929941199719906, 0.04214654117822647, 0.11861490458250046], [0.10268284380435944, 0.14433608949184418, 0.02786365896463394, -0.08542628586292267, 0.10430674254894257, 0.05394597351551056, -0.11500705033540726, 0.07546718418598175, 0.029217733070254326, 0.04396325722336769, 0.13993237912654877, -0.00902561191469431, -0.1304592341184616, -0.03628600388765335, -0.09636897593736649, -0.0030746692791581154, -0.04340039938688278, -0.03405122458934784, 0.1800546497106552, 0.12126324325799942, -0.013196543790400028, 0.17442823946475983, -0.16980881989002228, 0.06512527167797089, -0.15123355388641357, -0.05722711235284805, -0.17534945905208588, -0.14500604569911957, -0.04195158928632736, -0.11340314894914627, -0.06914804130792618, 0.07968845218420029, 0.10010659694671631, 0.029704293236136436, 0.09710001200437546, 0.051626600325107574, 0.08943688869476318, -0.13982978463172913, -0.0010522955562919378, -0.11022282391786575, 0.051306772977113724, -0.025247938930988312, -0.16802386939525604, 0.06789521872997284, -0.15699054300785065, -0.009077555499970913, 0.08852134644985199, -0.17934410274028778, -0.16526348888874054, -0.07882281392812729, -0.05723886936903, -0.027262456715106964, -0.06998766213655472, -0.015398843213915825, 0.055685192346572876, 0.1500609815120697, 0.0997910127043724], [0.0018305596895515919, -0.12518543004989624, 0.07241930812597275, -0.12872034311294556, 0.06813394278287888, -0.1532270461320877, 0.07503891736268997, 0.041292812675237656, 0.009363416582345963, 0.008447837084531784, 0.05101921409368515, -0.09501664340496063, -0.06141013279557228, -0.1501559466123581, 0.0858638659119606, -0.03187095373868942, 0.10714788734912872, -0.05773770436644554, -0.017449336126446724, -0.1053711324930191, -0.024096954613924026, 0.11873886734247208, 0.1420307159423828, -0.11631951481103897, 0.06967030465602875, -0.07980915904045105, 0.07022272050380707, 0.10570923238992691, 0.027450548484921455, -0.04559117183089256, -0.04632165655493736, 0.0692332535982132, -0.09990160167217255, 0.0012819117400795221, -0.0878102034330368, 0.13386817276477814, 0.1136956587433815, 0.13040684163570404, -0.12094757705926895, -0.07652734220027924, -0.02850390039384365, -0.1262916922569275, -0.06717552989721298, 0.06849749386310577, 0.01658608391880989, 0.06532076001167297, -0.13264086842536926, 0.11914980411529541, 0.09961438924074173, -0.1043764129281044, 0.028407422825694084, 0.11081241816282272, -0.06008061766624451, -0.12339578568935394, -0.09529923647642136, 0.11755931377410889, -0.12566295266151428], [-0.016927139833569527, -0.044638145714998245, 0.05277087166905403, 0.10307659953832626, 0.12973028421401978, 0.05128401517868042, 0.12858496606349945, 0.09198032319545746, 0.035176608711481094, 0.06475161761045456, 0.04340362921357155, 0.03318937122821808, -0.05554042011499405, -0.07703054696321487, 0.025611769407987595, -0.13976849615573883, 0.10261460393667221, -0.0993400514125824, 0.13603825867176056, -0.1309681385755539, -0.08675523102283478, 0.12339216470718384, -0.10154782235622406, 0.1164284348487854, -0.10402455180883408, -0.0023288517259061337, 0.03362505882978439, -0.11289436370134354, -0.04432878643274307, 0.07162182778120041, 0.06953147798776627, 0.08252742886543274, -0.03447168320417404, -0.054964665323495865, 0.12605705857276917, 0.07028535008430481, 0.06588533520698547, -0.14188183844089508, -0.003957230597734451, 0.14686988294124603, 0.020026326179504395, 0.046618279069662094, -0.08532949537038803, 0.0034357497934252024, -0.02928435243666172, -0.015011074021458626, 0.13801875710487366, 0.013735649175941944, 0.09717311710119247, 0.0323321595788002, -0.003687826218083501, -0.022754304111003876, -0.06990595906972885, -0.1391874998807907, -0.03291663900017738, 0.0024777513463050127, -0.05319353938102722], [0.17132383584976196, -0.01792590692639351, 0.047676533460617065, 0.006319488864392042, 0.04125267267227173, -0.04241637885570526, -0.01305947732180357, 0.0032857933547347784, 0.04505828768014908, 0.11936275660991669, 0.04322358965873718, 0.010540464892983437, -0.14422480762004852, 0.04786612465977669, 0.10544183105230331, -0.020744847133755684, 0.1283269077539444, -0.04539988934993744, 0.1602410525083542, 0.057800084352493286, 0.06573831290006638, 0.1363799273967743, -0.00201011192984879, 0.018258629366755486, -0.09200649708509445, -0.15090766549110413, -0.11569460481405258, -0.03100205771625042, 0.030648836866021156, -0.08422214537858963, 0.033099085092544556, -0.16822461783885956, -0.14128050208091736, 0.01816738396883011, 0.12026471644639969, 0.05504760146141052, 0.07622233033180237, -0.10862027108669281, -0.09710763394832611, 0.10002482682466507, 0.10435978323221207, -0.030037246644496918, 0.14440643787384033, 0.0438891164958477, -0.008429479785263538, -0.03326662257313728, -0.10947531461715698, 0.03508886694908142, -0.08240798860788345, -0.09211653470993042, -0.12874116003513336, -0.17017491161823273, -0.14145231246948242, 0.035701848566532135, -0.04792782664299011, 0.14263692498207092, 0.06432360410690308], [0.08714202046394348, 0.15813472867012024, -0.041917771100997925, -0.10470998287200928, 0.055210597813129425, 0.08514446765184402, -0.023415759205818176, -0.10924547165632248, -0.03168867900967598, 0.04831549525260925, 0.07045825570821762, -0.04250303655862808, 0.03358263894915581, -0.11882882565259933, 0.12587320804595947, 0.026163572445511818, 0.029628753662109375, 0.03793671354651451, 0.14628291130065918, 0.17066437005996704, 0.09788733720779419, -0.10815894603729248, -0.09500936418771744, -0.14537714421749115, 0.00120563805103302, -0.037301480770111084, -0.01873278245329857, 0.06802113354206085, -0.0926661491394043, 0.08230019360780716, 0.05504930764436722, 0.03204875439405441, 0.12478698790073395, -0.1908368617296219, 0.00476258248090744, 0.08928938955068588, -0.1528308242559433, -0.15851545333862305, 0.03472939878702164, 0.08748465776443481, 0.16820333898067474, -0.11524312198162079, 0.1027691513299942, -0.019626963883638382, -0.14137563109397888, 0.0011652868706732988, -0.1073940247297287, 0.08601333945989609, -0.14913012087345123, -0.009743385016918182, -0.028213026002049446, 0.030015824362635612, -0.002607518807053566, -0.10162364691495895, 0.09689394384622574, 0.05564270168542862, -0.0857318639755249], [-0.047323524951934814, -0.042122382670640945, -0.02089179866015911, 0.01151265949010849, -0.05153702571988106, 0.1244797632098198, -0.027918852865695953, -0.06451494991779327, 0.1531408578157425, 0.008361130021512508, -0.09467250108718872, 0.12159089744091034, -0.03618526831269264, -0.14979127049446106, 0.12753735482692719, -0.14771659672260284, -0.0411253459751606, -0.08896510303020477, -0.13475224375724792, 0.13151942193508148, 0.17462481558322906, 0.009778381325304508, 0.004979486111551523, -0.08214160054922104, 0.09590455144643784, 0.022933507338166237, 0.04474359750747681, -0.04620838537812233, -0.033284515142440796, 0.06510519236326218, -0.010426992550492287, -0.13486337661743164, -0.08106040954589844, 0.03647094964981079, 0.13277611136436462, -0.012821425683796406, -0.06718721985816956, 0.12322454154491425, 0.04883358255028725, 0.016002433374524117, 0.10498764365911484, 0.031613148748874664, -0.1237066462635994, -0.0756019577383995, 0.0723203495144844, -0.09829122573137283, 0.12659451365470886, 0.1568450778722763, -0.061155837029218674, 0.019592778757214546, 0.033485300838947296, -0.02772079035639763, 0.013942450284957886, 0.02428116835653782, -0.08221163600683212, -0.06829230487346649, -0.07943543791770935], [-0.06359641999006271, 0.08113477379083633, 0.11751485615968704, -0.09465400874614716, -0.018397027626633644, -0.020534368231892586, -0.01769603043794632, 0.13009069859981537, -0.03689787536859512, -0.17583781480789185, 0.13190560042858124, 0.11075567454099655, -0.03401029482483864, 0.0682869702577591, -0.09024272859096527, -0.12593938410282135, -0.028949758037924767, 0.010544825345277786, -0.10656186193227768, 0.16426365077495575, 0.10065141320228577, 0.13791030645370483, -0.08993841707706451, 0.14859817922115326, 0.04262422025203705, 0.10422737896442413, -0.017633700743317604, -0.10993096232414246, -0.14227916300296783, -0.023460322991013527, -0.12127991020679474, -0.055566344410181046, 0.13469107449054718, -0.09518389403820038, 0.12401620298624039, -0.13181737065315247, -0.17932957410812378, -0.10105307400226593, -0.1131354570388794, -0.12277202308177948, 0.14568108320236206, -0.06949235498905182, -0.008344081230461597, -0.024606695398688316, 0.08682132512331009, -0.05284610018134117, 0.15623684227466583, 0.16168935596942902, 0.04162261635065079, 0.0381145253777504, -0.0464852936565876, -0.06937555223703384, -0.17178398370742798, 0.003929988481104374, 0.05632181465625763, 0.032550614327192307, -0.06944708526134491], [-0.027478110045194626, 0.15414117276668549, 0.09569503366947174, -0.05341627448797226, 0.03422093391418457, -0.05276796221733093, 0.09797031432390213, 0.0054773795418441296, 0.06511466205120087, 0.046938832849264145, -0.08548951894044876, 0.1104009672999382, 0.09315723180770874, -0.06348731368780136, -0.02651968039572239, -0.06042574346065521, 0.1093435287475586, 0.009356371127068996, 0.09284568578004837, 0.06559182703495026, -0.06722474843263626, -0.1135287955403328, -0.08580175787210464, 0.15600423514842987, -0.04164090380072594, 0.06744768470525742, -0.00412001321092248, -0.09470085054636002, 0.007317208684980869, 0.010292991064488888, 0.028139885514974594, 0.05023770406842232, 0.11986467242240906, -0.04994804039597511, -0.002109022345393896, 0.07565396279096603, -0.031576938927173615, 0.04508870467543602, 0.007742115296423435, 0.06219876557588577, -0.10564097762107849, -0.09067828208208084, 0.07023917883634567, 0.04088509455323219, -0.012037528678774834, 0.04845551773905754, -0.03903624042868614, -0.012197586707770824, -0.12885095179080963, -0.0915779247879982, -0.034337811172008514, -0.08828973770141602, 0.019471915438771248, -0.00520162470638752, -0.1107269898056984, -0.12116120755672455, 0.012371283955872059], [0.08255720883607864, 0.09488590806722641, -0.05726299807429314, 0.027315231040120125, 0.09538976848125458, 0.10988271981477737, -0.01810891181230545, 0.037135083228349686, 0.047052692621946335, 0.10005638003349304, -0.10120086371898651, -0.0494394451379776, -0.1582925170660019, -0.03735683858394623, -0.03439626470208168, 0.16538465023040771, -0.05681687220931053, 0.15786966681480408, -0.013150215148925781, -0.052965808659791946, 0.11278791725635529, -0.11451826989650726, 0.09705091267824173, -0.07078173011541367, -0.11869249492883682, 0.12979498505592346, 0.05153011530637741, -0.13406552374362946, -0.03703410178422928, 0.04041384533047676, -0.009648743085563183, -0.049017053097486496, -0.14090929925441742, -0.12756019830703735, 0.10999836772680283, 0.08433175086975098, 0.1219521313905716, -0.11729656904935837, 0.058031611144542694, -0.016838939860463142, -0.011038136668503284, 0.08015558868646622, -0.03507831692695618, 0.040898051112890244, -0.13256177306175232, -0.04310380667448044, 0.06531427800655365, -0.19719082117080688, -0.12872716784477234, -0.0008839518413878977, -0.0029602746944874525, -0.07087770104408264, -0.062301766127347946, 0.04448804631829262, 0.13946494460105896, -0.158866748213768, -0.03601546958088875], [0.023998331278562546, 0.02270393632352352, -0.09281473606824875, -0.020682869479060173, -0.17182964086532593, 0.029768312349915504, -0.03128773346543312, -0.06641210615634918, 0.10953816771507263, -0.13199858367443085, 0.17524974048137665, 0.03140641376376152, -0.14062747359275818, 0.05086740478873253, -0.08675602078437805, 0.010585005395114422, -0.1611441969871521, 0.018036065623164177, -0.05021066218614578, 0.05680996924638748, -0.09956624358892441, 0.11131919920444489, 0.05698458105325699, -0.09366217255592346, 0.021231161430478096, -0.16120582818984985, -0.13933852314949036, 0.046827126294374466, -0.10850422084331512, -0.0796709656715393, -0.0376136377453804, 0.09687415510416031, 0.005132254213094711, -0.14351747930049896, 0.1076459139585495, -0.1553942859172821, -0.15420319139957428, -0.13027425110340118, 0.026667993515729904, -0.035330649465322495, 0.0369984395802021, 0.010417638346552849, 0.09100086987018585, -0.04237820953130722, 0.0438258983194828, -0.04226197302341461, -0.12472465634346008, 0.1493576318025589, 0.04498254507780075, -0.0334705226123333, -0.01900034211575985, -0.003259259508922696, -0.11126113682985306, -0.005676289089024067, -0.0019133524037897587, 0.1018887311220169, 0.06426334381103516], [0.08159881830215454, 0.04822000116109848, 0.11547166854143143, 0.13260485231876373, -0.09447076171636581, 0.0718359649181366, 0.004180216696113348, -0.09786412864923477, -0.045736443251371384, -0.02137424610555172, 0.004714866168797016, 0.1372138410806656, -0.0205642431974411, -0.13305245339870453, 0.022639553993940353, -0.12355279922485352, -0.09516490995883942, 0.08671386539936066, 0.07834689319133759, -0.05106322839856148, -0.03374842554330826, 0.0625012069940567, -0.09039846062660217, 0.14631249010562897, -0.04243467375636101, 0.047854311764240265, -0.09231506288051605, 0.07570285350084305, -0.05790513753890991, -0.1113504022359848, -0.08335291594266891, -0.14577826857566833, 0.07672388851642609, -0.1000896617770195, 0.13492895662784576, -0.10414183884859085, -0.07758037000894547, 0.10312580317258835, 0.07798323780298233, 0.05515341833233833, -0.013161100447177887, 0.12126393616199493, 0.09151868522167206, 0.09143458306789398, -0.06628882884979248, -0.06178133562207222, 0.15304796397686005, -0.1529199182987213, 0.01191075798124075, 0.03510849177837372, -0.10232473909854889, 0.01512722298502922, -0.1294586956501007, -0.035315144807100296, -0.0941844955086708, -0.17644260823726654, 0.09564286470413208], [-0.06556466221809387, 0.15908502042293549, 0.1220867708325386, -0.02155408263206482, 0.09853045642375946, -0.10422792285680771, -0.01127221342176199, 0.09995944797992706, -0.007542997598648071, -0.08324067294597626, 0.19232051074504852, 0.10594478994607925, -0.07054343074560165, 0.06453268229961395, -0.08629275113344193, -0.1573379933834076, 0.01992751471698284, -0.18183526396751404, -0.058193400502204895, 0.18447068333625793, 0.026408692821860313, 0.05715065449476242, 0.1005740761756897, -0.17625342309474945, -0.04414808377623558, -0.00584790064021945, -0.15828107297420502, -0.01661589741706848, 0.10282041132450104, -0.14850646257400513, -0.07268505543470383, -0.1154426783323288, 0.05497435852885246, -0.02437891624867916, -0.07622411102056503, -0.13622155785560608, 0.007051600608974695, 0.09057319164276123, 0.03695990890264511, -0.015812784433364868, 0.17532308399677277, 0.10695046186447144, 0.009819033555686474, 0.025673996657133102, -0.12535718083381653, 0.03970211371779442, -0.09703654050827026, 0.13848480582237244, -0.1597374528646469, 0.08071097731590271, -0.14606040716171265, 0.06281095743179321, -0.11252763122320175, -0.02634236216545105, -0.04005472734570503, 0.024326037615537643, -0.025886256247758865], [-0.09863953292369843, 0.10637077689170837, 0.1693696677684784, -0.143965944647789, 0.052178267389535904, 0.0909733921289444, 0.12730346620082855, 0.10122469812631607, 0.09117170423269272, 0.0012327563017606735, -0.028159722685813904, 0.1504451185464859, 0.0934753268957138, 0.06276367604732513, 0.0829344391822815, 0.08988402038812637, 0.12437140196561813, -0.034070007503032684, -0.0007411029655486345, -0.007030925713479519, -0.023226993158459663, -0.1357557475566864, 0.034165941178798676, 0.02259020134806633, 0.00046561326598748565, 0.030175333842635155, 0.06152501702308655, -0.1587502658367157, -0.10732049494981766, 0.011394678615033627, 0.030781090259552002, -0.01001204177737236, 0.10614407062530518, -0.1111396998167038, 0.12684160470962524, 0.07858084887266159, 0.09726942330598831, -0.125030055642128, -0.12422389537096024, -0.06431876868009567, -0.10046906769275665, 0.0038701079320162535, 0.12977994978427887, -0.14329124987125397, -0.13549579679965973, 0.04785378277301788, 0.09783182293176651, -0.11490403860807419, -0.07601597160100937, 0.03382581099867821, -0.08949650079011917, -0.04100160300731659, 0.06850368529558182, -0.025660188868641853, -0.10874253511428833, 0.09969457983970642, 0.10094980150461197], [0.05364486575126648, -0.10977565497159958, -0.07872748374938965, 0.04066736251115799, 0.06838711351156235, -0.062209535390138626, -0.037409719079732895, 0.012484420090913773, 0.015462718904018402, -0.029393866658210754, 0.06720152497291565, -0.0017326406668871641, 0.05084441229701042, -0.04749680310487747, -0.10105466842651367, -0.031265582889318466, -0.12366348505020142, 0.08526858687400818, -0.14496859908103943, -0.057998936623334885, 0.07822103053331375, 0.06263117492198944, 0.11934873461723328, 0.1377372294664383, -0.12722910940647125, -0.134671151638031, 0.10144199430942535, 0.0037866432685405016, -0.10882551968097687, -0.05766357108950615, -0.09860552102327347, -0.10985765606164932, 0.06702765077352524, -0.10460077971220016, 0.1436372548341751, -0.017059696838259697, 0.004729479551315308, -0.135178342461586, -0.06879301369190216, 0.1307559460401535, 0.007344247307628393, -0.059790242463350296, 0.02169300615787506, 0.057584598660469055, -0.021686309948563576, 0.0191802978515625, 0.10153509676456451, -0.12464068084955215, -0.03712236508727074, -0.08883142471313477, -0.0949309766292572, 0.021744057536125183, -0.006091278977692127, -0.010267507284879684, -0.030379364266991615, -0.1325342357158661, 0.13974519073963165], [0.18925699591636658, 0.004491936881095171, -0.10344426333904266, 0.1273484230041504, -0.11586131900548935, 0.0674671083688736, -0.0759500190615654, 0.005479979794472456, -0.1491665244102478, 0.12835711240768433, -0.04025174304842949, -0.08746739476919174, -0.1655818074941635, 0.04382132738828659, -0.0879494920372963, 0.1384974718093872, -0.0637848973274231, 0.010518478229641914, -0.0647457018494606, -0.010608930140733719, -0.06345867365598679, -0.06383304297924042, 0.07798720896244049, 0.08099187910556793, -0.13263511657714844, 0.018767228350043297, 0.06703604757785797, -0.11228271573781967, -0.06522885710000992, -0.11139482259750366, -0.14762994647026062, 0.012758549302816391, -0.14648425579071045, 0.13435499370098114, -0.11035259068012238, -0.10113274306058884, -0.06553055346012115, -0.07021444290876389, -0.010107086040079594, 0.10483099520206451, -0.1105433776974678, 0.10284393280744553, 0.1533762365579605, 0.008222740143537521, -0.13881532847881317, -0.05365583673119545, -0.11520182341337204, 0.11323106288909912, -0.10910142958164215, -0.12057946622371674, -0.07393784821033478, -0.15005400776863098, 0.03215227648615837, 0.03469172492623329, -0.12578995525836945, -0.07493549585342407, 0.043544698506593704], [-0.015582897700369358, 0.09136176109313965, -0.12314566969871521, -0.09958100318908691, -0.054657287895679474, -0.058354247361421585, 0.06182948127388954, -0.14074315130710602, 0.06678280979394913, 0.06487777829170227, 0.07948489487171173, -0.08567214757204056, -0.04170792177319527, 0.019155889749526978, 0.0006695481133647263, 0.02562263049185276, 0.02418467216193676, -0.11167751997709274, 0.007982631213963032, 0.18090179562568665, 0.026950201019644737, 0.13059142231941223, 0.05733269825577736, 0.1586313396692276, -0.10993749648332596, 0.04981208220124245, 0.11627908051013947, 0.07002253085374832, -0.11215539276599884, -0.14894814789295197, -0.12456604838371277, -0.02125357836484909, -0.11654189229011536, -0.12116687744855881, -0.03114498406648636, 0.004778794478625059, 0.07589669525623322, -0.02168990857899189, -0.06156555190682411, 0.0733802318572998, 0.18551740050315857, 0.04905543103814125, 0.09260144829750061, -0.15127871930599213, -0.022899651899933815, 0.012330333702266216, -0.14539609849452972, 0.16463349759578705, -0.059113893657922745, -0.09424984455108643, -0.07509315013885498, -0.07338359206914902, -0.11575409770011902, -0.014483639039099216, -0.09361320734024048, 0.03207783028483391, -0.13109895586967468], [0.04551789537072182, -0.07271473854780197, 0.036949191242456436, -0.08548413217067719, 0.15847264230251312, 0.07931589335203171, 0.13570819795131683, -0.10408978909254074, -0.054993025958538055, 0.057747580111026764, -0.03555796667933464, -0.03101952001452446, 0.06225262209773064, 0.07397715747356415, 0.09507638216018677, 0.15001651644706726, 0.02755049057304859, 0.037296492606401443, -0.0537131167948246, 0.11907642334699631, -0.01503585372120142, -0.09431233257055283, -0.04062121734023094, -0.13440775871276855, 0.032922182232141495, -0.09847518801689148, 0.030682897195219994, 0.07236534357070923, -0.06922436505556107, 0.017876291647553444, -0.12306390702724457, -0.0011489794123917818, 0.060593415051698685, 0.00856943428516388, -0.08476822823286057, 0.16672436892986298, 0.09282027930021286, 0.10254427790641785, 0.01340998150408268, 0.025331228971481323, -0.104962557554245, -0.07095234841108322, 0.1336100697517395, -0.01635233871638775, 0.042402707040309906, -0.015977434813976288, -0.14339084923267365, 0.049842558801174164, -0.05999043211340904, -0.09392303228378296, 0.050229933112859726, 0.11462758481502533, -0.10944391787052155, -0.04556351900100708, 0.028819778934121132, -0.1370544582605362, 0.011396202258765697], [-0.08121120929718018, 0.07710464298725128, -0.0008383805979974568, -0.13565616309642792, 0.1051592230796814, -0.03245300054550171, -0.0036322935484349728, -0.11298150569200516, 0.12651440501213074, -0.13930220901966095, 0.019385527819395065, -0.09569593518972397, 0.07694274187088013, 0.06718854606151581, 0.04534005746245384, -0.04019514098763466, 0.009856905788183212, -0.08698294311761856, 0.14647723734378815, -0.09836512804031372, 0.0840512216091156, -0.042533695697784424, -0.0729396790266037, -0.04081911966204643, -0.10667631775140762, -0.007534597534686327, -0.09862115979194641, 0.06262912601232529, -0.14341707527637482, 0.09276776760816574, -0.010948145762085915, 0.00909538846462965, -0.007213273085653782, 0.11449749022722244, -0.07505938410758972, 0.022613195702433586, -0.052312884479761124, -0.038795676082372665, 0.09429102391004562, -0.08534181118011475, 0.01150850486010313, 0.11458081007003784, 0.050077829509973526, -0.08449126780033112, -0.15159282088279724, -0.14005310833454132, -0.12866684794425964, -0.13487322628498077, 0.10597436130046844, 0.09230802208185196, 0.08264481276273727, -0.1116006150841713, -0.09725406765937805, 0.08225633949041367, 0.13565245270729065, 0.05413069948554039, 0.0008917312952689826], [0.028442656621336937, 0.10181919485330582, 0.11382519453763962, -0.11013458669185638, -0.03252340853214264, 0.022241102531552315, 0.05632808059453964, -0.04875708743929863, 0.029993994161486626, 0.012976506724953651, 0.1823205053806305, 0.16592921316623688, 0.09492792189121246, -0.11079142242670059, 0.14079920947551727, -0.11839507520198822, -0.05587857589125633, 0.01654115505516529, 0.15523196756839752, -0.04241013899445534, 0.13580738008022308, -0.08171296119689941, -0.055219992995262146, 0.17279691994190216, 0.10897883772850037, -0.07208002358675003, 0.08330117911100388, 0.07318946719169617, -0.08138508349657059, -0.10401210933923721, -0.13335706293582916, -0.11524207890033722, -0.11578993499279022, 0.05260823294520378, -0.06331565976142883, 0.01338934525847435, 0.09421265870332718, 0.056302618235349655, -0.06798932701349258, -0.08158087730407715, 0.10205903649330139, 0.15537886321544647, 0.06233876571059227, 0.08654850721359253, -0.04248807579278946, 0.03899084031581879, 0.15394318103790283, -0.1005188375711441, 0.07705731689929962, -0.03560243546962738, -0.07702933996915817, 0.0121840201318264, 0.09248317778110504, 0.037250325083732605, -0.11046148091554642, 0.009065580554306507, 0.0921216756105423], [0.11478400230407715, 0.09628086537122726, 0.030476434156298637, 0.07463008910417557, -0.023608293384313583, 0.08886933326721191, 0.05929233878850937, 0.010492711327970028, -0.04756849631667137, -0.08785504102706909, 0.04570883885025978, -0.14549897611141205, -0.059281956404447556, 0.09685580432415009, 0.13446667790412903, 0.10141289234161377, 0.13409152626991272, -0.1358557790517807, 0.0015234417514875531, 0.03202620893716812, 0.1729784458875656, 0.0014933671336621046, -0.0401361845433712, -0.10069414228200912, 0.0070964498445391655, -0.10451753437519073, -0.049727216362953186, -0.06512942165136337, -0.14009948074817657, -0.037936076521873474, 0.09697453677654266, -0.046795692294836044, -0.11945559084415436, 0.08226204663515091, 0.08222242444753647, 0.13973772525787354, 0.07766865193843842, -0.10698810964822769, 0.013781835325062275, 0.12197209894657135, -0.10229100286960602, 0.08115742355585098, 0.04836058244109154, 0.06216536462306976, 0.05274058133363724, -0.0035896217450499535, -0.12558311223983765, -0.08529195189476013, -0.16405721008777618, -0.09420932084321976, -0.06302478164434433, -0.12670885026454926, -0.09476987272500992, -0.05059371143579483, -0.10035334527492523, 0.07225488126277924, -0.013546117581427097], [0.06306236237287521, -0.07098115235567093, 0.04842989891767502, -0.0025211742613464594, -0.06349010020494461, 0.08167322725057602, 0.13337916135787964, 0.04291136562824249, -0.07298680394887924, -0.049126897007226944, 0.12278405576944351, 0.1465325951576233, -0.13472816348075867, -0.12596064805984497, -0.12287801504135132, -0.05299694091081619, 0.052646610885858536, -0.13169965147972107, 0.0011650790693238378, -0.026517927646636963, 0.005800406448543072, 0.14115023612976074, 0.1382187008857727, 0.10048357397317886, -0.1212581992149353, -0.1563684493303299, 0.026887450367212296, -0.012142254039645195, -0.09348302334547043, -0.0018662640359252691, -0.05540413782000542, -0.10342042148113251, 0.11901627480983734, 0.032477375119924545, 0.04641512408852577, 0.0521513894200325, 0.09882982820272446, 0.03009517677128315, -0.024118104949593544, 0.12324701994657516, -0.015035907737910748, -0.01702898181974888, -0.13112492859363556, 0.060999561101198196, 0.0015581300249323249, 0.02347548119723797, -0.009284625761210918, -0.0348191075026989, -0.08803129941225052, 0.06310482323169708, -0.0071589043363928795, 0.0035297588910907507, -0.08838317543268204, 0.049767494201660156, 0.08519165962934494, -0.0281560979783535, -0.0361093245446682], [0.05441238731145859, -0.1340533196926117, 0.09868647903203964, -0.11795373260974884, -0.02684200182557106, -0.1728203147649765, 0.10540475696325302, 0.10363446176052094, 0.059231825172901154, -0.09781579673290253, -0.04243630915880203, 0.07430623471736908, -0.04158679023385048, -0.05202391371130943, 0.04967736452817917, 0.16335450112819672, 0.05124306306242943, -0.08995108306407928, -0.08749698102474213, -0.052703700959682465, 0.1444353610277176, 0.08567699790000916, 0.14278843998908997, 0.0026292135007679462, 0.050204548984766006, 0.14913612604141235, -0.10595940798521042, 0.023632070049643517, 0.040966521948575974, 0.03981129080057144, -0.12752218544483185, 0.09619574248790741, 0.0896882489323616, -0.04806862771511078, 0.003001907141879201, -0.01462708879262209, -0.06842882931232452, 0.016784023493528366, 0.09021750837564468, -0.17281565070152283, -0.057847898453474045, 0.12183354049921036, 0.031554047018289566, 0.08488781005144119, 0.05656128749251366, -0.008093880489468575, 0.03314017876982689, -0.018804604187607765, 0.1014651209115982, -0.1298309862613678, 0.03757259622216225, 0.07373107224702835, 0.029632151126861572, -0.020820578560233116, -0.12375017255544662, 0.03355807811021805, 0.026760920882225037], [-0.04261649399995804, -0.09362662583589554, 0.03969600424170494, 0.08253393322229385, -0.0038327553775161505, -0.15467390418052673, 0.11147595942020416, -0.060447558760643005, -0.10539712756872177, 0.13837401568889618, -0.04565904289484024, -0.06126631423830986, -0.05276033282279968, -0.04444984346628189, 0.04594006761908531, 0.05019475892186165, 0.095359206199646, -0.012948939576745033, -0.03996114805340767, 0.041677288711071014, 0.08803225308656693, -0.03117641806602478, 0.06653116643428802, 0.1427837461233139, -0.11034032702445984, 0.16511783003807068, 0.0745450109243393, 0.013850524090230465, -0.027061406522989273, -0.1308494210243225, 0.07896100729703903, 0.07872648537158966, 0.022338924929499626, -0.07372908294200897, 0.1072198674082756, 0.07634057849645615, 0.0667487159371376, -0.11871009320020676, 0.07522442191839218, 0.007078058086335659, 0.04566294327378273, -0.06863781064748764, 0.09477808326482773, 0.04488389194011688, 0.02133171446621418, 0.03692162036895752, 0.17442750930786133, -0.11780679225921631, -0.02763882279396057, -0.06275109201669693, -0.01583975739777088, -0.06421950459480286, -0.10496807098388672, -0.01141588669270277, 0.06677679717540741, -0.13972686231136322, 0.08542969077825546], [-0.046660833060741425, -0.12414823472499847, -0.13570253551006317, -0.05825566127896309, 0.08130772411823273, 0.03166535869240761, -0.07071968168020248, -0.11857525259256363, -0.025405842810869217, 0.010900729335844517, 0.14320681989192963, -0.07286221534013748, 0.06783086806535721, -0.07499351352453232, -0.021527787670493126, -0.07230433076620102, 0.018081652000546455, 0.1396370381116867, 0.049301326274871826, 0.13381700217723846, -0.02603224664926529, 0.07955962419509888, 0.05922577530145645, -0.08362199366092682, 0.15895885229110718, -0.1422787457704544, 0.08999474346637726, 0.04847408086061478, 0.1263425499200821, -0.09184279292821884, -0.11857552081346512, -0.04783964157104492, -0.023200806230306625, 0.14585264027118683, 0.09289263933897018, 0.0067774890922009945, 0.13325060904026031, -0.046845562756061554, 0.09662250429391861, -0.11133444309234619, 0.02184361219406128, 0.0899387001991272, -0.009782331064343452, -0.10105409473180771, -0.01902690716087818, -0.13641920685768127, 0.0564376600086689, 0.011941381730139256, 0.1183091327548027, 0.08730407059192657, -0.09643074125051498, 0.08467460423707962, -0.1073225811123848, 0.016391005367040634, 0.07705425471067429, -0.08073700219392776, -0.07224342226982117], [0.2068156599998474, 0.009739484637975693, -0.12390567362308502, 0.03627368435263634, -0.06197907775640488, -0.09386727213859558, 0.03628712147474289, 0.11678528040647507, -0.01307655032724142, 0.14419089257717133, 0.11462955176830292, 0.05300341174006462, -0.126955047249794, -0.021820226684212685, 0.08148746937513351, 0.14380043745040894, 0.09878631681203842, 0.019738055765628815, 0.03699113056063652, -0.04695916548371315, -0.023535246029496193, -0.12657944858074188, 0.12632465362548828, -0.05191058665513992, 0.058441560715436935, 0.07984178513288498, 0.035734180361032486, -0.07078532874584198, -0.01561732031404972, -0.12213117629289627, -0.129232719540596, 0.004176935646682978, -0.054715659469366074, 0.058061692863702774, -0.021954013034701347, 0.12231744825839996, 0.027971047908067703, 0.08459556847810745, -0.04783128201961517, 0.10410104691982269, -0.032587409019470215, -0.0774555653333664, 0.13475725054740906, -0.13125213980674744, -0.051972467452287674, -0.09151636809110641, -0.07517315447330475, 0.08424167335033417, 0.08546328544616699, 0.061825383454561234, 0.005980054382234812, -0.014072615653276443, -0.04069940745830536, -0.1364007145166397, -0.023806843906641006, 0.1389145404100418, 0.0774739682674408], [-0.0891510397195816, 0.02554883249104023, -0.11769986152648926, -0.09602291882038116, -0.025983430445194244, -0.12439139187335968, 0.092690110206604, -0.07051551342010498, 0.06906598061323166, -0.02090347185730934, 0.07278785109519958, -0.032420698553323746, 0.10453005135059357, -0.14669443666934967, -0.040220294147729874, -0.07596801221370697, -0.05475495383143425, -0.0323147214949131, 0.15200617909431458, 0.06401404738426208, 0.1513334959745407, 0.16401121020317078, 0.11254534125328064, -0.04189884290099144, 0.10055293887853622, 0.057221684604883194, 0.08916488289833069, -0.15425723791122437, -0.001331636682152748, -0.055908121168613434, -0.06404151767492294, -0.0592382438480854, 0.011968610808253288, -0.009040715172886848, -0.097261942923069, -0.13773924112319946, -0.09382117539644241, -0.13907158374786377, -0.11659640073776245, -0.1052287220954895, -0.029446154832839966, -0.013385923579335213, 0.11516501009464264, 0.10328694432973862, -0.10920383781194687, -0.08757469058036804, 0.0811716690659523, 0.1489327996969223, 0.08866433799266815, 0.04790257290005684, -0.02463141642510891, 0.07065356522798538, 0.0014406066620722413, -0.08617963641881943, -0.04755232483148575, 0.009322252124547958, 0.06049501523375511], [0.058474116027355194, -0.14765565097332, 0.13552486896514893, 0.1297406256198883, 0.09738724678754807, 0.10243556648492813, -0.1504073441028595, 0.011082961224019527, -0.04349995404481888, -0.1631815880537033, 0.16344957053661346, 0.0012334833154454827, -0.01896984502673149, -0.10819175094366074, -0.02966012805700302, 0.009160562418401241, -0.07119302451610565, -0.054468825459480286, 0.16749022901058197, 0.11854039132595062, 0.13633975386619568, 0.04306724667549133, -0.05967212840914726, 0.13434091210365295, -0.16995246708393097, 0.00497602391988039, -0.14249080419540405, 0.12308871746063232, 0.009102431125938892, -0.15204361081123352, 0.06893087178468704, 0.01250117365270853, 0.03715529665350914, 0.14045175909996033, -0.05542560666799545, -0.09165853261947632, -0.04735114425420761, 0.06755902618169785, 0.05366459861397743, 0.028876865282654762, 0.004484112374484539, -0.1262894868850708, -0.09960424900054932, 0.010043539106845856, -0.06555286049842834, -0.0372619554400444, -0.010567687451839447, -0.10033278167247772, 0.07600458711385727, 0.07406685501337051, -0.1432589441537857, -0.11003006249666214, 0.009621776640415192, -0.12113720923662186, -0.008692377246916294, -0.0618494376540184, -0.0032534520141780376], [0.0495910719037056, 0.05673763528466225, -0.020366245880723, 0.044802818447351456, -0.008387810550630093, 0.008219914510846138, -0.016748962923884392, 0.03922664374113083, 0.02154814824461937, -0.1102229654788971, 0.029703274369239807, -0.09424272179603577, 0.08234282582998276, -0.028324468061327934, 0.00029336148872971535, 0.0016290650237351656, -0.009124680422246456, 0.060876939445734024, 0.107061468064785, -0.07787684351205826, -0.028808360919356346, -0.07459855079650879, 0.0969056636095047, 0.00041168619645759463, 0.06972034275531769, 0.06472344696521759, -0.059387821704149246, -0.09065781533718109, -0.1135920062661171, 0.06855451315641403, -0.07943069189786911, 0.06399673223495483, -0.08232057094573975, -0.06331481039524078, 0.035516101866960526, 0.07896213233470917, -0.08440112322568893, 0.01375181507319212, 0.013172517530620098, 0.10583346337080002, -0.032751522958278656, 0.13604888319969177, -0.11503058671951294, 0.013974378816783428, -0.026934027671813965, -0.045782607048749924, -0.07139813154935837, 0.02241428568959236, -0.010442586615681648, -0.08006500452756882, -0.05762019753456116, -0.02318381331861019, -0.10246502608060837, -0.026681091636419296, -0.10322931408882141, -0.03380868211388588, -0.03308811038732529], [0.2106444239616394, -0.12077239900827408, -0.007227432914078236, 0.11033516377210617, -0.0516912080347538, 0.10613984614610672, 0.04216462001204491, -0.031165538355708122, 0.0896231010556221, -0.0604056678712368, -0.06995873898267746, 0.045484498143196106, -0.03841014206409454, -0.13335324823856354, 0.02885662019252777, 0.07285312563180923, 0.078964963555336, -0.11541634052991867, -0.05318056792020798, 0.008735855109989643, -0.0949481651186943, -0.1281185746192932, 0.0632067620754242, 0.15424847602844238, 0.11185482144355774, 0.04168422892689705, -0.07199271768331528, -0.14029575884342194, 0.11676760762929916, 0.03687759116292, -0.10537783056497574, -0.0933925062417984, 0.07844389975070953, 0.11166645586490631, -0.1013370230793953, 0.09635160118341446, 0.1305960863828659, -0.09864462167024612, -0.10320492833852768, -0.07693988084793091, -0.12549078464508057, -0.0005456191720440984, 0.11974391341209412, 0.012943068519234657, -0.002934883814305067, -0.05132806673645973, 0.048022426664829254, -0.14526352286338806, 0.06128630414605141, -0.10151670128107071, 0.01956799440085888, 0.022721149027347565, -0.13354243338108063, -0.04068223014473915, -0.042488355189561844, 0.11482138931751251, -0.041840773075819016], [0.19496822357177734, 0.1530735045671463, -0.0765472948551178, -0.1504472941160202, -0.0171748548746109, 0.11295270919799805, 0.1364358812570572, -0.10689351707696915, -0.018983807414770126, 0.03988271206617355, 0.022767288610339165, 0.09811755269765854, -0.09725316613912582, -0.14770086109638214, -0.015579416416585445, -0.1736879050731659, -0.023900970816612244, -0.060101911425590515, -0.15791954100131989, 0.07235465198755264, 0.029423441737890244, -0.06099909916520119, 0.1557292938232422, 0.06808934360742569, 0.10712317377328873, -0.1428423821926117, -0.16545821726322174, 0.10467523336410522, -0.10186035931110382, -0.034566499292850494, -0.07200685143470764, -0.18674154579639435, 0.11798300594091415, -0.028590774163603783, 0.0088836420327425, 0.14019596576690674, -0.046490103006362915, -0.033969681710004807, 0.009005635045468807, -0.0353291891515255, -0.027575667947530746, -0.18726325035095215, 0.02106044813990593, -0.11015100032091141, -0.1372004598379135, -0.014998402446508408, 0.11246848106384277, -0.023504536598920822, 0.07383184134960175, -0.07486432790756226, -0.15541216731071472, 0.11533492058515549, -0.16993315517902374, -0.03168634697794914, 0.08890974521636963, 0.08071880042552948, -0.015720205381512642], [0.1690228432416916, -0.1779751181602478, -0.07627681642770767, 0.02136414125561714, 0.030711058527231216, -0.13510358333587646, -0.05884573236107826, 0.06349628418684006, -0.057748280465602875, 0.05196036770939827, -0.003925316035747528, 0.04160192236304283, -0.05780153349041939, -0.050978999584913254, 0.04155387729406357, 0.007216941565275192, 0.017408447340130806, 0.09631790965795517, -0.03166630119085312, 0.15129472315311432, -0.051378633826971054, 0.15303844213485718, 0.16156809031963348, -0.15926870703697205, 0.13261808454990387, 0.1409340798854828, -0.10255396366119385, -0.1631709784269333, 0.032735422253608704, 0.07334004342556, -0.007991420105099678, -0.15606266260147095, 0.04637737572193146, 0.11450907588005066, 0.06967666745185852, 0.09900979697704315, 0.11000904440879822, -0.09578856825828552, -0.04054981470108032, 0.057601019740104675, 0.1145959347486496, 0.12444830685853958, 0.01562751643359661, -0.1265827715396881, -0.029652098193764687, -0.07203919440507889, 0.017025114968419075, 0.0794987678527832, -0.06244325265288353, -0.13846105337142944, 0.039269015192985535, 0.022536760196089745, -0.08977603167295456, -0.018345335498452187, 0.006262396927922964, 0.15424147248268127, 0.04735195264220238], [-0.07663294672966003, 0.056041378527879715, -0.164859339594841, 0.08188504725694656, 0.04852963238954544, 0.07768011093139648, -0.04152268171310425, -0.07617595046758652, -0.05375860631465912, -0.14829201996326447, 0.11774305999279022, 0.043694380670785904, -0.16176731884479523, 0.011548164300620556, -0.03339821845293045, 0.11413522809743881, -0.02052411623299122, -0.1436838060617447, 0.16519853472709656, -0.1338743269443512, 0.0950661301612854, -0.03146176412701607, 0.16296523809432983, 0.16372360289096832, 0.025446616113185883, 0.010263517498970032, -0.13982397317886353, -0.05355352163314819, 0.10021913796663284, 0.01519821397960186, -0.07225912064313889, -0.007879359647631645, -0.05956870689988136, -0.016944071277976036, 0.1040511280298233, -0.042698293924331665, -0.15172849595546722, 0.08761303871870041, -0.02841448411345482, 0.036480389535427094, -0.05653003975749016, -0.02782355807721615, 0.1393870860338211, -0.14873579144477844, -0.05090104043483734, 0.004985968116670847, 0.1047004908323288, 0.04731520265340805, 0.01296405028551817, -0.13726471364498138, -0.1087043434381485, -0.00504903681576252, 0.03894878923892975, -0.01908205635845661, 0.0714804157614708, 0.06251074373722076, -0.18029987812042236], [0.038251254707574844, -0.004684289451688528, -0.08944737166166306, 0.07538603246212006, 0.041039884090423584, -0.09076126664876938, -0.0818011611700058, -0.04999833181500435, -0.1392155885696411, 0.002255525439977646, 0.09462779760360718, -0.025286996737122536, 0.044242341071367264, -0.04514334350824356, 0.09402190893888474, -0.14490577578544617, 0.002415109658613801, 0.15205463767051697, 0.1507006585597992, 0.1189613863825798, 0.18344387412071228, -0.1562955528497696, -0.13472306728363037, -0.1428161859512329, -0.12520785629749298, -0.05737527832388878, 0.05381641909480095, 0.019513582810759544, 0.0348144955933094, 0.04377124458551407, 0.006188466679304838, 0.022802317515015602, -0.025417188182473183, -0.03139623999595642, 0.0657072514295578, 0.08442948013544083, 0.08989539742469788, 0.09433454275131226, 0.09769222140312195, 0.04672864079475403, -0.0013697427930310369, 0.0623294934630394, 0.11363445967435837, -0.0511070154607296, -0.13041436672210693, -0.1327335387468338, -0.013664238154888153, -0.14354567229747772, 0.1181912049651146, -0.11780903488397598, -0.0044107078574597836, 0.10516788065433502, -0.028454409912228584, -0.1125481054186821, 0.18023614585399628, 0.00935286097228527, -0.05097900331020355], [0.14091326296329498, 0.1280703842639923, 0.15994083881378174, 0.05462295934557915, 0.032043248414993286, -0.12423250824213028, 0.12285219877958298, 0.02750641293823719, -0.09266531467437744, -0.08987553417682648, -0.015193904750049114, 0.0014797335024923086, -0.1707877367734909, 0.021387461572885513, -0.18163375556468964, 0.08322982490062714, 0.10332413762807846, -0.10073183476924896, 0.14564430713653564, 0.14935773611068726, -0.027537910267710686, -0.09043695777654648, -0.09298520535230637, -0.06461937725543976, 0.06818798929452896, -0.0313427560031414, 0.033294565975666046, -0.0922798365354538, -0.10819820314645767, -0.005099455360323191, -0.00664446922019124, -0.12207458913326263, -0.051081035286188126, -0.041741400957107544, -0.05273916944861412, 0.07540145516395569, -0.09507257491350174, 0.11869798600673676, 0.11013327538967133, 0.009647153317928314, 0.014934062026441097, -0.033622078597545624, 0.008972395211458206, -0.08147088438272476, -0.11975134164094925, 0.08122164011001587, -0.130283385515213, 0.1030828058719635, -0.05302233248949051, 0.03797782585024834, -0.12753957509994507, -0.09708891063928604, 0.09787818789482117, -0.048019904643297195, -0.07271501421928406, 0.03384774923324585, 0.08843442797660828], [0.2015383094549179, -0.09987866878509521, 0.13911940157413483, -0.16567809879779816, 0.05902095139026642, -0.11909075826406479, -0.03087945282459259, -0.061709243804216385, -0.09490589052438736, 0.14447741210460663, 0.10930386185646057, -0.025026433169841766, -0.00022135244216769934, -0.06499537825584412, 0.14134125411510468, 0.14224576950073242, -0.09958671033382416, -0.08059747517108917, -0.10187825560569763, -0.03440075367689133, -0.09028362482786179, 0.03825252130627632, 0.058136533945798874, 0.021512625738978386, 0.13184255361557007, 0.18156833946704865, 0.11648181825876236, -0.002229831414297223, -0.13820600509643555, 0.02524721994996071, -0.09736928343772888, -0.054326314479112625, 0.03738756477832794, 0.011142181232571602, -0.10466691106557846, 0.07387365400791168, 0.045033372938632965, -0.04795260727405548, 0.015745168551802635, -0.08932173997163773, -0.11188488453626633, 0.02286395989358425, 0.10556785017251968, -0.0037977665197104216, -0.0044989800080657005, -0.14823798835277557, 0.16186636686325073, 0.00558094959706068, -0.1384323239326477, 0.03809983655810356, -0.14405551552772522, -0.019606098532676697, -0.0077963462099432945, -0.04607545956969261, -0.00857674703001976, -0.015376847237348557, -0.12854483723640442], [0.15372706949710846, 0.1230008602142334, 0.11843167990446091, 0.01736079715192318, 0.005972076673060656, 0.061648111790418625, -0.07507866621017456, 0.07805795222520828, -0.049609482288360596, -0.017386531457304955, 0.15698958933353424, 0.1177479475736618, -0.12215040624141693, 0.02661983110010624, 0.10301966965198517, -0.10296327620744705, -0.15958769619464874, -0.00018359992827754468, 0.1380435973405838, -0.13565987348556519, -0.1410333514213562, 0.05111314728856087, 0.005310758017003536, -0.0826101005077362, 0.0865878090262413, 0.05117020010948181, -0.1815258264541626, -0.13577504456043243, -0.09537087380886078, 0.07622430473566055, -0.09577170014381409, -0.07344362884759903, -0.002526590134948492, 0.09579342603683472, 0.0789942815899849, 0.10572406649589539, -0.06767555326223373, -0.16099335253238678, -0.11105888336896896, -0.11453371495008469, -7.151291356422007e-06, 0.08665726333856583, -0.14626185595989227, -0.06529760360717773, 0.09714759141206741, -0.09532303363084793, 0.1431930959224701, 0.1044124886393547, -0.1271117627620697, 0.030842844396829605, 0.017035121098160744, -0.016436265781521797, -0.10225650668144226, -0.01543314941227436, 0.009280210360884666, 0.10641073435544968, -0.050203703343868256], [-0.026662014424800873, 0.015814250335097313, 0.14750726521015167, -0.08509210497140884, -0.013174181804060936, -0.096703439950943, 0.16701406240463257, -0.015560133382678032, 0.0010743332095444202, 0.01741061359643936, -0.11227717995643616, 0.11238083243370056, 0.026955967769026756, 0.0367756187915802, 0.03270566463470459, 0.015788493677973747, 0.11147996783256531, -0.05668891593813896, -0.09631974995136261, 0.04749639332294464, 0.0027675817254930735, -0.037619952112436295, 0.09008613228797913, 0.023477569222450256, 0.10719671845436096, -0.1187799870967865, -0.09165611118078232, -0.06797502189874649, -0.149727463722229, 0.049649327993392944, 0.023202767595648766, 0.08942627161741257, -0.002580071799457073, 0.03760189935564995, -0.10972388833761215, 0.12442322075366974, 0.07753406465053558, -0.04449205845594406, 0.05849021300673485, 0.09134436398744583, -0.10802604258060455, -0.12212242931127548, -0.05001195892691612, -0.059662412852048874, -0.05033224821090698, -0.02860213816165924, 0.018210340291261673, 0.01865876279771328, 0.03097975254058838, -0.008135885931551456, 0.032479215413331985, -0.0899612233042717, -0.10760722309350967, 0.02084510773420334, -0.06264572590589523, -0.04475124925374985, -0.043456271290779114], [0.03303362801671028, 0.1606592983007431, 0.015385887585580349, 0.06676019728183746, -0.14120526611804962, 0.015114939771592617, 0.1112557128071785, -0.013981211930513382, 0.07386871427297592, -0.10007798671722412, -0.009453661739826202, 0.06510934978723526, 0.035129569470882416, -0.08914355933666229, -0.12486370652914047, -0.10281680524349213, -0.11374465376138687, 0.02518174611032009, 0.0340464822947979, 0.031129835173487663, 0.05352175235748291, 0.08141382783651352, -0.10889152437448502, -0.11651576310396194, 0.07680390775203705, -0.0856638178229332, 0.013401417061686516, -0.12701702117919922, 0.08379006385803223, 0.09408682584762573, -0.07452289015054703, 0.046942710876464844, -0.015889286994934082, -0.18425503373146057, 0.13394509255886078, -0.0797845721244812, -0.09251977503299713, -0.056895188987255096, -0.14669348299503326, 0.061753224581480026, 0.08169614523649216, -0.10742566734552383, 0.025451689958572388, -0.05195998772978783, -0.08166654407978058, -0.11558696627616882, -0.053967494517564774, -0.09273780882358551, 0.027263296768069267, 0.09123028814792633, -0.040520645678043365, 0.08864662051200867, -0.16177287697792053, -0.14184027910232544, -0.02180248312652111, -0.022305436432361603, 0.0803520530462265], [0.1751069724559784, 0.015418622642755508, 0.1603865921497345, -0.09469234943389893, -0.1368577927350998, 0.03379274904727936, 0.08769822865724564, 0.18251226842403412, -0.1331878900527954, -0.137575164437294, 0.13555291295051575, -0.12069842219352722, 0.07624765485525131, -0.032250553369522095, -0.14415760338306427, 0.06431841850280762, -0.06461584568023682, -0.09357821941375732, -0.04562285169959068, 0.01651378907263279, 0.08267857134342194, 0.07852387428283691, 0.1403367668390274, -0.05272132158279419, 0.03656348958611488, 0.014467263594269753, 0.05966277793049812, 0.050477080047130585, 0.0014998349361121655, -0.07367058843374252, -0.11197522282600403, -0.10593278706073761, -0.17108571529388428, -0.09448736160993576, 0.024651572108268738, 0.004722882527858019, -0.024196580052375793, 0.08428327739238739, -0.06316506117582321, 0.011216692626476288, 0.08081778138875961, -0.016263268887996674, 0.12709073722362518, -0.1159776821732521, 0.08368805795907974, -0.028483405709266663, 0.1053379699587822, -0.09485043585300446, 0.12108585238456726, -0.06767049431800842, 0.024932848289608955, 0.11135344207286835, -0.1133933886885643, -0.0132745411247015, -0.0908953845500946, -0.0971725583076477, 0.03630755841732025], [0.004372339230030775, 0.045189566910266876, -0.03483213856816292, -0.08598905056715012, 0.029080545529723167, -0.07011621445417404, 0.06849774718284607, -0.10424337536096573, 0.05849478393793106, -0.17961496114730835, 0.1031326875090599, 0.1341239959001541, 0.041285667568445206, -0.08102211356163025, 0.12911678850650787, -0.1697254180908203, -0.040483515709638596, -0.0743832215666771, 0.08644633740186691, 0.1019773930311203, 0.0871896892786026, 0.03582997992634773, -0.06823162734508514, -0.061185985803604126, -0.06646470725536346, 0.019031517207622528, 0.019025882706046104, 0.002684839768335223, -0.04492869973182678, 0.03879876434803009, 0.007542782928794622, -0.0010539971990510821, -0.055736470967531204, 0.01954442821443081, -0.1331058293581009, -0.10183855891227722, -0.1501225084066391, 0.05419138818979263, -0.084601491689682, -0.14715170860290527, 0.005893569905310869, -0.13405083119869232, 0.12707260251045227, -0.13139475882053375, -0.16096718609333038, 0.02497759275138378, 0.1653563678264618, 0.06178702786564827, 0.10702645033597946, -0.1468725949525833, -0.07499285787343979, -0.13349488377571106, 0.02122601494193077, 0.02538086287677288, 0.048563964664936066, -0.043286994099617004, -0.13870438933372498], [0.20327123999595642, -0.11469707638025284, 0.048873525112867355, -0.07950703799724579, -0.07933182269334793, -0.1080670952796936, -0.08191174268722534, 0.16952119767665863, 0.11764892190694809, -0.0165025033056736, -0.07577114552259445, -0.0005950619233772159, -0.06998839229345322, -0.04362838715314865, 0.09879335016012192, 0.04630625993013382, -0.1172213926911354, -0.005078798625618219, -0.13296185433864594, -0.03595903143286705, -0.0560157336294651, 0.025779079645872116, -0.02290397509932518, 0.0860000029206276, -0.09846377372741699, 0.1647317260503769, 0.005725622642785311, -0.12636405229568481, -0.17370052635669708, -0.1521940380334854, 0.03360145911574364, 0.07295792549848557, -0.0895116925239563, 0.07757680863142014, 0.07352452725172043, 0.009418187662959099, -0.0030983216129243374, 0.07434633374214172, -0.012964184395968914, 0.14419803023338318, -0.123297780752182, 0.0916329100728035, 0.08381868898868561, -0.04517703130841255, -0.06707847118377686, 0.08065161854028702, 0.07827304303646088, -0.048975054174661636, -0.04083795100450516, -0.0666329488158226, 0.03603433445096016, 0.07347732037305832, 0.08403979986906052, 0.05314997583627701, -0.12218989431858063, 0.05924639105796814, 0.08017490804195404], [0.1762685328722, 0.1497253030538559, 0.07102898508310318, -0.02669275552034378, 0.030718065798282623, 0.03642842546105385, -0.1184857115149498, 0.14070332050323486, -0.004991523921489716, 0.13121415674686432, -0.0589715912938118, 0.1095469668507576, -0.1003144383430481, 0.05086100473999977, -0.060435701161623, 0.1327054649591446, 0.10104656964540482, 0.03135468810796738, 0.06237918511033058, -0.041733935475349426, 0.04396684095263481, -0.07230817526578903, 0.022286785766482353, -0.02308741956949234, 0.17400257289409637, 0.005087308585643768, -0.012175668962299824, 0.0556485652923584, 0.00945404265075922, -0.03620399534702301, 0.06771036237478256, -0.12201911211013794, -0.08009383827447891, 0.09437813609838486, -0.1355510652065277, 0.015376458875834942, -0.0684802383184433, -0.03178437426686287, -0.03177430108189583, -0.15742669999599457, -0.004020534921437502, -0.0463702529668808, -0.12111846357584, 0.027091024443507195, -0.027135202661156654, -0.10413647443056107, 0.13132624328136444, -0.071709044277668, 0.06475214660167694, -0.022247079759836197, -0.14094538986682892, 0.0748659074306488, 0.015850920230150223, 0.036869924515485764, -0.012019439600408077, -0.13106387853622437, -0.09999652206897736], [0.07570548355579376, 0.15952442586421967, 0.12670618295669556, -0.02489881031215191, -0.10817153751850128, -0.0870542824268341, -0.1249178871512413, -0.07074598968029022, 0.08455529063940048, 0.006210144609212875, 0.006811647210270166, -0.0004495988832786679, -0.04215807467699051, 0.026333501562476158, -0.04459262266755104, 0.1324416548013687, -0.0400456041097641, -0.13024890422821045, 0.052101749926805496, 0.15428178012371063, 0.0993763655424118, 0.04853583127260208, 0.0806206688284874, -0.189175546169281, -0.0514228455722332, 0.14245407283306122, 0.05340950936079025, -0.1555914431810379, -0.17840982973575592, -0.01000867411494255, -0.14420382678508759, 0.0028853598050773144, 0.11926088482141495, 0.0741436779499054, 0.07549341768026352, -0.10976721346378326, -0.15696823596954346, -0.13996881246566772, -0.15813085436820984, -0.14290787279605865, 0.14047342538833618, -0.16993241012096405, -0.10440869629383087, 0.03566878288984299, -0.05052319914102554, 0.03788318857550621, 0.13211479783058167, 0.10784700512886047, 0.022558914497494698, 0.08577385544776917, -0.1292254626750946, -0.07623815536499023, -0.11375921219587326, -0.06424760073423386, 0.027592239901423454, -0.11352963745594025, 0.047644902020692825], [0.17995014786720276, 0.0010503849480301142, -0.2057855874300003, 0.144478440284729, -0.154458686709404, 0.1447787582874298, -0.11398450285196304, -0.06903821229934692, 0.056450843811035156, 0.12268328666687012, 0.14759941399097443, 0.13809706270694733, -0.03878604993224144, -0.12817785143852234, 0.05506642535328865, -0.0076597207225859165, -0.10348451882600784, -0.01078450120985508, 0.06770092248916626, -0.007384196855127811, 0.13399119675159454, 0.05411580950021744, 0.07412856817245483, 0.16804322600364685, -0.1390487551689148, 0.03275125473737717, -0.16923271119594574, 0.0933917760848999, -0.12180929630994797, -0.06742225587368011, -0.0222934540361166, -0.1390111893415451, -0.0442492812871933, 0.10508620738983154, -0.019972549751400948, -0.024618562310934067, -0.15117524564266205, -0.1190653070807457, 0.021280141547322273, 0.08884548395872116, -0.0642085000872612, -0.030347656458616257, 0.13127490878105164, -0.022929079830646515, -0.003675496205687523, 0.060982681810855865, 0.08255716413259506, 0.15608258545398712, -0.07336629182100296, -0.07967563718557358, 0.009193768724799156, -0.14488431811332703, -0.08410453051328659, -0.10147641599178314, 0.09097252786159515, 0.13090895116329193, -0.11255165189504623], [0.06018226966261864, -0.039012935012578964, -0.07761527597904205, 0.0740395337343216, 0.08982618898153305, 0.04784586653113365, 0.01263558678328991, 0.008576064370572567, 0.0033517242409288883, 0.0840531438589096, 0.1659221649169922, -0.08371277153491974, -0.15634702146053314, -0.02655886672437191, 0.044841986149549484, -0.14922377467155457, 0.13059835135936737, 0.062428951263427734, 0.07504305243492126, 0.09087523072957993, -0.14242853224277496, -0.15824662148952484, 0.06452621519565582, 0.1534034013748169, 0.02985302358865738, -0.11670932173728943, 0.01559721864759922, -0.07979761064052582, -0.02723221480846405, 0.04761475324630737, 0.07717543840408325, -0.004429521970450878, 0.02107512764632702, 0.10072304308414459, -0.0016988738207146525, -0.013356332667171955, 0.017006222158670425, -0.18527919054031372, -0.05847294256091118, -0.08115493506193161, -0.0802762433886528, -0.0032340046018362045, 0.07346232235431671, -0.0315723642706871, -0.10807586461305618, -0.08789456635713577, -0.10074595361948013, 0.0862293615937233, -0.014613155275583267, -0.07450247555971146, -0.01675601489841938, 0.10224883258342743, -0.16243337094783783, -0.15500789880752563, 0.10564485937356949, -0.04282637685537338, 0.1262664645910263], [-0.01586432009935379, -0.16186124086380005, 0.05814625322818756, 0.01359197311103344, -0.14761345088481903, -0.1252659410238266, 0.1399223953485489, 0.10712477564811707, -0.07187050580978394, 0.10898230224847794, -0.03824200853705406, 0.11936959624290466, -0.1521293818950653, -0.12580831348896027, 0.11862460523843765, 0.04090028628706932, -0.05748118832707405, -0.021390721201896667, 0.06970372051000595, 0.17445705831050873, 0.19156035780906677, 0.059966858476400375, 0.010143255814909935, 0.13166949152946472, 0.1397838145494461, -0.086571604013443, -0.16453634202480316, -0.14120598137378693, -0.1833241879940033, -0.1648409068584442, -0.04156257584691048, 0.12659281492233276, -0.1314336210489273, 0.042608678340911865, 0.14242807030677795, -0.16729988157749176, 0.1314690262079239, 0.04496736451983452, 0.06103019043803215, -0.14582164585590363, 0.15442194044589996, 0.09300613403320312, 0.0479968897998333, -0.08325513452291489, -0.01953493244946003, 0.028305217623710632, -0.09663917124271393, 0.14707869291305542, 0.04593116044998169, -0.12616951763629913, 0.00304677477106452, 0.03449257090687752, -0.028847118839621544, 0.01513081043958664, 0.010539325885474682, 0.08831842243671417, 0.016876954585313797], [-0.08253195881843567, -0.12820738554000854, 0.1562366932630539, -0.0772709771990776, 0.14808888733386993, 0.008807114325463772, 0.1624462753534317, 0.031006362289190292, 0.07491350173950195, 0.010558068752288818, -0.09811575710773468, 0.16483990848064423, -0.006597919389605522, -0.05832787603139877, 0.15536753833293915, -0.03951217606663704, -0.04049229249358177, 0.007589745335280895, 0.00845467671751976, 0.060216713696718216, 0.1070174127817154, 0.014390433207154274, -0.12431906163692474, 0.07989452034235, 0.10693644732236862, 0.166026309132576, 0.06129628047347069, -0.00012350527686066926, -0.007972507737576962, -0.03198760002851486, -0.03391271457076073, -0.11010131984949112, -0.028868770226836205, 0.0243298951536417, 0.13817250728607178, -0.06798017770051956, 0.09732712805271149, 0.1302008479833603, 0.028523635119199753, -0.08507214486598969, -0.07830025255680084, -0.1056823879480362, 0.12230741232633591, 0.04388166964054108, -0.033110205084085464, 0.08727123588323593, 0.1703304648399353, 0.05444435775279999, 0.03644151985645294, -0.032308124005794525, 0.008327625691890717, 0.11166046559810638, -0.06358350068330765, -0.11780047416687012, 0.15391254425048828, -0.05536637827754021, 0.0953250378370285], [0.19287051260471344, 0.004557949025183916, 0.1001221239566803, -0.12879718840122223, -0.012128411792218685, -0.1159735843539238, -0.10106252133846283, 0.104047492146492, 0.06322596222162247, 0.04346252605319023, 0.1275358945131302, -0.10080395638942719, -0.05469440668821335, 0.02517123520374298, -0.05722222849726677, 0.025527101010084152, 0.05695657432079315, -0.028062961995601654, 0.011176054365932941, -0.06680810451507568, 0.1544807106256485, 0.0742047131061554, 0.07784349471330643, 0.0871601402759552, -0.06467588245868683, -0.08223659545183182, 0.09619421511888504, 0.04315190762281418, 0.023289760574698448, 0.09152543544769287, 0.028997965157032013, 0.08789608627557755, -0.14329670369625092, 0.0717729777097702, 0.080792635679245, -0.03620358929038048, -0.08804640918970108, 0.030858973041176796, 0.041989684104919434, 0.11884713172912598, 0.0753111019730568, 0.04194978252053261, 0.022100819274783134, -0.12304648011922836, 0.014024694450199604, 0.06120913848280907, -0.017722271382808685, -0.07325968891382217, -0.06504134833812714, 0.08130151778459549, -0.0387001670897007, 0.10114357620477676, 0.025395676493644714, -0.08106707781553268, -0.08480139076709747, 0.11156758666038513, 0.12103855609893799], [0.09138898551464081, -0.11136754602193832, 0.13441102206707, 0.09758374840021133, 0.13082298636436462, 0.031204693019390106, 0.0924760103225708, 0.14263413846492767, -0.017725443467497826, -0.11839497089385986, 0.13443686068058014, 0.15357698500156403, -0.11859007924795151, -0.14832796156406403, -0.13904500007629395, 0.020518960431218147, -0.18289774656295776, -0.0989798977971077, 0.1622818559408188, 0.1433706432580948, 0.18245995044708252, 0.04704182222485542, -0.02294277213513851, -0.08830631524324417, -0.05446362495422363, 0.1334630250930786, -0.1846834272146225, -0.021187759935855865, -0.1454666405916214, -0.04609283432364464, 0.009877372533082962, -0.14428739249706268, -0.10915982723236084, 0.13280636072158813, -0.025047555565834045, -0.010615849867463112, -0.029158519580960274, -0.0732419565320015, 0.08177457004785538, 0.062346603721380234, 0.12088178843259811, 0.001013427972793579, 0.14302347600460052, -0.16456153988838196, -0.18972057104110718, 0.04957414045929909, -0.031208084896206856, 0.1626838594675064, -0.1760459840297699, -0.12802380323410034, 0.0716903954744339, -0.04441870003938675, -0.05492384731769562, -0.0873963013291359, -0.019587868824601173, -0.0013244135770946741, -0.025051696226000786], [0.08809070289134979, 0.1250472068786621, -0.04140952229499817, 0.018549198284745216, -0.09077881276607513, -0.06916656345129013, 0.152348130941391, -0.10920573770999908, 0.038510292768478394, -0.08793480694293976, 0.11951505392789841, -0.03454916924238205, -0.13498231768608093, -0.15959499776363373, -0.13053107261657715, -0.16007331013679504, -0.00786181353032589, 0.1214497908949852, 0.09637098014354706, -0.041294295340776443, 0.1001235693693161, -0.06632965803146362, 0.14030098915100098, -0.1566680669784546, -0.12838156521320343, -0.15189173817634583, 0.09257383644580841, -0.16073627769947052, -0.009150893427431583, 0.06305566430091858, -0.007514683064073324, -0.057707954198122025, 0.059405166655778885, -0.0702168196439743, -0.07362106442451477, -0.1678084433078766, -0.18195465207099915, -0.047884758561849594, -0.16694599390029907, 0.12321914732456207, 0.1635512113571167, 0.06816668808460236, 0.08916974067687988, -0.1694130003452301, -0.0649636834859848, -0.13054795563220978, 0.0036897235549986362, -0.09278061985969543, 0.08685501664876938, -0.1528688222169876, -0.0009595903102308512, 0.1005505621433258, 0.07115800678730011, -0.0901508629322052, 0.10786609351634979, -0.069211944937706, -0.0749378353357315], [0.06144564598798752, 0.10157854110002518, -0.08107713609933853, -0.11664456129074097, 0.1487601101398468, 0.06926228106021881, -0.14687399566173553, -0.02321465313434601, 0.025200949981808662, -0.0955718383193016, 0.00037293124478310347, 0.14415183663368225, 0.11317287385463715, -0.03181636705994606, -0.06571164727210999, -0.07488871365785599, -0.1276143342256546, 0.014506226405501366, 0.1709076166152954, -0.04432160034775734, -0.1277516782283783, -0.11118747293949127, 0.1548842042684555, -0.08562623709440231, -0.0330699197947979, 0.06782341748476028, 0.06171174719929695, 0.08107814937829971, 0.12068270891904831, -0.1262083202600479, -0.09442691504955292, -0.08317181468009949, 0.025428730994462967, -0.12284092605113983, -0.16070058941841125, -0.07716604322195053, -0.012849453836679459, 0.022869376465678215, -0.1184900552034378, 0.14665238559246063, 0.011588891968131065, -0.07495052367448807, -0.10443710535764694, -0.01391990389674902, -0.1541304588317871, -0.04408753663301468, 0.11190547049045563, -0.12852540612220764, -0.09267091006040573, -0.18264061212539673, -0.1675589233636856, -0.02086336351931095, -0.1515682488679886, -0.007333205547183752, 0.10461774468421936, -0.07843488454818726, -0.07291115820407867], [0.04683249816298485, -0.04518624395132065, 0.1679799109697342, 0.07699379324913025, -0.03933031111955643, -0.10249077528715134, 0.12390502542257309, -0.12743015587329865, -0.11308478564023972, -0.16438066959381104, 0.0007904330268502235, 0.07304267585277557, -0.16670526564121246, 0.07209372520446777, -0.14347514510154724, -0.07288577407598495, -0.005392689723521471, 0.03963543847203255, 0.11570117622613907, -0.12788675725460052, 0.08414009213447571, 0.15494437515735626, 0.07175805419683456, 0.17267265915870667, 0.15490145981311798, -0.012311119586229324, -0.009700529277324677, -0.06619181483983994, 0.03499188646674156, -0.19340942800045013, -0.045595843344926834, -0.10220237821340561, -0.05035167187452316, 0.05695459991693497, -0.11672145873308182, -0.13366542756557465, -0.0788489282131195, -0.033891960978507996, -0.07308242470026016, -0.14523303508758545, 0.17901119589805603, 0.03392750397324562, 0.11068398505449295, -0.07156748324632645, -0.06917181611061096, 0.05997240170836449, 0.0994749441742897, 0.13597138226032257, -0.062038715928792953, 0.06746165454387665, -0.13484251499176025, 0.11198841035366058, 0.08013543486595154, -0.05850047245621681, -0.07674328237771988, 0.09379373490810394, -0.11045829951763153], [-0.04478997737169266, 0.15667639672756195, 0.15097357332706451, -0.019734034314751625, -0.02532990835607052, -0.10022346675395966, 0.09469138085842133, 0.10538267344236374, 0.06872865557670593, -0.15681707859039307, 0.09781316667795181, -0.013054195791482925, 0.01004979107528925, -0.014436671510338783, -0.10552932322025299, 0.11413846909999847, 0.10759555548429489, -0.14008007943630219, -0.048055775463581085, -0.08356261253356934, -0.052578430622816086, -0.05605940520763397, 0.1369488537311554, 0.020030315965414047, 0.05973251163959503, -0.12080011516809464, -0.041875194758176804, -0.0991039127111435, -0.19501008093357086, -0.07331893593072891, -0.16920220851898193, -0.13612617552280426, -0.07756618410348892, -0.10165608674287796, -0.02116016484797001, 0.05014772713184357, -0.017405744642019272, -0.12118004262447357, -0.05579134449362755, -0.03297354653477669, 0.16619578003883362, -0.13255637884140015, 0.023806216195225716, -0.10381700098514557, 0.07300092279911041, -0.05872948467731476, 0.0840691551566124, -0.1090233325958252, 0.05464998260140419, -0.012928301468491554, -0.0568014457821846, -0.13555915653705597, 0.07793949544429779, -0.11621749401092529, -0.12153434753417969, 0.10395566374063492, 0.07838859409093857], [0.0735260546207428, 0.1448148936033249, -0.025920167565345764, -0.15374037623405457, 0.02590225450694561, -0.0891151949763298, 0.05036182329058647, 0.12777335941791534, 0.010075848549604416, -0.08523047715425491, -0.02585519477725029, 0.10322199016809464, -0.024327198043465614, -0.031434010714292526, 0.08393462002277374, -0.1302698403596878, 0.00375999603420496, -0.14669004082679749, 0.11423217505216599, -0.06914401799440384, -0.08246688544750214, -0.04240518808364868, -0.06533180177211761, -0.10993486642837524, 0.11439025402069092, 0.12829630076885223, 0.0703045055270195, -0.04563947767019272, 0.03692159801721573, -0.02755163051187992, 0.10255520790815353, 0.019595438614487648, -0.04486875236034393, 0.057724729180336, 0.080940842628479, 0.02289740927517414, -0.0285227969288826, -0.05104019120335579, 0.05941852927207947, -0.13033169507980347, 0.09456940740346909, -0.09155958890914917, -0.11144278198480606, -0.035324037075042725, 0.08096344769001007, 0.06559249758720398, 0.09195017069578171, -0.04277544468641281, 0.051758136600255966, -0.018725140020251274, 0.018380723893642426, 0.05956805869936943, -0.07955318689346313, -0.001686249626800418, -0.011000296100974083, 0.026463128626346588, 0.0036907177418470383], [-0.07384340465068817, 0.1519230306148529, -0.14002613723278046, -0.07019428163766861, 0.041292984038591385, -0.06880426406860352, -0.10231417417526245, 0.06884600967168808, -0.022164713591337204, -0.12147469073534012, -0.05713861435651779, 0.010351826436817646, -0.14944426715373993, -0.11958009749650955, -0.04603328928351402, -0.06545358896255493, 0.12770114839076996, -0.1220497414469719, 0.10027213394641876, -0.1006668284535408, 0.14841081202030182, -0.12123041599988937, 0.09493795037269592, 0.10141017287969589, 0.05954205244779587, 0.07630730420351028, -0.1553507000207901, 0.0384177602827549, -0.13393564522266388, 0.014507889747619629, -0.032743677496910095, 0.02196776494383812, -0.1414744108915329, 0.05095236748456955, 0.07638970762491226, -0.06926744431257248, 0.03292841836810112, -0.08094753324985504, -0.12633022665977478, -0.01671632006764412, 0.17217792570590973, -0.02505251206457615, -0.07326020300388336, 0.04445424675941467, 0.10411689430475235, -0.09239600598812103, 0.14207911491394043, -0.10663842409849167, -0.08839483559131622, -0.01375463418662548, -0.1615176945924759, 0.0048693399876356125, -0.16163744032382965, -0.13278886675834656, -0.08545592427253723, 0.025174180045723915, -0.06265463680028915], [0.0984451025724411, 0.09242577850818634, -0.08135221153497696, -0.003083181567490101, 0.08069723099470139, -0.06940332055091858, 0.07850978523492813, 0.08740527927875519, 0.00014967372408136725, 0.010985367000102997, -0.11330971121788025, -0.029876893386244774, -0.007455155719071627, 0.09930797666311264, 0.049915287643671036, -0.03658732771873474, -0.09314677864313126, 0.01450718380510807, -0.04720241576433182, 0.03899667039513588, -0.05493476986885071, -0.10300689190626144, -0.08949054777622223, -0.013282072730362415, 0.11285935342311859, 0.03772986680269241, -0.12394151836633682, -0.14841607213020325, 0.07754359394311905, 0.054682228714227676, -0.09955808520317078, -0.05447440221905708, 0.14506907761096954, -0.0757802352309227, 0.050553906708955765, 0.10063907504081726, 0.049120496958494186, 0.013030246831476688, -0.11871305853128433, -0.02297626994550228, -0.11592170596122742, -0.07999058067798615, 0.13668440282344818, -0.07845834642648697, 0.0848279818892479, -0.10048049688339233, 0.019611520692706108, -0.10020410269498825, -0.012727051973342896, -0.057738833129405975, -0.09587591886520386, 0.10455379635095596, -0.0534566268324852, -0.11649990826845169, 0.13854818046092987, -0.06566949933767319, -0.0819081962108612], [0.0804862529039383, -0.03558715805411339, -0.10245832055807114, -0.025790182873606682, -0.07652503252029419, -0.06547531485557556, -0.0546724908053875, 0.012284486554563046, 0.1328505128622055, -0.10484400391578674, 0.15001867711544037, 0.049962837249040604, -0.06877084076404572, -0.029367592185735703, -0.1711435168981552, 0.04992092400789261, -0.10008998215198517, -0.05594218522310257, 0.10310447216033936, 0.10375789552927017, -0.0347258560359478, -0.036025721579790115, -0.1033707857131958, 0.14513736963272095, 0.14433450996875763, 0.011814186349511147, 0.07025165855884552, -0.16738930344581604, -0.017902174964547157, -0.051951829344034195, -0.007428290322422981, 0.04565387964248657, 0.07733318209648132, -0.1226244792342186, 0.035747360438108444, -0.08711360394954681, -0.06306148320436478, -0.019289812073111534, -0.03603043779730797, -0.006146760657429695, 0.08631805330514908, -0.03592619672417641, 0.10680674016475677, -0.05775194987654686, -0.08811704814434052, -0.11182896047830582, -0.021908726543188095, 0.1410861760377884, 0.12853851914405823, 0.057432886213064194, -0.1528947353363037, 0.011346172541379929, -0.10908786952495575, -0.004680432379245758, 0.08689683675765991, -0.06419437378644943, -0.013078900054097176], [-0.022309036925435066, -0.10582467168569565, 0.025849804282188416, 0.05000128969550133, 0.11212358623743057, -0.1275007128715515, 0.0752946063876152, -0.09762000292539597, -0.07414164394140244, -0.11792319267988205, 0.08916520327329636, 0.015403901226818562, -0.09567931294441223, -0.07122274488210678, 0.07144387066364288, 0.009962198324501514, -0.05303239822387695, 0.034882135689258575, 0.011695458553731441, 0.037937335669994354, -0.10114315152168274, -0.08279207348823547, 0.07216069102287292, 0.05857738479971886, -0.054782163351774216, 0.06199048459529877, 0.09211735427379608, 0.06552666425704956, -0.008777731098234653, -0.0495002306997776, 0.04908358305692673, 0.08194181323051453, -0.0039000222459435463, 0.02992904558777809, -0.014511940069496632, 0.12442510575056076, -0.1059412807226181, 0.10231315344572067, 0.08119566738605499, -0.008730080910027027, -0.08486669510602951, 0.0671137347817421, -0.09105539321899414, -0.009893695823848248, -0.01800483651459217, -0.011470803059637547, 0.1341196596622467, 0.09527333080768585, 0.04062674567103386, 0.03541327267885208, -0.015502871945500374, -0.13296033442020416, 0.02467530593276024, -0.1144636869430542, 0.029224419966340065, -0.03797323256731033, -0.0684669241309166], [0.19526885449886322, -0.0961337462067604, -0.03212345391511917, 0.12805314362049103, 0.009806390851736069, -0.06966089457273483, -0.09531782567501068, -0.016659747809171677, -0.021095501258969307, 0.10328187793493271, -0.1015806719660759, 0.11354299634695053, -0.16919919848442078, 0.03721360117197037, 0.021928979083895683, -0.07342987507581711, -0.011025327257812023, 0.1320655345916748, -0.007576534524559975, 0.040164221078157425, -0.0972040519118309, 0.09274803102016449, -0.12687626481056213, 0.1694353073835373, -0.046785902231931686, 0.05156717449426651, 0.06975267082452774, -0.05356745421886444, -0.06729023903608322, -0.02665635012090206, 0.0358804315328598, 0.08746600151062012, 0.05005732178688049, -0.013405448757112026, 0.0064407894387841225, 0.12397255748510361, 0.09336774796247482, -0.14625824987888336, -0.049509868025779724, -0.10923705250024796, 0.11802584677934647, -0.011064260266721249, -0.11081932485103607, -0.167307049036026, -0.17169523239135742, -0.026495566591620445, 0.0746678039431572, -0.1736549437046051, -0.14333686232566833, -0.16719114780426025, -0.15157566964626312, -0.026194734498858452, -0.10463251918554306, -0.12155301123857498, 0.13285566866397858, -0.030341222882270813, -0.12824855744838715], [0.0739361047744751, -0.13802136480808258, 0.02584868296980858, 0.07780133187770844, -0.13233539462089539, 0.10921621322631836, 0.12103809416294098, -0.09120958298444748, -0.010172425769269466, -0.024054232984781265, 0.15084433555603027, -0.025458192452788353, 0.08197018504142761, -0.14186468720436096, -0.16697709262371063, 0.1408415287733078, -0.09401962906122208, -0.032075583934783936, 0.08082423359155655, 0.03647113963961601, -0.04041123390197754, 0.057733722031116486, 0.03474382683634758, -0.1489221453666687, 0.14109857380390167, 0.052795492112636566, -0.21316921710968018, 0.0004931032890453935, -0.008672605268657207, -0.0655677318572998, -0.055542346090078354, -0.02349746786057949, 0.10821933299303055, 0.050992805510759354, 0.10455706715583801, -0.06643281131982803, 0.06758740544319153, -0.05507878586649895, 0.05659813806414604, 0.040002595633268356, -0.003968661185353994, 0.15222258865833282, -0.05423019081354141, -0.12972484529018402, -0.055654678493738174, -0.04166729003190994, 0.07030268758535385, 0.14675794541835785, -0.11961733549833298, -0.12948694825172424, -0.02176026627421379, 0.06226867809891701, 0.07113854587078094, 0.014729615300893784, -0.1439976841211319, 0.055809732526540756, 0.03906978666782379], [0.17624011635780334, 0.09469437599182129, 0.13522759079933167, -0.060655951499938965, 0.00946582481265068, -0.0842197835445404, 0.11694306880235672, -0.09483876079320908, 0.06946799159049988, -0.09157883375883102, -0.08193594217300415, 0.025708092376589775, -0.07898295670747757, -0.13964200019836426, 0.1448010802268982, -0.16998836398124695, -0.008510924875736237, 0.14043954014778137, 0.17535752058029175, 0.1391179859638214, -0.07372161000967026, 0.03853236138820648, 0.11099683493375778, 0.07292348146438599, -0.012882562354207039, -0.10858024656772614, -0.006329054944217205, 0.08054745197296143, -0.14143279194831848, -0.13472948968410492, 0.05177849158644676, -0.15065599977970123, 0.018096087500452995, 0.1255667507648468, 0.16878566145896912, -0.05090760439634323, -0.10239708423614502, 0.06616287678480148, -0.10229834914207458, -0.02859141305088997, -0.10413692146539688, 0.10496930778026581, 0.06264513731002808, 0.084032341837883, -0.03245335444808006, -0.11161889880895615, 0.10100806504487991, 0.08400075137615204, -0.03538362309336662, -0.06601131707429886, 0.053065307438373566, -0.06599538773298264, -0.05424102395772934, -0.06428851187229156, 0.027095844969153404, -0.13421352207660675, 0.006944397930055857], [-0.04744552820920944, 0.08078795671463013, 0.05441416800022125, 0.07455411553382874, -0.08810589462518692, 0.04365606606006622, -0.07665018737316132, 0.02135022170841694, 0.004237913992255926, 0.12728649377822876, -0.057009633630514145, 0.15030930936336517, -0.03657866641879082, 0.08397484570741653, 0.016375364735722542, 0.048995427787303925, -0.15334226191043854, 0.1268463432788849, -0.11447861790657043, -0.004848375450819731, -0.04390097036957741, -0.03529943898320198, 0.00534340925514698, 0.023574236780405045, -0.04461297392845154, -0.04606417194008827, -0.11161644756793976, 0.05654896795749664, 0.06234729662537575, 0.03196198120713234, -0.09124081581830978, 0.006753414869308472, -0.08399059623479843, -0.13320285081863403, 0.03537885472178459, 0.015583846718072891, -0.05376749485731125, 0.018115222454071045, 0.017303889617323875, -0.10778506845235825, -0.08608949929475784, -0.04037223383784294, -0.052944768220186234, -0.026522504165768623, -0.04810314252972603, -0.09684446454048157, 0.15703925490379333, -0.1083853542804718, -0.022814879193902016, -0.035230353474617004, -0.022926663979887962, -0.112238809466362, -0.09714750945568085, 0.022975653409957886, 0.08311234414577484, -0.13814085721969604, -0.032315924763679504], [-0.03981062024831772, -0.11542704701423645, -0.055307094007730484, 0.14075641334056854, -0.1354360580444336, -0.061499763280153275, 0.022652382031083107, 0.0739496648311615, 0.11521974205970764, -0.15185867249965668, 0.14847855269908905, -0.035817768424749374, -0.07516414672136307, -0.09322865307331085, 0.06415882706642151, -0.19369105994701385, -0.18501733243465424, 0.04421432688832283, 0.03774840384721756, -0.0691082701086998, 0.014577784575521946, -0.008421937003731728, -0.06615127623081207, 0.16203370690345764, 0.054475873708724976, 0.05912824347615242, -0.1592029482126236, -0.02257637493312359, -0.02845710515975952, -0.10975415259599686, -0.09837081283330917, -0.06554955989122391, -0.04917141795158386, 0.01319821272045374, -0.13804543018341064, 0.09552469104528427, 0.10356005281209946, -0.05945639684796333, -0.07405269145965576, -0.12624134123325348, -0.06598469614982605, 0.12531810998916626, -0.14420755207538605, -0.040640272200107574, -0.028364084661006927, 0.048379432410001755, 0.13397027552127838, 0.07425114512443542, -0.16960284113883972, 0.004072606563568115, -0.004723124206066132, -0.14156906306743622, -0.1547669619321823, 0.012742698192596436, 0.0029534201603382826, -0.11012312024831772, -0.16177378594875336], [-0.012383042834699154, -0.11265263706445694, 0.13902439177036285, 0.10911041498184204, -0.008723784238100052, -0.0862075686454773, -0.16411623358726501, 0.0763850063085556, 0.08169347792863846, 0.10143309086561203, -0.049098338931798935, 0.07778678834438324, 0.07135839760303497, 0.06709975004196167, 0.07112306356430054, -0.09253538399934769, 0.035917531698942184, -0.0684451088309288, -0.03786087781190872, -0.10072776675224304, 0.01954035647213459, -0.05361921340227127, -0.07247583568096161, -0.0759013369679451, -0.05772199481725693, 0.13394813239574432, 0.1189732551574707, -0.13905735313892365, -0.00916972104460001, -0.09616503119468689, 0.10353187471628189, 0.11832932382822037, 0.0002783554664347321, 0.042901940643787384, -0.11680734902620316, 0.07479789108037949, -0.044151850044727325, 0.06888146698474884, 0.092229463160038, 0.007012683432549238, -0.07617615163326263, 0.017192233353853226, -0.06519504636526108, -0.07223375141620636, -0.08171645551919937, -0.03466910123825073, -0.011916284449398518, -0.015389503911137581, -0.03542067110538483, -0.02789863757789135, -0.08672516793012619, 0.017232540994882584, -0.05189952626824379, -0.020961996167898178, 0.09717774391174316, -0.047277454286813736, -0.12367508560419083], [-0.052444398403167725, -0.030814900994300842, -0.00290278228931129, 0.12109853327274323, -0.13109000027179718, 0.06040259823203087, 0.09427148848772049, 0.08335785567760468, -0.10025002062320709, -0.1507347673177719, 0.0992165207862854, 0.11561717092990875, -0.050232816487550735, 0.07507549226284027, 0.08276119828224182, -0.05168168246746063, -0.04248872026801109, 0.1231592446565628, -0.09804754704236984, -0.12691083550453186, -0.0273723304271698, 0.09613685309886932, -0.08678902685642242, -0.008676622062921524, -0.00907494779676199, 0.10278122872114182, -0.030211206525564194, -0.07734951376914978, 0.007961058989167213, 0.0738738477230072, -0.11593567579984665, -0.09881602227687836, 0.055254265666007996, -0.15613658726215363, 0.0029071220196783543, 0.11968885362148285, -0.11662298440933228, -0.08172048628330231, 0.09936664998531342, -0.08490507304668427, -0.08189531415700912, -0.12424170970916748, 0.15176664292812347, -0.10358940064907074, 0.10603895783424377, -0.1039610281586647, 0.16378238797187805, 0.14749112725257874, -0.14040903747081757, -0.0068180738016963005, -0.12028941512107849, 0.08357029408216476, 0.08469817787408829, -0.12327183037996292, -0.08793257176876068, 0.11873123794794083, -0.10176055133342743], [0.06189659982919693, -0.06956330686807632, -0.1280999630689621, -0.05801893398165703, -0.056934457272291183, 0.06641503423452377, 0.07787010818719864, 0.09585019946098328, -0.016116922721266747, 0.1508646309375763, 0.04753739759325981, -0.03817412629723549, -0.011720502749085426, -0.06851493567228317, -0.0438973568379879, -0.0070891305804252625, 0.06903018057346344, 0.1304997354745865, -0.14415951073169708, -0.12180042266845703, -0.15425483882427216, 0.12133368104696274, -0.15276175737380981, 0.0951148122549057, 0.16751083731651306, -0.14822877943515778, -0.12092005461454391, -0.15642313659191132, -0.04754575341939926, -0.09665777534246445, 0.03439942002296448, -0.03878220543265343, 0.02012467198073864, 0.03956378996372223, 0.09553734958171844, -0.0024903391022235155, -0.15234749019145966, -0.0889073982834816, -0.034948140382766724, 0.08265501260757446, 0.011015311814844608, -0.013951362110674381, -0.09357763081789017, 0.0949113592505455, -0.12338493019342422, -0.07938748598098755, 0.07877020537853241, 0.03281914070248604, 0.0377473309636116, -0.11125858873128891, -0.06926921010017395, -0.12847143411636353, -0.05026952177286148, 0.03599562868475914, 0.11411033570766449, -0.022107455879449844, -0.09301657229661942], [0.10527017712593079, 0.12209219485521317, -0.12743382155895233, -0.14418084919452667, -0.020685922354459763, 0.12766733765602112, 0.023122718557715416, -0.056006696075201035, -0.051789358258247375, 0.11438435316085815, 0.12455274164676666, 0.1722981035709381, -0.04165421053767204, 0.045498788356781006, 0.060131751000881195, -0.057744525372982025, 0.036526504904031754, 0.07759436964988708, 0.06899207830429077, -0.1667424589395523, 0.0792885571718216, 0.15875782072544098, 0.011347103863954544, 0.0959964245557785, 0.12203042209148407, 0.04577593132853508, -0.061453092843294144, -0.04725328087806702, 0.09154102206230164, -0.03985636681318283, -0.13278421759605408, -0.1049053817987442, 0.10506704449653625, -0.13773474097251892, 0.09205029159784317, 0.04860015958547592, -0.12099527567625046, 0.03291542828083038, -0.0007713813101872802, -0.08719274401664734, 0.062422506511211395, 0.12295199185609818, 0.06148366257548332, -0.15546992421150208, -0.1200018972158432, -0.15728861093521118, 0.13300345838069916, 0.023871438577771187, -0.09997498989105225, -0.17450928688049316, -0.0639614388346672, -0.0052877566777169704, -0.06524227559566498, -0.1356329619884491, -0.06881753355264664, -0.054017528891563416, -0.04973897710442543], [0.07086696475744247, -0.08277872949838638, -0.12840577960014343, 0.16859063506126404, 0.06955559551715851, -0.11701211333274841, 0.10607317835092545, 0.013304121792316437, -0.09219948202371597, -0.07530975341796875, 0.0033360770903527737, 0.08413013070821762, -0.10148139297962189, -0.039742548018693924, -0.0460645966231823, -0.04922974482178688, -0.05058090761303902, 0.12808308005332947, -0.07367856055498123, 0.11559954285621643, -0.012611011043190956, -0.04198256507515907, 0.1188565194606781, 0.05470722168684006, -0.08069563657045364, -0.04677074775099754, -0.07896974682807922, 0.011484024114906788, 0.04899841919541359, -0.02525470405817032, 0.03503431752324104, 0.07624916732311249, 0.09193012863397598, 0.09658960998058319, -0.09261629730463028, -0.1296747326850891, -0.08763599395751953, -0.04588852822780609, -0.0828784629702568, 0.0004967531422153115, -0.027648158371448517, 0.09315188974142075, -0.0425165630877018, -0.06550250947475433, -0.046123720705509186, 0.029248811304569244, 0.02158142440021038, -0.049896176904439926, 0.10269983112812042, -0.014542508870363235, -0.013625385239720345, -0.08284115046262741, -0.15856482088565826, -0.03114372119307518, 0.054229170083999634, -0.10594688355922699, -0.1039610281586647], [-0.022123945876955986, 0.0748465359210968, -0.0688154324889183, 0.1497914344072342, -0.12614180147647858, -0.08127816766500473, 0.009939633309841156, 0.07923168689012527, 0.005104711279273033, -0.0368676483631134, -0.02887685038149357, 0.047191839665174484, -0.04865582659840584, 0.061847444623708725, 0.014364740811288357, -0.10306345671415329, -0.1821201741695404, -0.06072726100683212, 0.11164852976799011, -0.10063150525093079, 0.010290443897247314, 0.04997144266963005, 0.055980511009693146, 0.01612311787903309, 0.1297084391117096, 0.02774130180478096, -0.1226319670677185, -0.10086216777563095, -0.0897403433918953, 0.030457880347967148, -0.06500601023435593, 0.09733845293521881, -0.12490542978048325, 0.06669783592224121, -0.01448285672813654, -0.12166640162467957, -0.017023777589201927, -0.019885027781128883, 0.025196360424160957, -0.05008214712142944, 0.08362100273370743, -0.02797945775091648, 0.11208559572696686, 0.04582985118031502, -0.06969387084245682, -0.054073262959718704, -0.08348987251520157, 0.05347903445363045, -0.16549673676490784, -0.06615475565195084, -0.04157431796193123, 0.05468560382723808, 0.03765658289194107, -0.003231063950806856, 0.004311118274927139, -0.03723323717713356, 0.1271425187587738], [-0.03701014071702957, 0.12396380305290222, 0.13606946170330048, -0.048833735287189484, 0.14489467442035675, 0.12334936857223511, -0.04341466352343559, -0.06604750454425812, 0.15455442667007446, -0.13210228085517883, 0.09474077820777893, 0.06631892174482346, -0.17015960812568665, -0.0020518533419817686, -0.07750009000301361, 0.06901917606592178, 0.06311868131160736, 0.1054212674498558, 0.13948605954647064, 0.035368412733078, 0.10411233454942703, 0.06511212140321732, 0.06517814844846725, 0.0915575698018074, 0.03230166807770729, 0.08866589516401291, 0.09648800641298294, -0.0503312349319458, -0.0167134627699852, -0.11934956163167953, -0.14466190338134766, -0.08911389857530594, -0.11625675857067108, -0.07938610017299652, -0.08629138022661209, -0.0790257379412651, 0.09562868624925613, -0.07963192462921143, -0.10567601770162582, -0.13627806305885315, 0.07987330853939056, -0.19057567417621613, 0.14639972150325775, -0.02497931197285652, -0.09705742448568344, -0.07284638285636902, 0.10456886142492294, -0.1372801810503006, -0.11101535707712173, 0.004262348636984825, 0.04044397175312042, -0.049699265509843826, -0.1316693127155304, -0.004597258288413286, 0.02940962091088295, 0.01609874702990055, -0.049886304885149], [-0.06450826674699783, 0.09593750536441803, -0.13527169823646545, -0.0228117648512125, 0.16055718064308167, -0.059652600437402725, -0.044806696474552155, 0.06988360732793808, -0.061834029853343964, 0.07924289256334305, 0.17056667804718018, 0.1560492217540741, 0.03596590831875801, -0.14578889310359955, -0.12225225567817688, -0.05752189829945564, -0.0836712121963501, 0.1470470428466797, 0.016902050003409386, 0.0730537623167038, -0.08552965521812439, 0.11462326347827911, 0.11060573160648346, -0.09242016822099686, 0.06954719871282578, -0.09058377891778946, 0.03381028398871422, -0.047537658363580704, 0.04393626004457474, 0.06754687428474426, 0.02605551853775978, 0.03259104862809181, 0.1671028882265091, 0.05563219264149666, -0.09400732070207596, -0.11681762337684631, -0.1206420511007309, -0.07571136206388474, -0.09988566488027573, -0.09134263545274734, -0.0601237416267395, 0.13102073967456818, -0.016022061929106712, -0.0017494962085038424, -0.016055509448051453, -0.1241595670580864, -0.09680097550153732, -0.01041093748062849, -0.03409140184521675, -0.029765380546450615, 0.07223115861415863, 0.05327802523970604, 0.09689782559871674, -0.05199440196156502, 0.10729438811540604, 0.06759971380233765, -0.0820273831486702], [0.18747924268245697, 0.0017151038628071547, -0.03532824665307999, 0.08633126318454742, -0.15092304348945618, -0.11124074459075928, 0.028938040137290955, -0.15943223237991333, 0.15330824255943298, 0.1390949934720993, 0.14550575613975525, 0.12178504467010498, -0.12058675289154053, -0.10486001521348953, 0.13539904356002808, 0.11936822533607483, -0.06715542078018188, -0.074018195271492, 0.043687526136636734, -0.03973086178302765, -0.031972117722034454, 0.08932176232337952, 0.10345850139856339, -0.08235391974449158, -0.13454532623291016, -0.03603462129831314, -0.1466025561094284, -0.1344938725233078, -0.07696528732776642, -0.13601645827293396, 0.014563123695552349, 0.01267435122281313, 0.07315532863140106, -0.03947178274393082, -0.08717595040798187, -0.10453544557094574, -0.11217062175273895, 0.09074579179286957, -0.09475977718830109, 0.07051451504230499, -0.08596765995025635, -0.04633403569459915, 0.011083925142884254, 0.011404270306229591, -0.012742720544338226, -0.012067905627191067, -0.15830795466899872, 0.09873423725366592, -0.13275966048240662, 0.09117580950260162, -0.13198135793209076, -0.11122091114521027, -0.010806876234710217, -0.00614769896492362, 0.0569826103746891, -0.14172178506851196, 0.023852428421378136], [0.009050294756889343, 0.08512037247419357, -0.05239109322428703, 0.06206279247999191, 0.0006399961421266198, -0.09507409483194351, -0.09144377708435059, 0.05262608826160431, 0.01831064559519291, 0.13591313362121582, 0.13299624621868134, -0.0974108874797821, 0.08613660931587219, -0.10957229137420654, -0.056413669139146805, 0.021749773994088173, -0.05176537483930588, -0.11912265419960022, 0.1567143201828003, -0.02809143252670765, -0.06443958729505539, -0.07469622790813446, -0.121764175593853, -0.10745774954557419, -0.093460813164711, -0.08620720356702805, -0.1381554901599884, -0.04384993761777878, -0.1563287377357483, 0.08448894321918488, 0.1031685471534729, 0.09892843663692474, -0.04982325807213783, -0.07769547402858734, -0.0713644027709961, 0.1449105441570282, 0.04450510814785957, 0.016301918774843216, -0.006090841256082058, 0.13821810483932495, 0.14950181543827057, 0.15452562272548676, 0.12798641622066498, -0.15470914542675018, -0.09002479165792465, -0.13278619945049286, -0.0004271785437595099, -0.08881954103708267, 0.09306942671537399, -0.08329757302999496, 0.032726921141147614, 0.05508154630661011, -0.06776092946529388, -0.014150173403322697, 0.11239321529865265, 0.053553178906440735, -0.17704834043979645], [0.10913663357496262, 0.0033012416679412127, 0.008441977202892303, 0.11659786105155945, 0.05717410892248154, 0.08489888906478882, -0.12848909199237823, 0.02465628646314144, -0.07148505002260208, -0.1304573118686676, 0.0050501772202551365, 0.08257245272397995, 0.02484588511288166, -0.0831572413444519, -0.07938031107187271, -0.04201073572039604, -0.06538593769073486, -0.14142118394374847, -0.01432330347597599, 0.09292963892221451, 0.16023527085781097, -0.010304907336831093, 0.14037515223026276, -0.0036801001988351345, -0.12852098047733307, 0.004939757287502289, -0.14518921077251434, -0.1655585914850235, -0.13256561756134033, 0.08208257704973221, 0.0790056511759758, 0.10641632229089737, 0.009236898273229599, 0.03870182856917381, 0.05307238548994064, 0.05355233699083328, 0.06859561800956726, 0.11338171362876892, -0.116452656686306, -0.06858363747596741, 0.18161918222904205, -0.072641521692276, 0.12064408510923386, -0.12911097705364227, -0.11354812234640121, -0.03078421764075756, -0.08703389018774033, -0.1368737518787384, 0.016301410272717476, 0.04628477618098259, -0.06049616262316704, -0.005997431930154562, -0.0960061252117157, -0.06495731323957443, 0.08424466103315353, -0.04792369157075882, -0.1611117124557495], [-0.0796157643198967, -0.03806973621249199, -0.07324979454278946, 0.08755718916654587, 0.0680057480931282, -0.11011572927236557, -0.14729072153568268, 0.08948013186454773, 0.05505936220288277, -0.031443752348423004, 0.043309006839990616, -0.0750696137547493, -0.07156688719987869, 0.05758880823850632, -0.0402032695710659, 0.054024867713451385, 0.03846694529056549, -0.10903625935316086, 0.13709503412246704, 0.09098251909017563, -0.07077034562826157, 0.1332683563232422, -0.08814971148967743, 0.14697347581386566, 0.11249400675296783, 0.16615214943885803, 0.11353768408298492, 0.08831356465816498, -0.12571977078914642, 0.02948908507823944, -0.0883636474609375, 0.003354778978973627, -0.021919172257184982, -0.0968381017446518, 0.06842906773090363, -0.11389348655939102, -0.027839386835694313, 0.10222265869379044, -0.05309483781456947, -0.10115095973014832, 0.006766594015061855, 0.0926755741238594, 0.03176683932542801, -0.16464263200759888, -0.13840776681900024, -0.06828008592128754, -0.007752837613224983, 0.15546630322933197, 0.04620019346475601, -0.0014677190920338035, 0.06531590968370438, 0.11678697168827057, 0.05862199887633324, -0.060679901391267776, 0.08484479039907455, -0.13240517675876617, 0.04199571907520294], [-0.030141053721308708, -0.1258438676595688, -0.11663272976875305, -0.08410418778657913, 0.01762154884636402, 0.002085097599774599, -0.06553880125284195, 0.03251291438937187, 0.03369617089629173, -0.01084620226174593, 0.030458398163318634, 0.14165645837783813, -0.016250332817435265, -0.05526655167341232, -0.06755416095256805, 0.057068582624197006, 0.04495888948440552, -0.07632999867200851, 0.0072668748907744884, -0.02598467655479908, -0.0899726003408432, -0.049863580614328384, -0.11509416252374649, 0.09395875036716461, -0.04783441498875618, 0.1551329791545868, -0.05537831038236618, -0.11267100274562836, 0.08149078488349915, -0.048641517758369446, 0.014816362410783768, -0.11053027957677841, -0.07040300965309143, 0.11736082285642624, 0.026317961513996124, 0.0786832943558693, -0.09325044602155685, -0.11763724684715271, 0.07535035908222198, -0.055611953139305115, 0.1467091590166092, -0.0426863469183445, 0.0652463510632515, 0.008228521794080734, 0.08514650911092758, 0.0652509406208992, -0.01735549047589302, -0.08448128402233124, 0.08721660822629929, -0.031689200550317764, -0.024585193023085594, -0.08859523385763168, -0.035723790526390076, 0.009665511548519135, -0.11925182491540909, -0.13250713050365448, 0.06953062117099762], [0.2075529247522354, 0.006371041294187307, -0.09600517153739929, 0.12009365856647491, -0.1408875286579132, -0.04907144606113434, 0.017023561522364616, 0.040517281740903854, 0.08669442683458328, -0.1300732046365738, 0.14227330684661865, 0.03479521721601486, -0.00030836346559226513, -0.07378785312175751, -0.14533677697181702, -0.039352718740701675, -0.21594113111495972, -0.020509421825408936, 0.08181753754615784, 0.055380914360284805, 0.09748657792806625, 0.006398174911737442, 0.15843601524829865, 0.022724278271198273, 0.002659008838236332, -0.09279271960258484, -0.16960014402866364, -0.07883882522583008, -0.14678385853767395, -0.08270926028490067, -0.07370596379041672, -0.08493413031101227, -0.056869953870773315, -0.06580635160207748, 0.13310448825359344, -0.09593548625707626, 0.06732635945081711, -0.19056178629398346, -0.15066319704055786, 0.034072548151016235, 0.110969677567482, 0.059566617012023926, -0.10788239538669586, 0.01821797899901867, -0.19257211685180664, -0.07722947746515274, 0.11129157990217209, 0.11100155860185623, -0.16956155002117157, -0.17103077471256256, -0.1524302363395691, -0.17204101383686066, -0.09836028516292572, -0.02443098835647106, 0.12859341502189636, 0.025074666365981102, 0.008022795431315899], 