{"layers": [{"W": [[-0.0871303528547287, -0.08390282094478607, 0.08238402009010315, 0.043686073273420334, 0.12801095843315125, 0.04898954927921295, 0.0603923499584198, 0.03583298996090889, -0.029268961399793625, -0.11360809952020645, -0.0031695470679551363, -0.036519598215818405, 0.11035015434026718, -0.11348576843738556, -0.045992184430360794, -0.10178270190954208, -0.142676442861557, 0.09142124652862549, 0.08898033201694489, -0.14045661687850952, -0.07984364032745361, 0.15880227088928223, -0.05869576334953308, -0.07619871944189072, -0.1511995643377304, -0.0034715812653303146, 0.13341191411018372, 0.12554246187210083, -0.03476471081376076, 0.07407569885253906, -0.05483294650912285, 0.06674175709486008, -0.062444813549518585, 0.09085053950548172, -0.11158733814954758, -0.11664159595966339, -0.11907356232404709, -0.14387711882591248, -0.05676363408565521, -0.06580273807048798, -0.14986473321914673, 0.0015949863009154797, -0.0997760221362114], [-0.044370200484991074, 0.15140175819396973, -0.11095726490020752, 0.06738384068012238, 0.1375284194946289, -0.006378680933266878, -0.023035073652863503, -0.015658840537071228, 0.008909580297768116, -0.07468736171722412, -0.09646882861852646, 0.15787914395332336, 0.08637618273496628, 0.08865968883037567, 0.013845778070390224, -0.09911680966615677, 0.0996987447142601, -0.12082113325595856, 0.011284856125712395, -0.10029558837413788, 0.007493050303310156, -0.08094707876443863, 0.09489195793867111, 0.10189850628376007, 0.10392165929079056, 0.08690222352743149, 0.06212816387414932, -0.0706113800406456, 0.11448954045772552, -0.13837996125221252, -0.12165047228336334, -0.14404016733169556, 0.09557503461837769, -0.13137508928775787, 0.06491079926490784, -0.09749890118837357, 0.00441927183419466, 0.16539143025875092, -0.03411191329360008, -0.11090529710054398, 0.05816943198442459, -0.02185586653649807, 0.005222241394221783], [-0.05049404874444008, 0.01597181335091591, 0.032977789640426636, 0.04299892857670784, -0.1346573382616043, -0.09418638050556183, -0.03074834682047367, 0.07877000421285629, 0.13310115039348602, -0.05260201916098595, -0.15606556832790375, -0.06112579256296158, -0.014336843974888325, -0.10361366719007492, 0.09779483079910278, -0.009599300101399422, 0.14302273094654083, -0.020092124119400978, -0.07773430645465851, 0.008659510873258114, -0.03201332688331604, 0.009922677651047707, -0.11664389073848724, 0.16756051778793335, -0.14296549558639526, -0.04457780346274376, 0.05831303820014, 0.14078165590763092, 0.012762369588017464, 0.08743590116500854, 0.08995182067155838, 0.04369763657450676, 0.15033471584320068, 0.11025040596723557, 0.12887397408485413, 0.12984488904476166, 0.09664177894592285, 0.015891505405306816, 0.01901562139391899, 0.004254345782101154, 0.10495685786008835, -0.0705670565366745, 0.09671619534492493], [0.11451373994350433, 0.0009222513763234019, -0.14267097413539886, 0.07654966413974762, -0.13877131044864655, -0.10555244237184525, -0.030421946197748184, -0.0525992214679718, -0.11362230032682419, 0.13396766781806946, -0.07024139165878296, 0.14139103889465332, -0.017212875187397003, 0.11120273917913437, 0.020847247913479805, 0.09781751781702042, 0.029485872015357018, -0.08370708674192429, -0.16523581743240356, -0.032305553555488586, -0.15481768548488617, -0.1345997303724289, -0.08132196217775345, -0.04349903762340546, -0.04369145631790161, 0.06416413187980652, -0.1130962073802948, -0.15997660160064697, -0.022118285298347473, -0.10722558200359344, 0.00024336253409273922, 0.0019832192920148373, 0.092674121260643, 0.09998844563961029, 0.02473905310034752, 0.06528543680906296, -0.08277632296085358, 0.00726268719881773, -0.14680205285549164, 0.07442925125360489, -0.14621375501155853, -0.07925508916378021, -0.12247487902641296], [0.1263505220413208, 0.1474008411169052, 0.14887602627277374, 0.14164729416370392, 0.14690186083316803, -0.115196093916893, -0.13819877803325653, -0.11936351656913757, -0.08494696021080017, -0.02526990696787834, -0.08805316686630249, -0.10987251996994019, -0.11004379391670227, 0.10405908524990082, 0.07456088066101074, 0.06030111387372017, -0.10467636585235596, -0.12776906788349152, -0.038153499364852905, -0.1246315985918045, 0.1599116176366806, -0.12096729874610901, -0.09674344956874847, -0.1321142315864563, 0.13589604198932648, -0.054847635328769684, -0.11581791192293167, -0.011663421988487244, 0.03459561616182327, 0.11326051503419876, 0.10323876887559891, 0.12434784322977066, 0.13275808095932007, -0.008161637932062149, -0.046387556940317154, 0.12378225475549698, -0.11430216580629349, -0.07883606106042862, 0.13864649832248688, -0.04577311500906944, -0.0677650049328804, 0.0481206476688385, -0.141672745347023], [-0.010704567655920982, 0.14920303225517273, 0.005101878196001053, -0.0788549855351448, 0.06964947283267975, 0.03847480192780495, -0.08003100007772446, 0.14619365334510803, -0.048260513693094254, -0.12159714102745056, 0.09283149987459183, 0.09667317569255829, 0.02395329438149929, -0.09408494085073471, -0.026557378470897675, 0.03709864243865013, -0.025097085162997246, 0.11338941007852554, -0.013492674566805363, -0.1177247017621994, 0.06290972232818604, -0.03184574469923973, -0.01839294284582138, 0.1228020191192627, -0.14247649908065796, -0.022489499300718307, 0.1262795776128769, 0.0471438467502594, -0.011666852049529552, -0.0536695197224617, 0.03419821336865425, -0.11736313253641129, -0.14550022780895233, 0.08461885154247284, 0.06108195707201958, -0.13198670744895935, 0.1325332224369049, 0.12435474246740341, -0.04972362518310547, 0.11944325268268585, -0.07180111855268478, -0.01583661325275898, -0.09839580953121185], [0.17919540405273438, -0.10655005276203156, -0.050851333886384964, 0.12557336688041687, 0.07694397121667862, 0.06820923089981079, -0.03474157303571701, -0.14946295320987701, -0.06569253653287888, 0.15877363085746765, 0.1354430913925171, -0.16047434508800507, -0.03083168901503086, 0.06534133851528168, 0.13138416409492493, -0.15567681193351746, -0.05131828039884567, -0.07547760754823685, -0.0452941358089447, -0.014962906017899513, 0.10284416377544403, -0.09335968643426895, -0.06208145245909691, -0.10642580687999725, 0.03469924256205559, 0.07168164849281311, 0.06306707113981247, -0.08590161800384521, -0.05694584921002388, -0.024578161537647247, -0.0018735358025878668, 0.032951585948467255, 0.13714782893657684, -0.05916621536016464, -0.08503766357898712, 0.14732766151428223, -0.11194004863500595, 0.06684707850217819, -0.07329628616571426, 0.13863405585289001, 0.0017201744485646486, -0.05744815990328789, -0.03504999727010727], [-0.08919326215982437, -0.05795741826295853, -0.14114658534526825, 0.004247397184371948, -0.1198357567191124, 0.09122837334871292, 0.10492034256458282, 0.027605226263403893, -0.10102307796478271, 0.12129395455121994, -0.07545945048332214, 0.06802910566329956, -0.061465971171855927, 0.10412690788507462, -0.014429721049964428, 0.13800565898418427, 0.06612253189086914, 0.010599397122859955, 0.052521247416734695, -0.12943096458911896, 0.09541397541761398, 0.07598733901977539, 0.012909598648548126, -0.12678028643131256, -0.0749630257487297, 0.026218047365546227, -0.010681942105293274, -0.04904618859291077, -0.13221296668052673, -0.03837841376662254, 0.007342396304011345, 0.08771596103906631, 0.07885787636041641, 0.028167612850666046, -0.0621391199529171, 0.10742487013339996, -0.10710379481315613, -0.027127450332045555, 0.11342797428369522, 0.07085008174180984, -0.03483740612864494, 0.054634939879179, -0.11497941613197327], [-0.0014356697211042047, 0.08970224112272263, 0.11752165108919144, -0.03434661775827408, 0.17000490427017212, -0.052459076046943665, -0.11994907259941101, -0.015388335101306438, -0.0882253646850586, 0.02505103126168251, -0.1526348739862442, 0.13970054686069489, -0.14289936423301697, -0.1027272567152977, -0.015235362574458122, -0.056466881185770035, 0.04050895571708679, 0.02258964627981186, -0.11428475379943848, -0.040330447256565094, -0.04576186090707779, -0.028405163437128067, -0.10830508917570114, 0.050786059349775314, 0.11122766137123108, -0.06847117096185684, -0.04266715422272682, -0.01056551281362772, 0.04521816223859787, -0.0734926238656044, 0.025448564440011978, -0.14661727845668793, 0.17963023483753204, 0.028971554711461067, 0.07749181985855103, 0.07939094305038452, 0.09681938588619232, 0.011855140328407288, -0.1667412519454956, -0.002667040331289172, -0.13383103907108307, 0.13116508722305298, 0.010262526571750641], [-0.03408728539943695, 0.13790485262870789, -0.004701771307736635, -0.055757634341716766, 0.12368161976337433, -0.11598706990480423, 0.013150233775377274, -0.10132218152284622, -0.10724607110023499, 0.12839359045028687, -0.12671060860157013, 0.008331297896802425, 0.08437570184469223, -0.1199633851647377, -0.03546711802482605, -0.0035852070432156324, -0.03901984915137291, 0.14266668260097504, 6.622084765695035e-05, -0.010484754107892513, -0.05559976026415825, -0.07718504965305328, 0.1453685313463211, 0.10617601871490479, 0.14993011951446533, -0.0025832196697592735, 0.045773740857839584, -0.13183622062206268, 0.09811514616012573, 0.03957558050751686, -0.0008660047315061092, 0.08255395293235779, -0.14301832020282745, 0.08719732612371445, -0.13505995273590088, 0.018423233181238174, -0.0630878359079361, -0.06062762811779976, -0.14435997605323792, 0.09500379115343094, -0.0596051923930645, 0.1787843406200409, 0.09595004469156265], [-0.032937731593847275, 0.10508830100297928, -0.07374367862939835, 0.10961680859327316, -0.12423578649759293, 0.02755873277783394, 0.15690165758132935, -0.12779346108436584, -0.14319956302642822, -0.06178336963057518, 0.05934198945760727, 0.08498218655586243, -0.15773455798625946, 0.1064644455909729, -0.002380059100687504, 0.03584025055170059, 0.12011193484067917, 0.12324456125497818, -0.028921745717525482, 0.11112114042043686, -0.11447574943304062, -0.13273638486862183, 0.1331520825624466, 0.05501408874988556, -0.0169072225689888, 0.031908631324768066, 0.12674902379512787, 0.01672522723674774, -0.1301335245370865, 0.13104334473609924, 0.05334324389696121, -0.15348660945892334, -0.014158573932945728, 0.09756803512573242, -0.04526788741350174, 0.04423229396343231, -0.03222203254699707, -0.005420757923275232, 0.03489523008465767, -0.10058162361383438, 0.04207093268632889, -0.009078352712094784, -0.11594420671463013], [-0.09394834190607071, 0.10614994913339615, -0.10748946666717529, -0.04723632335662842, -0.029089640825986862, -0.03925967589020729, -0.09464095532894135, 0.12447594106197357, -0.10493270307779312, -0.07614675909280777, 0.0209861658513546, -0.15134993195533752, 0.0663338452577591, -0.04284733906388283, 0.03465588018298149, -0.14075815677642822, -0.053463973104953766, -0.07967851310968399, -0.043225325644016266, -0.018748240545392036, -0.09281408041715622, 0.04777868837118149, -0.13744881749153137, 0.08752714842557907, 0.04969525337219238, 0.07808909565210342, -0.0006586581002920866, 0.015699369832873344, -0.07869680225849152, -0.06101579964160919, -0.06677321344614029, 0.1420614868402481, 0.007830900140106678, 0.0706699788570404, -0.13681350648403168, -0.010222124867141247, 0.05985633283853531, 0.12956275045871735, -0.06893913447856903, -0.03144287317991257, -0.05023307353258133, 0.052289944142103195, 0.1369750201702118], [-0.008753381669521332, -0.02693866193294525, 0.033548325300216675, -0.0729818046092987, 0.0932621881365776, 0.046052366495132446, 0.05873618274927139, -0.13787685334682465, 0.0720081776380539, 0.08174315840005875, -0.116010881960392, 0.10776364058256149, 0.020141059532761574, -0.15080592036247253, 0.13092856109142303, -0.12471247464418411, -0.0013837260194122791, 0.14840303361415863, 0.029220441356301308, -0.08213391900062561, 0.1132984310388565, -0.10077571868896484, -0.008998890407383442, -0.0866236761212349, -0.026738107204437256, -0.15803179144859314, -0.03217345103621483, -0.07123827934265137, 0.09543246030807495, -0.04204952344298363, 0.04252513125538826, -0.10449985414743423, 0.06505679339170456, 0.1267416626214981, 0.13206784427165985, -0.07097844034433365, -0.10853143781423569, 0.03623397648334503, -0.11742668598890305, -0.10470364987850189, -0.02270076423883438, 0.07146503776311874, -0.014314348809421062], [0.11693649739027023, 0.04373461380600929, 0.11611713469028473, -0.007780954707413912, 0.1157127097249031, -0.09622784703969955, 0.15549840033054352, 0.08051023632287979, 0.1045597568154335, 0.09279652684926987, -0.15803509950637817, 0.024802865460515022, -0.11296594142913818, -0.03749113529920578, 0.15002648532390594, 0.11467728018760681, -0.14906452596187592, -0.14497138559818268, 0.031120918691158295, 0.02402014285326004, -0.01479308307170868, -0.05078769102692604, 0.056402772665023804, -0.012261414900422096, -0.035531628876924515, 0.04722432419657707, 0.01580682210624218, -0.006965781096369028, 0.07452868670225143, 0.0003872230590786785, 0.01100409496575594, 0.10259447246789932, 0.0655810683965683, -0.15079370141029358, 0.04005022346973419, 0.10790590196847916, 0.06965292245149612, -0.04402826353907585, 0.13530854880809784, -0.01565762609243393, 0.11761651933193207, -0.03538193926215172, 0.13668611645698547], [0.00013857087469659746, -0.07813849300146103, 0.06863270699977875, 0.09913910925388336, 0.16465643048286438, 0.08228878676891327, 0.10478148609399796, 0.1085272878408432, 0.03682594373822212, 0.045543696731328964, 0.08642185479402542, 0.12851759791374207, 0.11010988801717758, -0.08074640482664108, -0.12701521813869476, -0.14845052361488342, 0.019578037783503532, -0.16300539672374725, 0.05485440418124199, -0.09103420376777649, -0.06764476746320724, 0.05914410576224327, -0.04301583021879196, -0.14767254889011383, -0.07026810944080353, -0.03361305594444275, 0.15981251001358032, 0.08682664483785629, -0.0699954554438591, -0.14895564317703247, -0.13729771971702576, -0.015357526019215584, 0.08903144299983978, -0.03914182260632515, 0.0416238009929657, -0.11380989104509354, -0.09706819802522659, -0.05823513865470886, -0.11724130809307098, 0.08830799907445908, 0.0005380399525165558, 0.08387220650911331, 0.11465650796890259], [0.12091229110956192, -0.06755435466766357, -0.1218467429280281, -0.049160752445459366, -0.07375377416610718, 0.07054641097784042, -0.14175255596637726, 0.0011315185111016035, -0.003852179506793618, -0.11032544821500778, -0.13440993428230286, -0.15712186694145203, -0.13614800572395325, 0.11498435586690903, 0.12275967746973038, -0.1108318567276001, 0.15505734086036682, 0.11979813128709793, -0.10720103234052658, 0.09438714385032654, -0.11808290332555771, -0.12847912311553955, 0.11977435648441315, 0.10901511460542679, -0.021324073895812035, 0.03233259171247482, 0.07712732255458832, -0.02915094792842865, -0.12480220198631287, 0.026750944554805756, 0.12023725360631943, 0.06327958405017853, -0.04677087813615799, -0.11084134876728058, -0.12263783812522888, -0.06067854166030884, 0.05009875446557999, -0.15497241914272308, -0.13679799437522888, 0.12231273204088211, 0.13867324590682983, 0.0419401191174984, -0.1042952686548233], [0.09552299231290817, -0.03645018860697746, -0.12050361186265945, 0.11242411285638809, 0.05807602405548096, 0.004232896026223898, 0.02741384506225586, -0.0417337492108345, -0.07089771330356598, 0.08064164221286774, 0.05142099782824516, -0.06858453154563904, 0.1321580708026886, 0.04188314452767372, -0.12281591445207596, -0.10221051424741745, 0.15555249154567719, 0.07241158187389374, -0.06717485189437866, -0.017341002821922302, -0.09973568469285965, 0.13551165163516998, -0.052094392478466034, 0.10355722159147263, -0.17622952163219452, -0.05963292717933655, -0.05426901578903198, 0.04580894485116005, 0.06858278065919876, 0.009040016680955887, 0.022910529747605324, -0.005638827104121447, 0.1738542914390564, -0.10403718799352646, 0.007342071738094091, 0.0807260125875473, 0.05739840492606163, 0.1655557006597519, -0.03140668943524361, -0.12730497121810913, 0.14443805813789368, 0.15857094526290894, -0.14002938568592072], [0.07757186889648438, 0.1479450762271881, 0.04020431265234947, -0.06292451918125153, 0.07396044582128525, 0.042593713849782944, 0.05566544830799103, 0.07809445261955261, 0.08698497712612152, 0.1500134915113449, 0.12296042591333389, 0.09392324835062027, -0.07934211194515228, 0.1401408463716507, 0.0296283308416605, -0.0458405539393425, -0.10951680690050125, -0.06957265734672546, 0.03470044583082199, -0.11406932771205902, -0.09016227722167969, -0.046742960810661316, -0.11922924220561981, 0.14874473214149475, -0.10044772922992706, 0.01334848627448082, -0.13338084518909454, -0.13769353926181793, -0.0048227328807115555, -0.010740158148109913, -0.016574328765273094, 0.08751264214515686, -0.05589915066957474, -0.08562818169593811, -0.14047442376613617, -0.041589029133319855, -0.040908101946115494, -0.10258175432682037, 0.13633228838443756, -0.048085153102874756, -0.02839214913547039, -0.051164738833904266, 0.14204351603984833], [0.10787004977464676, -0.016473542898893356, -0.14649277925491333, -0.12425832450389862, -0.06115419790148735, -0.12068735808134079, -0.06857319921255112, 0.059191957116127014, 0.07089924067258835, 0.1424853503704071, 0.14923715591430664, -0.11698681116104126, -0.14072591066360474, 0.08721929043531418, 0.12118107080459595, -0.08851947635412216, 0.10712625831365585, 0.10729672014713287, -0.09212721884250641, 0.04403707757592201, 0.10463839024305344, -0.027349086478352547, 0.08262486755847931, 0.03334520012140274, -0.13149394094944, -0.04115666076540947, -0.02629193477332592, 0.0369810052216053, -0.12846599519252777, 0.010476264171302319, 0.008690973743796349, 0.1379270851612091, 0.10367494076490402, 0.022844649851322174, -0.1496075838804245, 0.06536433845758438, 0.01819264329969883, -0.1504925787448883, -0.11689219623804092, -0.05454151704907417, -0.10765539854764938, 0.012053603306412697, 0.1476992815732956], [-0.10214436799287796, 0.13078060746192932, 0.10620466619729996, 0.11377135664224625, -0.12904873490333557, -0.062193483114242554, -0.07763829827308655, 0.10203853249549866, 0.11808326095342636, 0.008813965134322643, -0.13475771248340607, -0.13184458017349243, 0.12634088099002838, 0.1479143649339676, -0.11636941134929657, -0.0567120797932148, -0.08486868441104889, -0.08269448578357697, 0.11386780440807343, 0.10014435648918152, 0.15034407377243042, 0.08630003035068512, 0.10484664887189865, -0.04610069468617439, -0.16435684263706207, 0.0008422845276072621, -0.07980307191610336, -0.011089392006397247, 0.13362692296504974, -0.12842720746994019, -0.038096070289611816, -0.0880739837884903, -0.09464147686958313, 0.103152334690094, 0.08484820276498795, -0.07283227145671844, -0.06595902144908905, 0.13248640298843384, 0.09865637868642807, 0.02007560059428215, 0.10638600587844849, -0.1390552967786789, 0.06407759338617325], [0.027345310896635056, -0.0249681044369936, 0.04840010032057762, -0.12187793850898743, 0.17767348885536194, -0.10940448939800262, 0.07566914707422256, 0.09388091415166855, -0.09658469259738922, -0.024460218846797943, 0.12874799966812134, 0.04168897494673729, 0.022425994277000427, 0.13349565863609314, -0.04179837927222252, 0.1297919601202011, -0.15873827040195465, -0.05825450271368027, -0.028054658323526382, -0.11904998868703842, 0.15020428597927094, -0.061069805175065994, -0.03269382193684578, 0.04246462881565094, -0.1076684519648552, -0.01750284619629383, -0.11415013670921326, 0.06842317432165146, -0.16463299095630646, 0.04915879666805267, 0.07957886159420013, 0.11997845768928528, 0.006404565181583166, 0.0850134789943695, 0.08051459491252899, -0.01238322351127863, -0.04544763267040253, 0.07517248392105103, 0.11983269453048706, 0.10288575291633606, -0.12625469267368317, 0.07676172256469727, -0.05969395115971565], [0.06555531173944473, 0.1394302099943161, -0.12645649909973145, -0.15134486556053162, -0.11203135550022125, 0.04651772603392601, -0.07186295837163925, -0.016806403174996376, -0.07430757582187653, -0.004381211940199137, 0.09711064398288727, 0.1505146473646164, -0.04352124407887459, 0.08476372063159943, -0.0037262795958667994, -0.02355784736573696, 0.03761640563607216, 0.09740021824836731, -0.04360734671354294, 0.03884574770927429, -0.1106480062007904, 0.12409592419862747, 0.022323349490761757, 0.020405810326337814, 0.014686590991914272, 0.10650698095560074, -0.14100126922130585, 0.008356105536222458, -0.11328334361314774, 0.1670301854610443, -0.13143044710159302, -0.12486714124679565, -0.028089910745620728, 0.15320436656475067, -0.03207625821232796, 0.09641355276107788, -0.019968587905168533, 0.07712339609861374, -0.14216314256191254, 0.14359408617019653, -0.02424773760139942, 0.18434728682041168, -0.0818522647023201], [0.03196784481406212, 0.13878948986530304, 0.05020526051521301, -0.12559176981449127, -0.0628640279173851, 0.02512708678841591, 0.0003563276259228587, 0.08483271300792694, -0.06171579286456108, -0.14688292145729065, 0.08476030081510544, -0.013330324552953243, 0.06464109569787979, -0.13817276060581207, -0.08476255089044571, -0.12523624300956726, 0.04152902215719223, 0.08015903830528259, 0.13369645178318024, 0.052307818084955215, 0.13079869747161865, 0.040616221725940704, -0.036690738052129745, 0.06410951167345047, -0.11157935857772827, 0.026063768193125725, 0.0729101374745369, 0.025117939338088036, 0.06134544312953949, 0.06811778247356415, 0.10332641750574112, -0.1396496742963791, 0.08477716892957687, 0.10408341884613037, 0.12241357564926147, -0.11964502185583115, 0.08393245190382004, -0.13662372529506683, 0.1567394733428955, -0.12701581418514252, -0.03515687584877014, -0.006940105464309454, 0.12232029438018799], [-0.020134929567575455, 0.08800491690635681, 0.05342753231525421, -0.017010502517223358, -0.18573938310146332, -0.10175473242998123, -0.14359985291957855, 0.020713914185762405, 0.09798219054937363, -0.05134008824825287, -0.004560496658086777, 0.031493183225393295, 0.1048734113574028, -0.030466390773653984, 0.06716728955507278, 0.13972815871238708, 0.11408151686191559, 0.1140768826007843, -0.06224739924073219, 0.06447473168373108, -0.010398166254162788, -0.10467959940433502, 0.01594991609454155, -0.15724162757396698, -0.014877541922032833, 0.0414920337498188, -0.05088053643703461, 0.027707409113645554, 0.06862230598926544, 0.1452629417181015, 0.1442599892616272, 0.0020249264780431986, 0.08165878802537918, 0.125006303191185, -0.07823668420314789, -0.019005771726369858, 0.09911424666643143, -0.05300149321556091, 0.005447419360280037, 0.015755757689476013, -0.0006687515415251255, 0.06590297073125839, -0.07124727219343185], [0.03254498913884163, -0.0700048953294754, -0.10602018237113953, 0.09443795680999756, 0.14526845514774323, -0.145438089966774, 0.07108879089355469, -0.07656413316726685, -0.06923207640647888, -0.09761079400777817, -0.0597357377409935, -0.07610248774290085, -0.11588605493307114, -0.156307652592659, -0.06032469868659973, 0.12119404226541519, 0.02961103245615959, 0.140699103474617, 0.13857817649841309, 0.0713403970003128, 0.07091009616851807, -0.1312265545129776, -0.039341602474451065, -0.12816807627677917, 0.015266600996255875, -0.09152571856975555, -0.10753628611564636, 0.12727302312850952, -0.04635017737746239, 0.12255426496267319, 0.06392554938793182, -0.11999677121639252, -0.13757318258285522, -0.07489605993032455, 0.12675321102142334, 0.02070838212966919, -0.06362400949001312, 0.07015437632799149, 0.07009891420602798, 0.039013899862766266, -0.08742871880531311, -0.09904912859201431, -0.10252850502729416], [-0.1125338152050972, -0.055113911628723145, 0.07904687523841858, -0.025554819032549858, -0.18598473072052002, 0.0936242863535881, -0.024820540100336075, -0.07100027799606323, 0.03985828533768654, -0.14125214517116547, -0.047350406646728516, 0.08643526583909988, 0.0581221878528595, 0.1086348295211792, -0.0018141200998798013, -0.012257386930286884, 0.09772904962301254, 0.0014863009564578533, 0.06571120023727417, -0.16549767553806305, -0.08606690913438797, -0.1563035398721695, 0.08796928822994232, 0.16396449506282806, -0.009181360714137554, -0.0869184285402298, -0.11136633902788162, -0.056042641401290894, 0.05623060464859009, -0.06105634942650795, -0.09345310926437378, -0.07153672724962234, -0.14877139031887054, 0.022095289081335068, 0.13549557328224182, 0.13314400613307953, -0.05032571777701378, -0.10184578597545624, 0.09813477843999863, -0.0437922403216362, -0.06569681316614151, -0.02365913800895214, -0.05210570618510246], [-0.048176031559705734, -0.0028394891414791346, 0.10368433594703674, -0.10379984974861145, 0.1033211201429367, 0.05364236980676651, -0.06891828775405884, -0.04231322556734085, -0.09553207457065582, 0.03337398171424866, -0.08647152781486511, -0.11392204463481903, 0.11373075097799301, 0.06371115893125534, 0.0669742152094841, -0.02560085989534855, -0.16150611639022827, -0.12142737954854965, -0.13749323785305023, -0.055944621562957764, -0.018186448141932487, -0.008103090338408947, -0.14288251101970673, -0.13424380123615265, -0.07215000689029694, 0.04857708513736725, -0.07122454792261124, -0.07222793251276016, -0.0907231941819191, -0.1216052696108818, -0.03381309285759926, -0.04825504496693611, 0.09969163686037064, 0.06657182425260544, 0.10932854562997818, 0.031395990401506424, 0.10351475328207016, -0.0010623070411384106, -0.07004876434803009, 0.009916351176798344, -0.10643856227397919, -0.13945141434669495, 0.030235519632697105], [0.017432957887649536, 0.030925897881388664, 0.11997362971305847, -0.1439286321401596, 0.016972390934824944, -0.026546215638518333, -0.011706531047821045, -0.04284147545695305, 0.028623666614294052, -0.014462952502071857, -0.03712796792387962, -0.002491084858775139, 0.145218625664711, 0.04827313497662544, 0.07770149409770966, -0.03216045722365379, -0.00742372777312994, 0.10247912257909775, -0.10783105343580246, -0.03322434052824974, 0.11971865594387054, -0.028573185205459595, 0.02885453775525093, 0.014163513667881489, -0.012003162875771523, -0.008150674402713776, -0.11405109614133835, 0.10600122064352036, 0.04931459203362465, 0.08207051455974579, 0.01660390943288803, 0.05958900973200798, -0.032752927392721176, 0.04703211784362793, 0.06353375315666199, 0.012418905273079872, -0.0823235735297203, -0.04646322876214981, 0.1321350336074829, -0.05363116413354874, 0.0015198781620711088, 0.1704166978597641, 0.08738425374031067], [0.016511734575033188, 0.0038350028917193413, -0.007376247551292181, 0.12145289033651352, -0.06839101761579514, -0.011417643167078495, 0.14516237378120422, -0.06327983736991882, -0.09547409415245056, 0.0788111612200737, 0.06993598490953445, -0.005345334764569998, -0.01390022598206997, -0.011588210240006447, 0.04006277769804001, -0.01899648644030094, -0.05003215745091438, 0.07703094184398651, 0.015009937807917595, 0.11561758816242218, -0.10242129862308502, 0.08332081139087677, 0.08246272057294846, -0.07547390460968018, -0.04375278949737549, 0.11985655874013901, -0.04199732467532158, -0.0807485431432724, 0.025850486010313034, -0.013748910278081894, 0.006081271916627884, 0.04049855098128319, -0.0828862190246582, -0.027805766090750694, -0.02571200020611286, 0.0738673210144043, 0.14199677109718323, 0.12750190496444702, 0.0727115124464035, 0.00870775431394577, 0.016067760065197945, 0.05198925733566284, 0.09897293895483017], [-0.14573131501674652, -0.08254127204418182, 0.06963086128234863, -0.013992654159665108, 0.12584005296230316, -0.11045581102371216, 0.0037628565914928913, -0.009107121266424656, 0.10572727769613266, -0.09578020870685577, 0.08353742212057114, 0.08058536797761917, 0.08044061809778214, -0.0297126192599535, 0.09062731266021729, 0.0724966749548912, 0.06206662952899933, -0.026329705491662025, 0.052060116082429886, -0.01933651976287365, 0.018127188086509705, 0.1414707452058792, 0.11156817525625229, -0.14335188269615173, 0.13276056945323944, -0.018909873440861702, 0.1379859894514084, 0.06370339542627335, 0.13934457302093506, -0.02775280550122261, 0.11304310709238052, 0.07903968542814255, -0.06667337566614151, 0.09648357331752777, -0.009492010809481144, 0.08582436293363571, 0.07884817570447922, -0.13640141487121582, -0.039885129779577255, 0.04330097883939743, -0.05443868413567543, -0.08036409318447113, -0.025902077555656433], [0.055031824856996536, 0.011177328415215015, -0.14034076035022736, -0.08857652544975281, 0.05132902413606644, 0.07020024210214615, -0.11329656094312668, -0.033535439521074295, 0.09042613208293915, 0.03585785999894142, -0.08254516124725342, 0.057969216257333755, -0.014190563932061195, 0.04360140115022659, 0.11982028931379318, -0.1305869221687317, 0.05253305286169052, -0.09016693383455276, 0.049028024077415466, 0.1299540102481842, 0.0679553970694542, -0.09359320253133774, -0.03204752877354622, 0.09762738645076752, 0.06344062089920044, 0.1454511284828186, -0.07587286084890366, -0.057371459901332855, 0.05611011013388634, 0.03043966554105282, -0.0484556220471859, -0.07916896790266037, 0.1068817749619484, 0.11401485651731491, -0.11591479927301407, -0.1158648282289505, -0.06617535650730133, -0.014213839545845985, 0.14484870433807373, -0.03934217989444733, -0.04257737845182419, 0.12991797924041748, -0.12555831670761108], [0.0532614104449749, 0.08119389414787292, -0.11893590539693832, -0.09988908469676971, -0.026039669290184975, 0.05119693651795387, -0.13057678937911987, -0.0914948582649231, 0.08317862451076508, -0.016446929425001144, 0.037545837461948395, 0.10333921015262604, 0.004847540985792875, -0.002269099000841379, -0.14962811768054962, 0.1699240803718567, -0.0009706534328870475, 0.13423922657966614, 0.04376295581459999, -0.030007142573595047, -0.0639859288930893, -0.08210238069295883, -0.011225868947803974, 0.05397910997271538, -0.06458672881126404, -0.029099589213728905, 0.09682328253984451, -0.0446712002158165, -0.0867772325873375, -0.06753715872764587, 0.14392386376857758, 0.14223028719425201, -0.105403371155262, 0.13461832702159882, 0.16567955911159515, 0.10606084764003754, 0.048085860908031464, 0.12782303988933563, 0.10675311833620071, 0.1480783224105835, 0.09631502628326416, 0.180587500333786, -0.08214885741472244], [-0.09279763698577881, 0.030609816312789917, -0.0038066068664193153, 0.07396482676267624, -0.07740574330091476, -0.05769066512584686, 0.07345999032258987, -0.03162391856312752, -0.05596765875816345, -0.06509404629468918, 0.009140782058238983, -0.03184857219457626, 0.12455802410840988, -0.13757219910621643, 0.13470003008842468, -0.07324875146150589, 0.04136333614587784, 0.11041762679815292, -0.04197819530963898, -0.1369761973619461, -0.047832246869802475, -0.142123743891716, -0.1482616662979126, -0.021769829094409943, -0.11423522233963013, -0.1531398743391037, -0.05600007250905037, -0.10993143171072006, 0.1458643674850464, 0.09507688134908676, -0.012244300916790962, 0.0004331003874540329, -0.05974822863936424, 0.1210513785481453, 0.0768602043390274, -0.08938921988010406, 0.07567138224840164, -0.05965519696474075, 0.11531227082014084, -0.1381479650735855, -0.017114555463194847, 0.09532817453145981, -0.13277503848075867], [0.06333421915769577, 0.11863023787736893, -0.039951130747795105, 0.036826860159635544, 0.08915164321660995, -0.14029735326766968, -0.009652437642216682, -0.045054711401462555, -0.011217853054404259, -0.1481139063835144, -0.026435066014528275, -0.13415119051933289, 0.09633225202560425, 0.0011121956631541252, -0.1402427703142166, -0.01829182729125023, 0.13062883913516998, 0.13184107840061188, -0.05983937531709671, -0.07434986531734467, -0.12000595033168793, -0.08838454633951187, -0.017321959137916565, 0.07244982570409775, 0.1049555242061615, -0.023911355063319206, -0.07142943888902664, 0.08274894952774048, -0.10378237813711166, 0.04854043573141098, -0.13192565739154816, 0.024087194353342056, 0.09443970024585724, -0.041525233536958694, -0.10400865972042084, 0.1171635091304779, -0.039744433015584946, -0.1276361644268036, 0.15165598690509796, -0.13699446618556976, 0.1006535142660141, 0.041182562708854675, 0.09604325145483017], [-0.18646040558815002, 0.014439575374126434, -0.122033029794693, -0.026549674570560455, -0.044903464615345, -0.07825824618339539, -0.10041721910238266, -0.056334495544433594, 0.06987551599740982, -0.12371236085891724, 0.06758667528629303, -0.1335510015487671, -0.08896636217832565, -0.17673282325267792, 0.10557297617197037, -0.007836958393454552, -0.08100007474422455, 0.09762565046548843, 0.1263641119003296, 0.03461456671357155, -0.1288483589887619, 0.11589670926332474, -0.11896783113479614, -0.13841195404529572, -0.07584366202354431, -0.0044047636911273, -0.09456080198287964, 0.07652509957551956, 0.13889281451702118, -0.08093786239624023, -0.04083632305264473, -0.013922340236604214, 0.0559016577899456, -0.09663596749305725, 0.015643808990716934, 0.021916400641202927, 0.12426288425922394, -0.10053785145282745, 0.03670376539230347, -0.1107926294207573, -0.09615714102983475, 0.009267091751098633, -0.010167389176785946], [0.1192617192864418, -0.013320261612534523, 0.030096014961600304, -0.1186332032084465, -0.05296870693564415, 0.16187500953674316, -0.11518518626689911, -0.10181053727865219, -0.0551055409014225, 0.05435396730899811, 0.06784507632255554, 0.02576015330851078, 0.1468927264213562, -0.07514636963605881, -0.13265447318553925, 0.10539273172616959, -0.01726776920258999, -0.019079048186540604, 0.1062617227435112, -0.014993589371442795, 0.10036519914865494, 0.04667075350880623, -0.1458648145198822, -0.0258440263569355, 0.030448485165834427, -0.0553324930369854, -0.12007458508014679, 0.042102277278900146, 0.01845678873360157, -0.005407274235039949, 0.017900755628943443, 0.019549252465367317, -0.03737010061740875, -0.03969600796699524, 0.03047351725399494, -0.0016263978322967887, 0.04409612715244293, 0.1531951129436493, -0.12111338973045349, 0.11439007520675659, 0.08997821807861328, 0.007787994109094143, -0.13574562966823578], [-0.12176897376775742, -0.09370292723178864, -0.01669551059603691, -0.06372921168804169, 0.17933626472949982, 0.05292750895023346, 0.02641354314982891, -0.09147150814533234, 0.12079239636659622, 0.061723895370960236, -0.11654148995876312, -0.031025588512420654, 0.07902190834283829, -0.08706089854240417, -0.1284887045621872, 0.1273033171892166, 0.1109485998749733, -0.013020023703575134, -0.14668850600719452, 0.08963853120803833, -0.11181339621543884, -0.06209651753306389, 0.04563979059457779, -0.035401538014411926, 0.12611433863639832, -0.010592188686132431, -0.12982916831970215, 0.1515522003173828, 0.036942362785339355, -0.025767290964722633, -0.14146310091018677, -0.101047582924366, 0.1263451874256134, -0.1609662026166916, -0.03702704235911369, 0.04792535677552223, 0.04930098354816437, 0.0846564769744873, 0.07371623069047928, 0.019044114276766777, 0.12490171939134598, 0.16433078050613403, 0.026923077180981636], [-0.11442720890045166, -0.1312984824180603, 0.11510535329580307, 0.15490062534809113, -0.051206041127443314, 0.045693233609199524, 0.11354464292526245, 0.0795227438211441, 0.0011721148621290922, -0.00806384440511465, 0.06736979633569717, -0.08654430508613586, -0.1243233010172844, -0.012109888717532158, -0.025512685999274254, -0.09604764729738235, 0.05783134326338768, -0.09091012924909592, -0.08990343660116196, 0.10000518709421158, -0.14062994718551636, 0.07321055978536606, 0.13022220134735107, 0.058721963316202164, 0.11294891685247421, 0.12749077379703522, 0.14140668511390686, 0.005728267598897219, -0.1020839512348175, -0.07846780866384506, -0.13533936440944672, 0.0024372257757931948, 0.11115434020757675, -0.02917393669486046, 0.0811137929558754, 0.14798040688037872, -0.031840674579143524, -0.06600280851125717, -0.12233912199735641, 0.1181638315320015, 0.0034184143878519535, -8.126482862280682e-05, -0.1493845283985138], [-0.10830064117908478, 0.07676597684621811, 0.015380787663161755, -0.08150241523981094, 0.0285218246281147, 0.048949215561151505, 0.012640876695513725, 0.11754882335662842, 0.14108547568321228, 0.01733405515551567, -0.08655206114053726, 0.125139519572258, -0.10578301548957825, 0.13349123299121857, 0.1346174031496048, 0.12350789457559586, -0.15851034224033356, 0.001137853367254138, -0.1063699796795845, 0.13223469257354736, -0.11591784656047821, -0.10401804000139236, 0.04135924205183983, 0.04517480731010437, 0.06947515159845352, 0.050101809203624725, 0.03015902079641819, 0.059563860297203064, -0.10018211603164673, -0.05959450826048851, -0.03577815741300583, -0.05917651951313019, -0.09202829003334045, -0.024441495537757874, 0.026136135682463646, -0.058114852756261826, -0.04038394242525101, 0.12601971626281738, 0.008815904147922993, -0.0072351559065282345, -0.15546567738056183, 0.11274930834770203, 0.056902699172496796], [-0.09804245084524155, -0.01175753679126501, -0.08929329365491867, 0.04504233971238136, -0.08632028102874756, -0.17911389470100403, -0.08466430008411407, 0.04379362240433693, -0.005578881595283747, 0.008128098212182522, 0.08479396998882294, -0.1356971114873886, 0.0945601537823677, 0.004292626399546862, -0.12066520750522614, -0.04694901779294014, 0.07790054380893707, 0.16532954573631287, -0.05516820773482323, -0.14951853454113007, 0.09900366514921188, -0.04034208878874779, -0.1232554242014885, -0.001289395266212523, -0.03582438454031944, -0.1266183853149414, -0.017085440456867218, 0.0727534368634224, -0.1288631111383438, -0.059818170964717865, -0.10433679074048996, -0.15259422361850739, 0.1180972009897232, 0.1587430238723755, 0.1216789036989212, 0.022981368005275726, -0.029503654688596725, -0.064821757376194, 0.0053876182064414024, -0.054889362305402756, -0.01586773991584778, 0.058759331703186035, -0.02374454401433468], [-0.09407243877649307, 0.04768996313214302, -0.0065771061927080154, -0.026846323162317276, -0.08124993741512299, -0.05657294765114784, -0.13650767505168915, -0.04369989410042763, 0.05111153423786163, 0.024287015199661255, -0.048912256956100464, 0.1515209823846817, 0.0015315583441406488, -0.0196535661816597, 0.12289059162139893, -0.004028297495096922, 0.08171913027763367, 0.12447461485862732, 0.06727098673582077, 0.09636528789997101, -0.1096642017364502, 0.03137543424963951, 0.1301918476819992, 0.12711851298809052, 0.1381455808877945, 0.00828165840357542, -0.1303783655166626, 0.13303391635417938, -0.0010550178121775389, -0.08110642433166504, 0.09944427758455276, -0.059535566717386246, -0.04261020943522453, -0.05519283935427666, 0.016806840896606445, -0.004776292946189642, -0.06985203176736832, 0.09084217995405197, -0.1322743147611618, 0.1140216812491417, 0.0646069347858429, 0.14224623143672943, -0.12427496910095215], [-0.03292619809508324, 0.05290493369102478, 0.07495486736297607, 0.11785494536161423, 0.1468244343996048, 0.01764877513051033, 0.13093334436416626, 0.09527543932199478, 0.08026771247386932, 0.0723886489868164, 0.16116368770599365, 0.061435770243406296, 0.024287957698106766, 0.07723574340343475, 0.01894655078649521, 0.02100459486246109, -0.0750817283987999, 0.1220153421163559, -0.07854317873716354, 0.06495542824268341, 0.04801584407687187, 0.1113327145576477, 0.05688800662755966, -0.02976192906498909, -0.12609007954597473, 0.06441114097833633, 0.04757567122578621, -0.11240263283252716, -0.026469558477401733, 0.09286068379878998, -0.15339535474777222, 0.04308086261153221, 0.0521506667137146, -0.062260281294584274, -0.1439989060163498, -0.1527530401945114, 0.07616745680570602, -0.12415948510169983, -0.11639714986085892, -0.07211171835660934, -0.10240994393825531, -0.1275056004524231, 0.0872882753610611], [0.005605357699096203, -0.08850349485874176, -0.044526975601911545, 0.13671918213367462, -0.08324713259935379, -0.05681692063808441, 0.15333160758018494, -0.1407308429479599, 0.09033326804637909, -0.07277395576238632, -0.11485312134027481, -0.11268003284931183, -0.028883900493383408, 0.06909682601690292, 0.1311102658510208, 0.12854346632957458, 0.16015034914016724, -0.11633536964654922, -0.011402381584048271, -0.0012549867387861013, 0.011207062751054764, -0.07526113837957382, -0.09937910735607147, 0.026266153901815414, -0.04424741119146347, 0.0868716910481453, -0.10039926320314407, -0.10368994623422623, 0.13058552145957947, 0.05117239058017731, -0.06255337595939636, -0.1505233496427536, 0.07050314545631409, 0.07388538867235184, 0.1142413467168808, 0.012677914462983608, 0.03787308186292648, -0.10593672841787338, 0.026417531073093414, 0.10168548673391342, 0.04729645699262619, 0.14300131797790527, -0.09856373071670532], [0.0923721045255661, 0.014237294904887676, -0.10289804637432098, 0.07361865043640137, 0.13016138970851898, 0.002088625216856599, -0.03942599147558212, -0.0318581722676754, 0.12255404144525528, -0.08439502865076065, 0.09586819261312485, 0.14492136240005493, -0.08795669674873352, -0.032435521483421326, 0.0900297537446022, 0.021273614838719368, -0.1155562549829483, -0.00714181549847126, 0.10312675684690475, -0.11503370106220245, 0.05820617079734802, 0.021005727350711823, 0.11166948080062866, -0.1325400024652481, 0.11005668342113495, 0.06717821210622787, -0.13160686194896698, -0.016574393957853317, 0.015102037228643894, 0.08192150294780731, 0.017551235854625702, -0.11912552267313004, 0.08505731076002121, 0.1243552640080452, -0.12024194002151489, -0.09135190397500992, 0.09197457134723663, 0.14663589000701904, -0.09219198673963547, 0.0971568375825882, -0.013393113389611244, -0.0880669504404068, -0.10272663831710815], [-0.12688806653022766, -7.955238106660545e-05, 0.09290523827075958, -0.13275934755802155, 0.04129683971405029, -0.0567517913877964, 0.1318093240261078, 0.11345715075731277, 0.03207601606845856, -0.12085311859846115, -0.09964792430400848, 0.16866977512836456, -0.15625838935375214, 0.10344512015581131, 0.06603047251701355, -0.05091394856572151, 0.06829005479812622, 0.11207590997219086, -0.024990340694785118, 0.06154856085777283, 0.11943013221025467, 0.003210740862414241, 0.013851636089384556, 0.019123230129480362, 0.07669690996408463, -0.06773447245359421, 0.11630232632160187, -0.13164079189300537, 0.08022730052471161, -0.073691725730896, 0.12806539237499237, 0.12647460401058197, -0.01646273210644722, -0.011693761684000492, 0.06350535899400711, -0.0675797164440155, -0.1599658727645874, 0.10853121429681778, -0.13373304903507233, 0.07974769920110703, -0.008565109223127365, 0.14450861513614655, 0.049586400389671326], [-0.09044139087200165, -0.12145700305700302, -0.14598454535007477, 0.04386865720152855, 0.11364123970270157, -0.01733616553246975, 0.08738560229539871, 0.048916373401880264, 0.0012995859142392874, -0.04322421923279762, -0.05438067391514778, 0.03329207003116608, 0.1244238018989563, -0.018253767862915993, 0.05249413475394249, 0.1296827644109726, 0.05396489426493645, -0.07290570437908173, -0.12202806770801544, 0.03977363929152489, 0.11163247376680374, 0.15536996722221375, 0.018381595611572266, -0.11693354696035385, -0.0382998026907444, -0.01998995803296566, 0.11233115941286087, 0.09151822328567505, 0.07348400354385376, -0.0944121703505516, -0.11952221393585205, -0.08480726927518845, -0.10864430665969849, -0.028809646144509315, 0.047061268240213394, -0.10415438562631607, 0.1050451472401619, 0.032306089997291565, 0.0607522688806057, -0.1233239471912384, -0.01616339571774006, 0.021467458456754684, 0.14416757225990295], [0.05719449743628502, -0.004162865690886974, 0.09917736798524857, 0.06259281188249588, 0.11172116547822952, 0.16029833257198334, -0.03274301066994667, 0.013425957411527634, -0.14704293012619019, -0.029528126120567322, 0.08344586938619614, 0.08102857321500778, -0.14001888036727905, 0.01964792050421238, -0.066742442548275, -0.0717712789773941, -0.031302038580179214, 0.14380331337451935, 0.12860189378261566, -0.0657198503613472, -0.14767254889011383, -0.16129571199417114, 0.023388853296637535, 0.0673835277557373, 0.08731681108474731, 0.12376108020544052, 0.14978277683258057, -0.07485979050397873, 0.07002980262041092, -0.061297688633203506, 0.11817952990531921, -0.08682369440793991, -0.1514245569705963, -0.14547978341579437, 0.0885772556066513, -0.08154478669166565, 0.1027064248919487, -0.08079768717288971, 0.005561798810958862, -0.02996712736785412, -0.10254816710948944, -0.0944674015045166, -0.06718142330646515], [-0.07908930629491806, 0.1424044668674469, 0.0850844532251358, 0.03804611787199974, 0.15911783277988434, 0.16161465644836426, 0.06557834148406982, 0.03777435049414635, -0.11923637986183167, -0.07893193513154984, 0.1076093539595604, -0.14422626793384552, -0.12625057995319366, -0.14543737471103668, -0.019027123227715492, 0.07182224839925766, 0.10708210617303848, 0.10162530094385147, 0.029844990000128746, -0.060780033469200134, 0.0885726734995842, 0.12004212290048599, -0.1439584344625473, 0.13737040758132935, 0.1084490492939949, 0.07113385200500488, 0.12146676331758499, -0.07508101314306259, -0.013149894773960114, 0.031035231426358223, -0.14328987896442413, -0.07540109753608704, 0.03090309537947178, -0.12319561094045639, 0.11911960691213608, -0.06955184042453766, -0.08421622961759567, -0.003434838494285941, -0.056702062487602234, 0.023988956585526466, 0.11353866755962372, -0.07568525522947311, 0.0444832518696785], [0.08693867176771164, 0.05306849256157875, 0.08763285726308823, 0.15208613872528076, 0.09401818364858627, 0.19461366534233093, -0.0674283504486084, -0.1264890730381012, -0.018914753571152687, -0.02447183057665825, 0.0975353941321373, 0.1256241798400879, 0.008296763524413109, 0.010815631598234177, 0.10143696516752243, 0.12174458056688309, -0.035589929670095444, -0.12546300888061523, -0.05714496970176697, -0.04874662682414055, -0.09891725331544876, 0.13653090596199036, -0.008700449019670486, 0.15394484996795654, 0.0015350751345977187, -0.14294718205928802, 0.13338173925876617, 3.710846067406237e-05, 0.07912037521600723, 0.034031860530376434, -0.06214888393878937, -0.008097028359770775, -0.11292385309934616, 0.0828271210193634, 0.05503714829683304, -0.12298432737588882, -0.1151629388332367, -0.03169857710599899, 0.12941879034042358, 0.00381202669814229, -0.10960036516189575, -0.07850001007318497, 0.05863625928759575], [0.07498932629823685, -0.08584512770175934, -0.07964258641004562, 0.10011807084083557, -0.13601864874362946, -0.04209056496620178, 0.15138427913188934, -0.08597858995199203, -0.02293458953499794, 0.0382566824555397, 0.04895642772316933, 0.005269259214401245, -0.12396823614835739, 0.15091729164123535, 0.05162189155817032, 0.08423419296741486, -0.007978319190442562, -0.1165616363286972, 0.10087628662586212, -0.045217640697956085, 0.1174175888299942, -0.0282076857984066, -0.015265234746038914, -0.12375553697347641, 0.08222198486328125, -0.100715771317482, -0.03924928978085518, 0.14521707594394684, -0.14874672889709473, -0.1339097023010254, 0.02066776715219021, 0.09299325197935104, 0.027419280260801315, -0.09264525771141052, 0.09728111326694489, -0.016412822529673576, -0.08995046466588974, 0.1253325194120407, 0.0666491687297821, 0.12037960439920425, -0.0967666357755661, -0.019435616210103035, 0.04057588055729866], [-0.03949371352791786, 0.061916496604681015, -0.055297013372182846, 0.12098022550344467, 0.07201345264911652, -0.09189358353614807, 0.03708523511886597, 0.10329855233430862, -0.10618813335895538, -0.025298651307821274, 0.15832370519638062, -0.03302380442619324, -0.0446990504860878, -0.038503408432006836, -0.09768661111593246, -0.021346282213926315, -0.04836002737283707, -0.0027717966586351395, -0.12171845883131027, -0.06815173476934433, -0.020816246047616005, -0.06608929485082626, -0.134476900100708, 0.0652908906340599, -0.11690341681241989, 0.0948190838098526, 0.1052354946732521, -0.12972287833690643, -0.06709348410367966, -0.1104128435254097, 0.08212200552225113, -0.12506301701068878, -0.06940680742263794, 0.0745200365781784, 0.07649857550859451, 0.03303363174200058, -0.08916133642196655, -0.09311117976903915, 0.04306979477405548, -0.11763084679841995, -0.10561943054199219, 0.02676936611533165, -0.000455306435469538], [-0.04485103115439415, -0.006665275432169437, -0.01564836874604225, -0.08363240212202072, 0.12114132940769196, 0.15574437379837036, -0.16196711361408234, 0.14136341214179993, -0.08833962678909302, 0.07502860575914383, 0.07818885147571564, -0.05667721480131149, -0.1479288935661316, -0.11854510754346848, -0.12012966722249985, -0.02617284655570984, 0.02697589062154293, -0.04771830141544342, 0.08006725460290909, 0.06873749941587448, 0.048049405217170715, 0.07976257801055908, -0.01636882685124874, 0.03860459104180336, 0.00539062637835741, 0.052488986402750015, -0.09576386958360672, 0.15433436632156372, 0.04399159550666809, 0.06946367770433426, -0.1516857147216797, 0.13111308217048645, 0.03512982279062271, -0.1397230625152588, 0.01736661233007908, 0.13014934957027435, -0.038178183138370514, -0.07962998747825623, -0.12151303142309189, -0.0164179727435112, 0.14385640621185303, -0.14844970405101776, -0.14807410538196564], [-0.12417273968458176, -0.05484587699174881, 0.08766014873981476, -0.05341678857803345, 0.10691666603088379, -0.06284259259700775, -0.025818239897489548, 0.11301705986261368, -0.07909656316041946, -0.007269035559147596, 0.14477156102657318, -0.04254304990172386, 0.1460113525390625, -0.007240589242428541, 0.048461414873600006, 0.011816240847110748, 0.03797435387969017, -0.1285504251718521, -0.061733610928058624, -0.009365794248878956, 0.06638770550489426, -0.08155418187379837, -0.0720984935760498, -0.08128678053617477, 0.014790616929531097, 0.11444134265184402, 0.08622042834758759, -0.021775320172309875, -0.0010646653827279806, -0.12731020152568817, -0.06091912463307381, 0.11261951178312302, 0.11648644506931305, 0.018300635740160942, 0.07377102971076965, 0.0032081909012049437, 0.11005648225545883, 0.11034238338470459, 0.07747979462146759, -0.1064576581120491, 0.13880711793899536, -0.01600411906838417, -0.04632249474525452], [-0.01847757026553154, 0.1070174053311348, 0.08955512940883636, -0.13595795631408691, -0.1448887139558792, -0.052392542362213135, 0.12838135659694672, -0.0652325451374054, 0.13845139741897583, -0.10375082492828369, -0.13988971710205078, 0.04488401487469673, 0.07552164793014526, 0.01155509427189827, -0.12128804624080658, -0.07599035650491714, -0.07294399291276932, -0.049684543162584305, 0.012980218045413494, -0.08201664686203003, -0.05855346471071243, 0.04769387096166611, -0.08039874583482742, 0.040669914335012436, 0.09868546575307846, -0.02540624886751175, 0.009657365269958973, -0.13545793294906616, 0.09536362439393997, -0.028214914724230766, -0.07789970934391022, -0.04857160151004791, -0.021583789959549904, -0.05634425953030586, 0.0010517585324123502, -0.0052238632924854755, 0.07438620924949646, 0.0673753023147583, 0.05398489907383919, -0.031946200877428055, 0.1034754291176796, 0.12273459136486053, 0.0453915074467659], [0.04637128859758377, -0.1500617414712906, 0.057460200041532516, -0.06587553769350052, -0.1725531965494156, 0.06886765360832214, -0.08056630939245224, -0.02062019519507885, -0.04387994855642319, -0.07850788533687592, -0.1421855092048645, 0.049214817583560944, -0.10234019160270691, -0.007628953084349632, -0.13170236349105835, -0.07319867610931396, -0.017843758687376976, -0.11229446530342102, -0.13559037446975708, -0.030357705429196358, 0.14596670866012573, -0.14830997586250305, 0.12224306911230087, 0.048342928290367126, 0.04738292470574379, -0.11229076236486435, -0.11612216383218765, 0.04156656935811043, 0.06465660780668259, -0.1382942646741867, -0.02961343340575695, 0.12271422892808914, 0.09687549620866776, -0.05206058919429779, 0.12758024036884308, 0.07684791088104248, 0.017174748703837395, 0.033346179872751236, -0.03962038829922676, 0.1236359253525734, 0.07599693536758423, 0.16244235634803772, -0.08589386940002441], [-0.07748381793498993, 0.14341551065444946, -0.14635105431079865, 0.04953569918870926, -0.117165707051754, -0.11694185435771942, 0.07082267850637436, -0.03456577658653259, -0.14904463291168213, 0.13955818116664886, 0.12444882839918137, -0.040787212550640106, 0.14101985096931458, 0.08416338264942169, -0.14539757370948792, -0.0798688679933548, 0.08626963198184967, 0.0528125986456871, -0.08058376610279083, 0.038819871842861176, -0.16399013996124268, -0.050512198358774185, -0.11914117634296417, -0.019958512857556343, 0.1379142552614212, 0.024519888684153557, -0.03282804414629936, -0.035695698112249374, -0.1738128960132599, 0.04066425934433937, -0.09983839094638824, -0.0738520398736, -0.05262026935815811, -0.026881035417318344, 0.02819853648543358, 0.11748895794153214, -0.12906798720359802, -0.14135754108428955, 0.1317213922739029, 0.09388863295316696, -0.08788293600082397, -0.039006661623716354, 0.12294811010360718], [-0.021537039428949356, -0.07001148164272308, -0.045379526913166046, 0.07638033479452133, -0.06388194113969803, -0.0518789067864418, 0.08895959705114365, -0.11016698181629181, 0.06246567144989967, -0.1537921279668808, 0.12525735795497894, -0.047822631895542145, 0.0743725523352623, -0.07885479927062988, 0.0701848715543747, 0.027617337182164192, 0.09749910235404968, -0.08350139856338501, -0.15255288779735565, -0.08829136937856674, -0.06153041496872902, 0.07364950329065323, 0.040191181004047394, -0.026378678157925606, -0.047641489654779434, 0.08194557577371597, -0.09425824880599976, -0.12155240774154663, -0.01717604324221611, -0.017831947654485703, 0.0698176771402359, -0.059483401477336884, 0.0341658890247345, -0.0426897369325161, 0.13184794783592224, 0.0032626662869006395, -0.06383689492940903, -0.026451559737324715, 0.00758740957826376, 0.09810320287942886, -0.08009419590234756, 0.08459911495447159, -0.08842289447784424], [0.0633428543806076, -0.10182872414588928, -0.010980610735714436, 0.07809276878833771, -0.10242320597171783, 0.1546882838010788, -0.025769025087356567, 0.06079073250293732, 0.005916891619563103, -0.03495067358016968, -0.07768473774194717, -0.013334051705896854, 0.07230234891176224, -0.009837284684181213, 0.019489452242851257, 0.10194061696529388, 0.03997766226530075, -0.10151617974042892, -0.11053664982318878, 0.09123143553733826, 0.008060731925070286, 0.011367226019501686, -0.08196958899497986, 0.09464474022388458, -0.06666776537895203, 0.09678547084331512, -0.05225388705730438, -0.0126345194876194, 0.029213834553956985, 0.006330967415124178, -0.08862537890672684, -0.07502546161413193, -0.08166775852441788, -0.02455710805952549, -0.10737252235412598, -0.041634779423475266, 0.15389324724674225, 0.1208205372095108, 0.10376065969467163, -0.04213894158601761, -0.14191405475139618, -0.04773230105638504, -0.0433000847697258], [-0.08421973884105682, 0.03346515819430351, 0.03472430631518364, 0.05784580856561661, 0.05774753540754318, -0.06281021237373352, -0.11745454370975494, 0.0002832022146321833, -0.10629916936159134, 0.06909018009901047, -0.004275129176676273, -0.027954328805208206, -0.06483358889818192, 0.12858663499355316, 0.06611759960651398, 0.05876222625374794, 0.015307693742215633, 0.024209076538681984, 0.05413578450679779, 0.005189348477870226, 0.10126809775829315, 0.013018396683037281, -0.03424280509352684, -0.02338353358209133, -0.01130644790828228, -0.00558559549972415, -0.06571763008832932, -0.08447863906621933, 0.11666370928287506, 0.05158974230289459, -0.10033472627401352, -0.00485127093270421, 0.004395266529172659, -0.03643156960606575, -0.00652798917144537, 0.12320579588413239, 0.04689604416489601, 0.14652025699615479, 0.030243368819355965, 0.07540754228830338, 0.07072855532169342, 0.12978559732437134, 0.020972467958927155], [-0.09670129418373108, -0.13279835879802704, -0.06479605287313461, 0.14155134558677673, -0.1245112419128418, -0.014318876899778843, 0.1428924798965454, 0.03565789386630058, 0.1120925322175026, -0.12735038995742798, 0.069202721118927, -0.084267258644104, 0.059596095234155655, 0.09505162388086319, 0.07570517808198929, -0.04506485536694527, 0.04051058739423752, -0.027995003387331963, -0.08512333780527115, -0.07408154755830765, 0.12301721423864365, -0.04594765976071358, 0.12894605100154877, -0.011474290862679482, 0.13543973863124847, -0.07687028497457504, -0.07369115948677063, -0.13447411358356476, 0.10599838942289352, 0.012420526705682278, 0.1431492120027542, -0.06841705739498138, -0.06497509032487869, 0.14259250462055206, -0.12757298350334167, -0.10551831126213074, -0.022570138797163963, 0.08489011973142624, 0.11894747614860535, -0.09299816936254501, -0.12381606549024582, 0.10923992097377777, -0.14112423360347748], [0.034121185541152954, 0.12384846061468124, 0.1326952427625656, 0.0003555532020982355, 0.07321840524673462, -0.08952590078115463, 0.07264185696840286, 0.07685166597366333, 0.012220345437526703, 0.08508716523647308, 0.03410057723522186, 0.0795036181807518, 0.1392732411623001, 0.013895450159907341, -0.014044239185750484, 0.12189430743455887, 0.10925232619047165, -0.11445162445306778, 0.09011179208755493, 0.1338081657886505, 0.12525397539138794, 0.03768518567085266, 0.003901868360117078, 0.13825169205665588, 0.0732249990105629, 0.0070677646435797215, -0.06595418602228165, -0.10253226011991501, 0.12084127217531204, 0.05414086952805519, 0.12609119713306427, -0.005940668284893036, -0.0954393520951271, -0.11460261791944504, -0.1244715005159378, -0.07754961401224136, 0.06376359611749649, 0.06900805979967117, -0.10622616112232208, 0.032531727105379105, 0.04251203313469887, -0.020669743418693542, -0.06523419171571732], [-0.09448685497045517, -0.02351345494389534, -0.016132645308971405, -0.09265096485614777, 0.00836132187396288, -0.12348204106092453, -0.10234953463077545, 0.036968912929296494, -0.0003825334133580327, 0.06318502873182297, 0.10975569486618042, 0.04993357136845589, -0.07299603521823883, 0.0037784737069159746, 0.0007427108939737082, 0.024065671488642693, 0.09727621078491211, 0.13381323218345642, 0.0919341892004013, -0.09082288295030594, -0.059852927923202515, 0.00563364801928401, -0.05928339436650276, 0.09145883470773697, -0.05693693459033966, 0.044078804552555084, 0.13169898092746735, -0.009999205358326435, 0.07221083343029022, 0.07613010704517365, -0.1412494033575058, 0.11572577804327011, 0.06561172008514404, 0.16361406445503235, -0.05356990918517113, 0.017772052437067032, -0.1264890730381012, 0.05172513797879219, 0.009462912566959858, -0.07233897596597672, -0.11929324269294739, 0.13270948827266693, -0.11013349890708923], [0.0314815379679203, 0.05312513932585716, 0.10820818692445755, 0.16526946425437927, -0.03265475109219551, -0.03326486796140671, 0.013281811028718948, -0.015705393627285957, 0.12529313564300537, -0.10116104781627655, 0.13849735260009766, -0.030918685719370842, -0.12789955735206604, -0.03525489568710327, 0.06166839599609375, 0.007212208583950996, 0.07247227430343628, -0.007434668019413948, 0.07273848354816437, -0.07799434661865234, 0.11855150759220123, -0.06329578161239624, -0.03550630435347557, 0.14422395825386047, 0.09510637819766998, 0.0777038112282753, 0.13784489035606384, -0.058201633393764496, 0.0917588397860527, 0.03641321510076523, -0.10302089899778366, 0.013202677480876446, -0.13265463709831238, -0.009287293069064617, 0.14082014560699463, 0.04605674371123314, 0.12035408616065979, 0.12257388979196548, -0.06159790977835655, 0.062214456498622894, -0.0051932986825704575, 0.010151110589504242, -0.13720913231372833], [0.02683979645371437, -0.07189532369375229, -0.006499044131487608, -0.07841961085796356, 0.08159024268388748, -0.11772891879081726, 0.05103118717670441, 0.02022159844636917, -0.1519898623228073, -0.08669068664312363, 0.012068827636539936, 0.057617928832769394, -0.0034756925888359547, -0.10023436695337296, 0.09827928245067596, 0.13311921060085297, -0.02010016329586506, -0.006639082450419664, -0.07180865854024887, 0.12835285067558289, -0.1177012100815773, -0.052047066390514374, 0.04756674915552139, 0.016976559534668922, 0.029447095468640327, 0.13969220221042633, -0.1539587527513504, 0.0031729103066027164, 0.0600629597902298, -0.12147434055805206, -0.10511098802089691, -0.012048393487930298, 0.11468307673931122, 0.00893139373511076, -0.09247715771198273, -0.028687670826911926, 0.0029838625341653824, -0.11910080909729004, 0.02179664745926857, 0.15478111803531647, 0.07355725765228271, 0.1437539905309677, 0.0536811500787735], [-0.05136743560433388, -0.01916290819644928, -0.051764115691185, -0.003974265418946743, -0.010420618578791618, -0.13647353649139404, -0.07365676760673523, 0.02467651478946209, 0.09509807825088501, -0.055121663957834244, -0.11004284769296646, -0.030858784914016724, 0.07674048840999603, -0.04495847225189209, -0.16589385271072388, 0.04924459755420685, -0.10845557600259781, -0.0820029079914093, -0.01325004082173109, 0.06136654317378998, 0.0885733962059021, 0.08378806710243225, 0.11042732745409012, 0.0263663437217474, -0.13602982461452484, -0.00892819557338953, 0.09727314859628677, 0.07363475114107132, 0.09280876815319061, -0.06625603884458542, -0.001959969289600849, 0.09387871623039246, -0.05621270835399628, -0.12409725040197372, 0.08742387592792511, 0.07017159461975098, 0.06726238131523132, -0.12163208425045013, -0.010477582924067974, 0.006037210114300251, 0.07336597144603729, 0.14895226061344147, -0.052982624620199203], [0.04951335862278938, -0.14429971575737, -0.12123046815395355, 0.168793722987175, 0.03880215436220169, 0.09575545787811279, -0.12127698957920074, 0.06258047372102737, -0.1373046636581421, 0.10404295474290848, 0.14901840686798096, -0.06423554569482803, -0.04146183282136917, 0.04985561594367027, 0.04589444026350975, 0.032954905182123184, -0.13902537524700165, 0.051942434161901474, 0.0037866372149437666, -0.04992734268307686, 0.05670015886425972, 0.11625263094902039, -0.12050194293260574, -0.07512214779853821, -0.02929866686463356, -0.13731251657009125, 0.09895768016576767, 0.011992678977549076, -0.07846646010875702, -0.10884980857372284, -0.04461389034986496, -0.14023934304714203, 0.04464094713330269, -0.01327687967568636, 0.07246816903352737, 0.0434691496193409, 0.09858732670545578, 0.01721101626753807, -0.058063533157110214, -0.1117921993136406, -0.07233237475156784, -0.07422184199094772, 0.10448363423347473], [-0.11284816265106201, -0.09717481583356857, 0.04993700981140137, -0.0007146646967157722, -0.12015692889690399, 0.07098618149757385, -0.05173061788082123, 0.05989100784063339, 0.029613221064209938, -0.11018908023834229, -0.0961339995265007, -0.011347956955432892, 0.09412480145692825, -0.16350892186164856, -0.11473513394594193, -0.04612055420875549, 0.12141817063093185, -0.1179799735546112, 0.09806552529335022, 0.05396292731165886, 0.05743365362286568, -0.02572944387793541, -0.10102634876966476, 0.0023475084453821182, 0.08760257065296173, 0.08524809777736664, -0.02461315132677555, 0.1555359661579132, 0.13137300312519073, -0.06081940978765488, -0.13975496590137482, -0.03467234969139099, -0.06184474751353264, 0.0010432006092742085, 0.120086669921875, -0.1226145401597023, 0.10234249383211136, -0.13305076956748962, -0.12026754766702652, -0.12233803421258926, -0.0975605770945549, -0.05042801797389984, 0.15710300207138062], [0.044927384704351425, 0.03693217411637306, 0.08813834935426712, 0.04344900697469711, -0.06999640166759491, -0.046641360968351364, -0.055752601474523544, -0.12323760241270065, 0.03074624575674534, 0.0006187391118146479, 0.01743410713970661, -0.09967663884162903, 0.12921100854873657, -0.08911453932523727, -0.12956590950489044, 0.05377251282334328, -0.10761091113090515, 0.04781608283519745, 0.03989117592573166, 0.05671519413590431, 0.1405288428068161, -0.055749956518411636, 0.042304374277591705, 0.14756861329078674, 0.13145996630191803, 0.11579230427742004, 0.08774445205926895, 0.03952692076563835, -0.012008937075734138, -0.06375106424093246, 0.12198194116353989, -0.14247481524944305, -0.11305844038724899, 0.16958768665790558, 0.12371055036783218, 0.10480255633592606, -0.08825051784515381, 0.008232668042182922, 0.08100827783346176, 0.08722870796918869, 0.14012901484966278, 0.147255077958107, -0.016871096566319466], [-0.10833337157964706, -0.10312237590551376, 0.09008058160543442, 0.08872602134943008, -0.02786293625831604, 0.06471220403909683, 0.15674683451652527, 0.024139447137713432, -0.08956684172153473, 0.11702177673578262, 0.0705779567360878, -0.053766634315252304, 0.1279693841934204, -0.09835192561149597, -0.022320272400975227, -0.033181410282850266, 0.13169482350349426, 0.05943760275840759, -0.025097955018281937, 0.0336584746837616, -0.07391929626464844, -0.1156526729464531, -0.09870610386133194, -0.1740855872631073, -0.03058919683098793, -0.16101519763469696, 0.0515119694173336, 0.00213630055077374, -0.1126352846622467, 0.05202546343207359, 0.1764504760503769, 0.11027787625789642, -0.1415800005197525, 0.052491966634988785, 0.03889871761202812, -0.12909820675849915, 0.06563540548086166, -0.02537788450717926, 0.10548391938209534, -0.036694787442684174, -0.07737992703914642, -0.08811081945896149, 0.061834026128053665], [0.15665848553180695, 0.13826853036880493, -0.07213524729013443, -0.03001207672059536, -0.04778353124856949, -0.06786438822746277, 0.13761889934539795, -0.03560131788253784, -0.08977751433849335, -0.021933186799287796, 0.13720673322677612, -0.04412475973367691, -0.09355919063091278, 0.07701516151428223, 0.11914630979299545, 0.10268785804510117, 0.08948405832052231, -0.017326168715953827, -0.08770156651735306, 0.0009525464847683907, -0.03231225907802582, 0.0594857819378376, -0.10014696419239044, 0.16026048362255096, -0.02907668985426426, -0.07965724915266037, 0.05452044680714607, -0.053980350494384766, 0.1467573344707489, -0.0407332219183445, 0.006657682359218597, -0.13663020730018616, -0.06430204957723618, 0.005523589439690113, -7.558375364169478e-05, -0.010049743577837944, 0.03954183682799339, 0.0114676458761096, -0.08695884793996811, -0.11316236853599548, 0.06325793266296387, -0.029660744592547417, 0.03458670899271965], [0.16007888317108154, -0.059841081500053406, 0.07999683171510696, 0.0794665738940239, 0.047151561826467514, -0.1470155417919159, -0.03545306995511055, 0.03928470239043236, -0.06027062609791756, 0.0950586348772049, -0.0835115984082222, 0.10975152254104614, 0.08332885056734085, -0.009085281752049923, 0.11595224589109421, 0.02426725998520851, -0.01144487876445055, -0.11664080619812012, 0.13386379182338715, -0.048977576196193695, 0.16836002469062805, 0.11376792937517166, -0.05736098065972328, 0.026624714955687523, 0.08531837165355682, -0.06542754173278809, -0.10366056114435196, -0.13785509765148163, -0.009244206361472607, -0.10047183930873871, 0.11039642244577408, -0.12463963776826859, -0.11208431422710419, 0.14191576838493347, -0.04328383132815361, 0.04578756168484688, 0.02311224304139614, -0.0007763748872093856, 0.032687004655599594, 0.07393335551023483, 0.05909833312034607, -0.10293392091989517, -0.03294787183403969], [-0.11346553266048431, -0.0006771950866095722, -0.0035033044405281544, 0.025591561570763588, 0.15083561837673187, -0.12364441901445389, 0.1449631005525589, 0.038813166320323944, -0.01484963670372963, 0.06370624154806137, 0.13379119336605072, -0.10416585952043533, -0.09189093112945557, 0.02417478710412979, -0.10810308158397675, -0.08932634443044662, -0.013105744495987892, -0.10631399601697922, 0.15266762673854828, 0.0958721786737442, 0.1284998059272766, 0.04866327717900276, 0.11338140070438385, -0.030033713206648827, -0.12457659095525742, -0.05188484117388725, 0.005753278266638517, -0.05620897561311722, 0.08355439454317093, -0.024217724800109863, -0.08694027364253998, -0.033377863466739655, 0.12687274813652039, -0.03751330450177193, -0.13939188420772552, 0.057115379720926285, 0.03645503148436546, -0.13730236887931824, 0.05804896354675293, 0.10699177533388138, 0.04743840917944908, 0.10864528268575668, -0.084691621363163], [-0.02082500234246254, -0.07543956488370895, 0.10165538638830185, -0.10800827294588089, -0.10158441960811615, 0.011027556844055653, 0.12670499086380005, -0.03150478005409241, 0.08243207633495331, 0.05275215953588486, 0.08413109183311462, -0.07193183153867722, 0.06433410942554474, -0.012445339933037758, -0.02323518879711628, -0.1362759917974472, -0.0647568553686142, 0.1418365091085434, 0.047754500061273575, -0.02278762310743332, 0.020501909777522087, -0.017489144578576088, -0.1387508511543274, 0.15131227672100067, 0.06617031246423721, 0.04356320574879646, -0.11966920644044876, 0.06448143720626831, 0.1344248503446579, 0.12664619088172913, 0.003782152896746993, 0.11750157922506332, -0.03801555931568146, 0.00825751107186079, -0.12576889991760254, 0.14362815022468567, 0.13733452558517456, 0.09654056280851364, 0.08042434602975845, 0.04403271526098251, -0.06363480538129807, -0.11202025413513184, -0.12663216888904572], [-0.10584395378828049, 0.12332043051719666, 0.087499238550663, -0.11232731491327286, 0.07216169685125351, -0.08665347844362259, -0.017437582835555077, -0.05095621570944786, -0.014103762805461884, 0.028749603778123856, -0.035733748227357864, -0.0159111637622118, 0.08880088478326797, -0.06738811731338501, 0.07709464430809021, 0.04925265535712242, 0.028560224920511246, -0.1197948008775711, 0.053382813930511475, 0.07763377577066422, 0.12963633239269257, 0.0051330155692994595, 0.10267985612154007, 0.010829389095306396, -0.03833569213747978, 0.016060952097177505, -0.011814707890152931, 0.02271241322159767, 0.10728025436401367, -0.097349151968956, 0.031509336084127426, 0.004325468558818102, -0.014210277236998081, -0.08312949538230896, -0.08279075473546982, 0.06069273129105568, 0.13003243505954742, -0.14278440177440643, 0.10494908690452576, -0.1284497082233429, -0.12079471349716187, -0.04205816611647606, 0.020067717880010605], [-0.03838234394788742, -0.04401132091879845, -0.002608412876725197, 0.027818648144602776, -0.10309971123933792, 0.15423914790153503, 0.018524911254644394, -0.00610105087980628, -0.03050217218697071, 0.0745815858244896, 0.001556845149025321, -0.1152573749423027, 0.05949035659432411, -0.15634681284427643, 0.09451017528772354, 0.12799616158008575, -0.010000849142670631, 0.0030502178706228733, 0.10972258448600769, -0.08095548301935196, 0.10054804384708405, 0.053591109812259674, 0.052109263837337494, 0.0468282550573349, 0.02361079677939415, -0.07529766857624054, -0.043528661131858826, -0.0999261736869812, -0.12469001114368439, -0.015769045799970627, 0.10998396575450897, 0.07822532206773758, 0.10810045897960663, 0.1289292275905609, 0.04825597628951073, 0.13348692655563354, -0.14306721091270447, 0.010227015241980553, 0.011632953770458698, 0.03158610314130783, 0.14225943386554718, 0.0032487651333212852, 0.12591424584388733], [0.029709739610552788, 0.05258597806096077, 0.0460641011595726, -0.05521933734416962, 0.16367103159427643, -0.04693438112735748, 0.041837263852357864, 0.11003237217664719, -0.1135939508676529, -0.13788871467113495, 0.13997752964496613, 0.09712707996368408, 0.09222915768623352, -0.06509186327457428, -0.08957801759243011, -0.10229036957025528, 0.0818546712398529, 0.015983382239937782, 0.09463148564100266, -0.09278443455696106, -0.06485941261053085, -0.018612217158079147, 0.044775642454624176, 0.052306242287158966, 0.02458648942410946, -0.02603142149746418, 0.03672795742750168, 0.12324023246765137, 0.06828498095273972, -0.06900174915790558, -0.11077365279197693, 0.03512684255838394, 0.10407323390245438, 0.06391618400812149, 0.04641424119472504, -0.07199452817440033, 0.13973212242126465, 0.053936947137117386, -0.04856463894248009, 0.010851596482098103, -0.02792399562895298, -0.12327675521373749, 0.09270181506872177], [0.1809358149766922, 0.08706535398960114, 0.1064886599779129, 0.050269827246665955, 0.15596190094947815, -0.18886011838912964, -0.042488954961299896, 0.021742841228842735, 0.024572322145104408, 0.06681010127067566, 0.07207812368869781, 0.16809988021850586, -0.09941590577363968, 0.0032183537259697914, 0.04879496991634369, 0.019265757873654366, 0.1211625263094902, 0.05984456092119217, -0.14717057347297668, -0.00377281685359776, -0.05450223758816719, -0.07570717483758926, -0.04441528022289276, -0.14464513957500458, -0.028727779164910316, -0.14003129303455353, 0.07339561730623245, -0.026019178330898285, -0.08871601521968842, -0.04243592172861099, 0.07853306084871292, 0.0074693588539958, -0.03900449350476265, -0.014091800898313522, 0.0302557572722435, 0.017627660185098648, 0.10167935490608215, -0.11483529955148697, -0.1422426551580429, -0.05602613463997841, 0.0049483804032206535, 0.06673642247915268, -0.11659044772386551], [0.13230696320533752, -0.053661953657865524, -0.05696845054626465, -0.09183882176876068, -0.07126813381910324, -0.060142382979393005, -0.1436571627855301, 0.020305702462792397, -0.038620367646217346, 0.11177892982959747, -0.09879431873559952, 0.10102763772010803, -0.053799860179424286, -0.009893602691590786, 0.0043007126078009605, -0.060426078736782074, 0.05232011899352074, -0.14773191511631012, 0.12212742120027542, 0.10089883953332901, 0.0057106222957372665, -0.025435687974095345, 0.019820332527160645, 0.14078114926815033, 0.021417725831270218, -0.003667680313810706, -0.070457324385643, 0.13570502400398254, -0.04868786409497261, -0.15391628444194794, 0.14673005044460297, 0.047666437923908234, -0.05686400830745697, -0.0954020768404007, 0.11683919280767441, -0.11058375239372253, -0.09311336278915405, 0.06360522657632828, -0.0337228886783123, -0.05723675712943077, 0.010226979851722717, 0.16845901310443878, -0.07750988006591797], [-0.12913139164447784, -0.023325210437178612, 0.01774396188557148, -0.03427441790699959, -0.07168930768966675, -0.04660257697105408, -0.005948558449745178, 0.02896501123905182, 0.11581740528345108, 0.049031343311071396, -0.083358034491539, -0.0688483864068985, 0.0024921144358813763, 0.029259907081723213, -0.030453454703092575, -0.01394117996096611, -0.0944751426577568, 0.16546031832695007, -0.03626566380262375, -0.022419823333621025, 0.015956349670886993, 0.14704196155071259, 0.1434924602508545, -0.076677106320858, 0.144914448261261, -0.05930307134985924, -0.15870194137096405, 0.03882436081767082, 0.06900063157081604, 0.03793559968471527, -0.020343756303191185, -0.09273034334182739, -0.09223663061857224, 0.12293755263090134, -0.032529424875974655, 0.14687730371952057, -0.07530706375837326, 0.14015355706214905, 0.05736427381634712, 0.1099427118897438, -0.1103055402636528, 0.14739994704723358, 0.12581534683704376], [-0.05877405405044556, 0.047815725207328796, 0.05156087130308151, 0.1043580025434494, -0.1578201800584793, 0.07609149068593979, 0.04275352507829666, -0.14718636870384216, 0.14712341129779816, -0.0876944363117218, -0.14341841638088226, -0.033529940992593765, -0.06682808697223663, -0.09998767077922821, -0.06682194024324417, 0.055806271731853485, 0.013019605539739132, -0.15552876889705658, -0.02861621230840683, 0.1223524734377861, -0.07880984991788864, 0.11703963577747345, 0.01688520796597004, 0.10240034759044647, 0.051087379455566406, -0.05837620422244072, 0.005294669885188341, -0.07615789026021957, -0.10187696665525436, 0.13035599887371063, -0.06738840788602829, -0.13774728775024414, -0.06312285363674164, -0.0840158686041832, 0.03779204562306404, -0.05769384279847145, -0.08855836093425751, -0.022492041811347008, -0.14281213283538818, -0.11892290413379669, 0.12938930094242096, -0.08233651518821716, -0.029460497200489044], [0.14063462615013123, 0.1237402930855751, 0.11390741169452667, -0.058676578104496, 0.0455051027238369, 0.04349261149764061, 0.031959276646375656, 0.07426583766937256, 0.14284683763980865, -0.08267971873283386, -0.13305997848510742, 0.039392393082380295, 0.04927296191453934, 0.04720628261566162, -0.14666098356246948, 0.07202199101448059, -0.10271774232387543, -0.13753965497016907, -0.03940938785672188, -0.12846651673316956, -0.02680114470422268, -0.012419910170137882, 0.05033719912171364, -0.0238963570445776, -0.12219442427158356, -0.020708909258246422, -0.0029577682726085186, 0.04502158239483833, 0.02974921464920044, -0.10562684386968613, -0.12477929145097733, -0.10672298073768616, -0.03737248480319977, 0.03729308024048805, -0.054303523153066635, -0.017920665442943573, -0.13421107828617096, 0.12916308641433716, 0.007038637530058622, 0.0926884114742279, -0.04540856555104256, 0.009961552917957306, -0.11252938956022263], [0.11111115664243698, -0.12127204239368439, 0.10962807387113571, 0.1537589579820633, -0.028605595231056213, -0.0007285659085027874, -0.16481487452983856, 0.07242146879434586, 0.020005671307444572, 0.12408940494060516, -0.049070775508880615, -0.042324382811784744, -0.06427563726902008, -0.04700315743684769, 0.04675909876823425, 0.13024590909481049, 0.09542746841907501, 0.14112158119678497, 0.11822870373725891, 0.015092676505446434, 0.10368034243583679, -0.0921245589852333, -0.04592134803533554, 0.05312376841902733, -0.05869413912296295, 0.12464899569749832, 0.12974070012569427, 0.031137099489569664, -0.08733309060335159, 0.11006079614162445, -0.060100145637989044, 0.01824876479804516, 0.056690916419029236, -0.00951425451785326, 0.05511746555566788, -0.13459213078022003, 0.07441171258687973, -0.10874397307634354, -0.05208471044898033, 0.04511385038495064, 0.10862729698419571, 0.11478861421346664, -0.09803275763988495], [-0.03734738007187843, 0.0914965495467186, 0.04176238179206848, -0.01043026801198721, 0.026666220277547836, -0.06176639720797539, 0.14623841643333435, -0.1527320146560669, 0.14183852076530457, -0.0982012003660202, -0.09874801337718964, -0.06480327248573303, 0.12291885167360306, 0.08251109719276428, 0.001687625888735056, 0.12278632819652557, 0.15358677506446838, 0.03169184550642967, 0.02857154980301857, -0.14762645959854126, -0.032901398837566376, 0.12716466188430786, -0.08147021383047104, 0.04147867485880852, 0.0050225225277245045, -0.005062595475465059, -0.1518259048461914, 0.1371651589870453, 0.08514557033777237, 0.06580983847379684, -0.14043959975242615, -0.11765468120574951, 0.14724038541316986, -0.05374683439731598, -0.044644683599472046, -0.07841014862060547, 0.013096494600176811, -0.08597175776958466, 0.042552582919597626, 0.08196523040533066, 0.030771004036068916, 0.10252927988767624, -0.03823089227080345], [0.1612025797367096, -0.059623364359140396, 0.03208642452955246, 0.028675522655248642, -0.13118860125541687, -0.13768988847732544, 0.08804887533187866, -0.04286489263176918, 0.01298572774976492, -0.09281031787395477, 0.04693495109677315, -0.028379028663039207, -0.05284186080098152, 0.15607620775699615, -0.12735193967819214, 0.023395581170916557, -0.05927668511867523, 0.09943487495183945, -0.1129983440041542, 0.12635363638401031, -0.1414894014596939, 0.04696355015039444, 0.07276899367570877, 0.002700171433389187, 0.03144051507115364, -0.06823240220546722, -0.039561137557029724, 0.06623983383178711, 0.002263537608087063, 0.0441601425409317, 0.021906740963459015, 0.028716713190078735, -0.14891363680362701, 0.11131785064935684, 0.04967331513762474, 0.07516829669475555, 0.09599880874156952, -0.12169497460126877, -0.010797606781125069, -0.003955597057938576, -0.061760399490594864, -0.08956228941679001, 0.11059030890464783], [-0.007657778915017843, 0.04452108219265938, 0.07194285839796066, -0.15355151891708374, 0.03698069602251053, -0.04154304787516594, 0.09269677847623825, 0.14853450655937195, 0.037954118102788925, -0.09798109531402588, 0.090827077627182, 0.11337973922491074, 0.003847215324640274, -0.03713810071349144, 0.15227961540222168, 0.15132039785385132, -0.14821942150592804, -0.09469519555568695, -0.11585348099470139, -0.06690650433301926, 0.14300636947155, 0.05196915194392204, -0.14423663914203644, -0.14144505560398102, 0.06231752038002014, -0.008005399256944656, 0.13884688913822174, 0.09914536029100418, 0.012519028037786484, 0.016468675807118416, 0.09253983944654465, 0.061929330229759216, 0.0636247843503952, -0.06055348739027977, -0.0946451723575592, -0.13116201758384705, 0.09722177684307098, 0.10964323580265045, 0.00782625563442707, 0.049734488129615784, -0.01878337934613228, 0.04009886458516121, -0.05014653503894806], [0.12128828465938568, 0.023697465658187866, -0.08860159665346146, -0.014886312186717987, -0.062177062034606934, 0.17478086054325104, -0.05705050006508827, -0.1572837233543396, 0.008072242140769958, 0.025855639949440956, -0.022626211866736412, -0.1178341880440712, -0.05067754536867142, 0.0063098641112446785, -0.0011970542836934328, -0.10830211639404297, 0.13780760765075684, -0.03875176981091499, 0.10368876159191132, 0.05032278969883919, -0.08947809040546417, -0.14168119430541992, -0.035395752638578415, -0.08300526440143585, 0.11897172033786774, 0.020385626703500748, 0.14209219813346863, 0.046585410833358765, 0.06069014221429825, -0.07615133374929428, -0.07240033894777298, 0.08061634749174118, 0.043996412307024, -0.045441702008247375, -0.06997925788164139, -0.05892712622880936, -0.08349692821502686, 0.002762758871540427, -0.0855894535779953, 0.09870638698339462, -0.10082942247390747, 0.07967211306095123, 0.055150967091321945], [-0.16815294325351715, -0.13521350920200348, 0.09862006455659866, -0.15987125039100647, -0.1012348011136055, -0.10649258643388748, -0.05800498649477959, -0.03682180494070053, 0.0217807125300169, -0.0677652657032013, -0.03301110491156578, 0.08012385666370392, 0.1015702337026596, 0.05265995115041733, 0.06709762662649155, 0.013357591815292835, -0.08683457225561142, -0.01908840984106064, 0.05221429467201233, 0.11734886467456818, -0.07674615830183029, -0.056069497019052505, -0.03662947565317154, -0.1341037154197693, 0.1123734712600708, -0.08414369821548462, 0.03437202796339989, -0.08659911155700684, 0.06477636843919754, -0.03084743022918701, -0.09224443882703781, -0.04897315427660942, 0.10219459980726242, 0.0612705759704113, -0.06484474986791611, -0.07850873470306396, 0.13322791457176208, -0.00685624685138464, -0.12516896426677704, 0.1281696856021881, -0.05342772603034973, -0.0012232690351083875, -0.036047425121068954], [-0.1894315630197525, -0.1328452080488205, 0.024643713608384132, -0.1294807493686676, 0.09143530577421188, -0.002701567253097892, -0.06990580260753632, 0.08826460689306259, -0.041870322078466415, -0.11998739093542099, -0.11340460926294327, -0.018879080191254616, 0.05795614793896675, 0.08072606474161148, 0.06411900371313095, -0.0526505671441555, -0.14060896635055542, -0.05343742296099663, -0.03534566983580589, -0.045423127710819244, -0.13968391716480255, 0.13313178718090057, -0.141680046916008, 0.07494760304689407, -0.025483520701527596, -0.1596306413412094, -0.07959043234586716, -0.12955725193023682, 0.010643485933542252, 0.010771483182907104, 0.08343151956796646, -0.008389915339648724, -0.12468629330396652, -0.014940903522074223, -0.04732368513941765, 0.02290969528257847, -0.09378170967102051, -0.019764652475714684, 0.1407940536737442, 0.036846600472927094, -0.09134633839130402, 0.023829307407140732, 0.13431988656520844], [-0.114174023270607, -0.1295943409204483, 0.11908715218305588, -0.07567104697227478, -0.09684673696756363, 0.13358329236507416, 0.04730192571878433, -0.14085239171981812, -0.08404640108346939, 0.12560230493545532, -0.05343630537390709, -0.07121129333972931, -0.027232155203819275, 0.1056903675198555, 0.1362346112728119, -0.09660777449607849, 0.11789943277835846, -0.009576177224516869, -0.14350594580173492, 0.11442296952009201, -0.051049020141363144, -0.05122463405132294, -0.13613052666187286, 0.024252578616142273, 0.03473787382245064, -0.04789748415350914, 0.06826925277709961, 0.06940747797489166, -0.0651027262210846, -0.028532814234495163, -0.14070703089237213, 0.14232857525348663, -0.047155920416116714, -0.031896620988845825, 0.09400510042905807, 0.09980376064777374, 0.07771171629428864, 0.02680264227092266, -0.08959553390741348, -0.009450968354940414, -0.007764388341456652, -0.00830428209155798, 0.032972220331430435], [-0.12208672612905502, 0.03847324848175049, 0.01623019576072693, -0.10538028180599213, -0.06755638122558594, 0.05231257900595665, -0.03949530050158501, 0.04388289526104927, 0.08948833495378494, -0.14328786730766296, 0.1366279274225235, -0.012602993287146091, -0.07677444815635681, 0.03601403161883354, -0.013460825197398663, -0.10978967696428299, -0.11970968544483185, 0.13469338417053223, -0.13625097274780273, 0.12845619022846222, -0.08100149035453796, -0.10255654901266098, -0.010456754826009274, -0.1399049013853073, 0.021265370771288872, 0.13289548456668854, 0.16233263909816742, -0.10856009274721146, 0.061709027737379074, 0.1255914568901062, -0.025971582159399986, 0.023195143789052963, 0.043613553047180176, 0.008201975375413895, -0.04160161316394806, 0.017115941271185875, 0.11936687678098679, 0.09630869328975677, 0.042969826608896255, -0.15291480720043182, 0.08346881717443466, 0.09319249540567398, -0.052425723522901535], [0.06134098395705223, -0.05113191157579422, 0.11923682689666748, -0.1745571345090866, 0.00403914600610733, -0.09658817946910858, 0.02370433323085308, 0.046243589371442795, -0.1291818916797638, 0.09799748659133911, 0.014982775785028934, 0.09838402271270752, -0.10186974704265594, -0.15940384566783905, 0.031313929706811905, -0.012326622381806374, 0.0970173105597496, 0.025697385892271996, 0.1216735988855362, -0.03235737979412079, 0.0066282544285058975, 0.035493284463882446, 0.12883739173412323, -0.16317951679229736, 0.012391063384711742, -0.14691542088985443, -0.13597331941127777, -0.036090318113565445, 0.06099901720881462, -0.09592922031879425, -0.034842558205127716, -0.01208734791725874, -0.0895925834774971, -0.09618938714265823, 0.03173606097698212, 0.121442511677742, -0.061275023967027664, 0.041378606110811234, -0.05244038254022598, -0.08999767154455185, 0.1380666196346283, -0.10530658811330795, 0.05573495104908943], [-0.05584350973367691, -0.057327453047037125, 0.11800694465637207, 0.03125908225774765, 0.09364678710699081, 0.16262926161289215, 0.07041521370410919, -0.04486386105418205, 0.040761638432741165, 0.022916799411177635, -0.10205646604299545, -0.14092716574668884, -0.13888581097126007, -0.15255816280841827, 0.05942031368613243, 0.12389343976974487, -0.0487636998295784, -0.10971958190202713, -0.04783698916435242, -0.1514601707458496, -0.10958079993724823, -0.06386323273181915, -0.05850112438201904, -0.015247229486703873, 0.06880641728639603, 0.040685683488845825, -0.1226799264550209, -0.08000112324953079, -0.08158623427152634, -0.06786597520112991, -0.018808288499712944, -0.09523596614599228, -0.05673236399888992, 0.002305516041815281, -0.010801663622260094, -0.10695201903581619, 0.12311901152133942, -0.005014197900891304, -0.011984564363956451, -0.03958703577518463, -0.0016699477564543486, -0.0696835145354271, 0.12669242918491364], [-0.1193292886018753, 0.0368603840470314, -0.031671665608882904, -0.137257918715477, -0.14725835621356964, 0.049355678260326385, -0.043914757668972015, 0.10804575681686401, 0.031222736462950706, -0.023824311792850494, 0.10461792349815369, -0.09857477992773056, 0.07788994163274765, 0.13145531713962555, -0.03077514097094536, -0.09583037346601486, 0.06827989965677261, -0.07703324407339096, -0.08736004680395126, -0.15158332884311676, -0.01736958511173725, -0.01371812168508768, 0.0007113921456038952, -0.017361165955662727, 0.0851777121424675, 0.020575424656271935, -0.1200564056634903, 0.024694299325346947, -0.08528520911931992, 0.08867958188056946, -0.11014433950185776, -0.0063237580470740795, 0.08772504329681396, 0.1380348652601242, 0.11488977819681168, -0.09269222617149353, -0.15545757114887238, 0.046174921095371246, 0.07685287296772003, -0.012614717707037926, -0.09566763043403625, 0.05294487252831459, -0.10420092940330505], [-0.06057923659682274, 0.057451218366622925, 0.09480655193328857, -0.06533577293157578, 0.049591757357120514, 0.025290966033935547, 0.08566255867481232, -0.07279810309410095, 0.08427345752716064, -0.047720521688461304, 0.12192688137292862, 0.09516974538564682, -0.1380266547203064, 0.1218758299946785, 0.12441020458936691, -0.00011651474778773263, 0.07662361115217209, 0.09940734505653381, -0.16419441998004913, 0.006294191349297762, -0.09848381578922272, -0.05440253019332886, 0.12352318316698074, 0.06290724873542786, 0.1519138664007187, 0.018662411719560623, -0.11406659334897995, 0.14277589321136475, -0.0770341083407402, -0.0007220336701720953, 0.017644865438342094, -0.11314015090465546, 0.06869680434465408, 0.09647370129823685, -0.1146898940205574, 0.12931759655475616, 0.10808347910642624, -0.13319693505764008, 0.09950625896453857, 0.03805535286664963, 0.016378706321120262, -0.04859942942857742, -0.11198694258928299], [-0.05709133669734001, -0.04790491610765457, 0.05803217366337776, -0.14621758460998535, 0.003101583104580641, -0.04868480563163757, 0.05680547282099724, -0.13289493322372437, -0.07056988775730133, -0.14108437299728394, 0.08994346112012863, 0.02123524434864521, -0.06290417909622192, -0.0196404866874218, -0.03352141007781029, -0.003096699947491288, 0.03147342801094055, -0.018255164846777916, 0.03799954429268837, 0.06306024640798569, 0.030750252306461334, 0.142598956823349, 0.14489108324050903, 0.0011209959629923105, -0.04741053655743599, -0.11706581711769104, 0.12456890195608139, 0.07186725735664368, 0.07592198252677917, -0.00330364634282887, -0.03362033888697624, -0.13712139427661896, -0.03530390188097954, -0.11105994135141373, -0.12396430969238281, -0.10309862345457077, -0.003960755188018084, 0.08223551511764526, 0.021237218752503395, 0.012706194072961807, 0.10707078874111176, -0.14423146843910217, -0.02065393514931202], [-0.09326018393039703, -0.016603723168373108, -0.13829714059829712, -0.042201194912195206, 0.11534006893634796, -0.16087722778320312, -0.10725083947181702, 0.015349961817264557, 0.051645517349243164, -0.017389213666319847, -0.13566163182258606, -0.031646594405174255, 0.08910626918077469, -0.09004786610603333, -0.12665165960788727, -0.12526260316371918, 0.10860572010278702, -0.012588351033627987, 0.13976143300533295, 0.052775461226701736, 0.11594843119382858, -0.1303325891494751, -0.12244131416082382, -0.03153538331389427, -0.14946039021015167, 0.024599594995379448, -0.032893240451812744, 0.09822399914264679, -0.06487785279750824, -0.06467074900865555, -0.009175454266369343, 0.12547500431537628, 0.11075524240732193, 0.13659170269966125, -0.07437627017498016, -0.06256816536188126, 0.09876175224781036, 0.09352708607912064, -0.05336665362119675, 0.1268666833639145, -0.13034944236278534, -0.006941778119653463, 0.06745021790266037], [0.10839483141899109, 0.13577695190906525, 0.07543928921222687, 0.0635460689663887, 0.07899851351976395, 0.10747639834880829, -0.00743526965379715, 0.037070147693157196, -0.04059461131691933, -0.009290273301303387, 0.12561829388141632, 0.10711154341697693, 0.08734122663736343, 0.15716208517551422, 0.06085535138845444, 0.11998654156923294, -0.12862028181552887, -0.013215210288763046, -0.052436426281929016, -0.134139746427536, 0.06280222535133362, -0.031046418473124504, 0.14822739362716675, 0.10445261746644974, 0.07894530147314072, 0.12787948548793793, 0.07195186614990234, 0.037664543837308884, -0.08722756803035736, 0.011621792800724506, -0.07346336543560028, 0.09485738724470139, 0.10861840099096298, 0.09402535855770111, 0.12318004667758942, -0.0971030443906784, -0.14042867720127106, -0.11311094462871552, -0.002264815615490079, 0.13425759971141815, -0.14354823529720306, -0.13026314973831177, 0.14579007029533386], [-0.05929027497768402, 0.10208379477262497, -0.015977339819073677, 0.16018469631671906, 0.03831646963953972, -0.11670555174350739, 0.041428182274103165, -0.14284765720367432, -0.09186442196369171, 0.06615340709686279, -0.050274837762117386, -0.14904315769672394, 0.14925532042980194, -0.06777086853981018, 0.020283224061131477, -0.15411785244941711, -0.11713923513889313, -0.012341020628809929, 0.020206641405820847, 0.07483941316604614, -0.03220956400036812, -0.042044222354888916, 0.07305845618247986, -0.06687851250171661, 0.01953122206032276, 0.1024635061621666, -0.10843154042959213, -0.03632032126188278, 0.0839637890458107, 0.009886464104056358, -0.07696615904569626, -0.14874950051307678, -0.07161663472652435, 0.08139057457447052, 0.017082134261727333, 0.02433129772543907, -0.10921001434326172, 0.09945686161518097, 0.10875517874956131, -0.117268867790699, -0.018453650176525116, 0.0555742084980011, 0.08423548936843872], [-0.1254633367061615, -0.08900895714759827, 0.09953641146421432, 0.12487424165010452, 0.09892480820417404, 0.042159553617239, -0.13082541525363922, -0.0621785968542099, 0.03795462101697922, -0.02512490190565586, -0.09152539819478989, -0.11777344346046448, -0.08292346447706223, -0.1228087767958641, -0.03734080493450165, -0.044706571847200394, 0.07185005396604538, 0.013631035573780537, 0.037713125348091125, 0.08886291086673737, -0.1372220665216446, 0.05850918963551521, 0.1190934106707573, -0.04631762579083443, 0.02802925556898117, -0.05622172728180885, 0.10493037849664688, -0.010164303705096245, -0.018668463453650475, -0.1228950172662735, 0.029119053855538368, 0.02580643817782402, -0.0015090369852259755, 0.02159789204597473, -0.06400272250175476, 0.10139711201190948, 0.11342573910951614, -0.08598251640796661, 0.1470465511083603, 0.13608135282993317, 0.019746195524930954, 0.021353639662265778, -0.021302983164787292], [0.15179774165153503, -0.05719470977783203, 0.09934596717357635, 0.13134171068668365, 0.0011288884561508894, 0.08077050000429153, 0.009821247309446335, -0.02501884661614895, 0.09771417081356049, -0.09716063737869263, 0.025011923164129257, -0.015579931437969208, 0.10059015452861786, -0.06273654103279114, 0.043366439640522, 0.0761142298579216, 0.04706054925918579, -0.06966935843229294, 0.06304394453763962, -0.1574423611164093, -0.017839215695858, -0.13974034786224365, 0.044522352516651154, -0.03171359375119209, -0.13700683414936066, -0.12663306295871735, 0.05417708680033684, -0.11835330724716187, 0.1413462907075882, -0.09346216171979904, -0.048006463795900345, 0.07115556299686432, -0.03624358028173447, 0.01626938208937645, -0.01952727884054184, 0.1602570116519928, 0.07530204206705093, -0.1090935617685318, 0.06640225648880005, 0.05403758957982063, 0.08969555050134659, -0.022810421884059906, -0.09214408695697784], [-0.04441643878817558, 0.11101633310317993, -0.1247788742184639, 0.04423381760716438, 0.11957740038633347, -0.004207467660307884, -0.006329415366053581, 0.04484853148460388, -0.13239146769046783, -0.05746462568640709, 0.056447502225637436, 0.06766216456890106, -0.053824082016944885, 0.04088372364640236, 0.1302371621131897, -0.03533454239368439, -0.018234379589557648, -0.14050444960594177, 0.03106091544032097, 0.017350776121020317, -0.11774778366088867, 0.11498336493968964, -0.06091557815670967, 0.1662788689136505, 0.09807468205690384, 0.04908554255962372, 0.07649317383766174, -0.07008269429206848, -0.11579501628875732, 0.04118330404162407, -0.12702634930610657, -0.024517180398106575, -0.004741074051707983, 0.03777915611863136, 0.05009854584932327, 0.12067682296037674, 0.06149876490235329, -0.014798019081354141, 0.07202795147895813, -0.13854187726974487, 0.12383684515953064, -0.15759193897247314, -0.12961100041866302], [-0.08679240942001343, 0.015314633958041668, -0.033212266862392426, -0.12287958711385727, 0.0038134101778268814, -0.10399919003248215, 0.014480979181826115, -0.13408499956130981, -0.09111190587282181, -0.01933305338025093, 0.005483136512339115, -0.07199831306934357, -0.007636716589331627, -0.11262489855289459, 0.0654897391796112, -0.0033856378868222237, 0.05880479887127876, -0.11879124492406845, -0.08554507791996002, -0.09255221486091614, 0.10596434772014618, 0.03710904344916344, 0.08339943736791611, -0.12873384356498718, 0.04911239817738533, 0.12685979902744293, 0.09198148548603058, -0.012722122482955456, 0.10259342193603516, 0.05458945035934448, -0.07991985976696014, -0.12713150680065155, 0.08752802759408951, 0.06134788319468498, -0.01544317975640297, -0.08371764421463013, 0.024668652564287186, 0.13291694223880768, -0.10981611907482147, 0.004964903928339481, -0.08259182423353195, 0.13877741992473602, -0.12408311665058136], [-0.028845997527241707, -0.05967521294951439, -0.10793467611074448, 0.05999799072742462, -0.10235618054866791, -0.08294607698917389, -0.08971327543258667, 0.06460264325141907, -0.08401903510093689, 0.1225266084074974, 0.09542178362607956, -0.08374370634555817, 0.12138216197490692, 0.14240139722824097, 0.09712491929531097, -0.0012136114528402686, -0.12450316548347473, 0.02954099141061306, -0.11484705656766891, 0.1152544692158699, -0.08153147995471954, 0.06452406197786331, -0.0017008910654112697, -0.04421099275350571, -0.005380864255130291, -0.01301527675241232, 0.12898729741573334, 0.1254976987838745, -0.10801822692155838, 0.05796140059828758, -0.10983283817768097, 0.08566990494728088, -0.10095437616109848, -0.1129346564412117, -0.1102185994386673, 0.02259659580886364, -0.028055479750037193, -0.04891473054885864, 0.1372344195842743, 0.04179363325238228, 0.07523257285356522, 0.07957562804222107, -0.07082202285528183], [0.0678272396326065, 0.027912596240639687, -0.03142109885811806, -0.1195702776312828, 0.06858718395233154, 0.147642582654953, 0.052088528871536255, -0.04445364698767662, -0.011697407811880112, 0.09258642792701721, 0.14002497494220734, 0.13520348072052002, 0.11885334551334381, -0.008305320516228676, 0.000635929056443274, 0.07979091256856918, 0.018045535311102867, -0.11310050636529922, -0.08438710123300552, -0.048321206122636795, 0.14100277423858643, -0.10066618770360947, 0.10966747999191284, -0.03526921197772026, 0.10258110612630844, -0.012679854407906532, 0.07490436732769012, -0.06216920539736748, 0.01572486013174057, -0.022453198209404945, -0.15065498650074005, -0.14507226645946503, -0.06853609532117844, 0.10397104173898697, -0.13529285788536072, 0.10658453404903412, 0.06667706370353699, 0.11765118688344955, -0.04113898053765297, 0.08297592401504517, -0.13709671795368195, -0.13250675797462463, -0.09571564197540283], [-0.09545785188674927, 0.04160189628601074, -0.10298741608858109, 0.13232092559337616, 0.14137740433216095, 0.07042910158634186, -0.13310156762599945, -0.016390103846788406, 0.13543057441711426, 0.1342933177947998, 0.07604015618562698, -0.012939279899001122, -0.022027021273970604, -0.06970088928937912, 0.030462462455034256, 0.0390310175716877, 0.12159637361764908, 0.027389202266931534, 0.059426311403512955, 0.05616235360503197, -0.025220857933163643, -0.12058054655790329, 0.15683883428573608, -0.1088586375117302, 0.035778678953647614, -0.13527646660804749, 0.049347784370183945, 0.0819893479347229, -0.06930329650640488, -0.03121061436831951, 0.08872445672750473, 0.024972479790449142, -0.012040851637721062, -0.006987481843680143, -0.11025014519691467, -0.12265904992818832, 0.05404562130570412, -0.12074689567089081, 0.03698452562093735, 0.03933434188365936, -0.014088894240558147, 0.14987511932849884, 0.11866258829832077], [-0.056383922696113586, 0.10047373175621033, -0.1521569788455963, -0.1008969321846962, 0.14677082002162933, -0.13483913242816925, -0.04258060082793236, -0.10724851489067078, -0.14767320454120636, -0.06434153020381927, 0.02344140037894249, 0.05311824008822441, -0.08799226582050323, 0.1558946669101715, 0.06167047098278999, 0.05887084826827049, -0.08975113183259964, -0.09939393401145935, -0.012239999137818813, 0.12775366008281708, 0.10106045007705688, 0.10906220972537994, -0.07899854332208633, -0.07332326471805573, 0.1049133688211441, -0.012613342143595219, 0.12574778497219086, -0.12654702365398407, -0.16481684148311615, -0.00825501885265112, 0.04386594519019127, 0.14611096680164337, 0.05448519438505173, -0.019838977605104446, -0.14468923211097717, -0.11978130042552948, 0.11231386661529541, -0.059128861874341965, 0.08496034890413284, 0.09382971376180649, 0.09218170493841171, -0.0936872661113739, 0.011248006485402584], [0.15428301692008972, -0.13440164923667908, -0.06681865453720093, 0.041569098830223083, 0.02328461781144142, -0.10354599356651306, -0.012743388302624226, -0.08266423642635345, -0.08470716327428818, 0.06525850296020508, 0.03550324961543083, 0.02799350395798683, -0.08979841321706772, -0.026780331507325172, 0.09187287837266922, 0.05487533286213875, 0.09629052132368088, -0.13212774693965912, -0.11313875019550323, -0.11504802852869034, 0.042797449976205826, 0.14229410886764526, -0.018316203728318214, -0.057153742760419846, -0.09715630859136581, -0.04074011370539665, 0.03209185227751732, 0.004406771622598171, -0.0323554128408432, -0.06412619352340698, -0.043498918414115906, -0.0061261034570634365, -0.029395200312137604, 0.07426659762859344, 0.011229315772652626, -0.008291272446513176, 0.07179731875658035, -0.0673454999923706, 0.10603120923042297, 0.03896753117442131, -0.08400822430849075, -0.14826713502407074, 0.07901947945356369], [-0.05872587859630585, -0.028459591791033745, 0.14031054079532623, 0.12119950354099274, 0.016490397974848747, 0.1745559573173523, -0.015343384817242622, 0.07249343395233154, 0.03887765109539032, 0.05586785823106766, 0.12771619856357574, -0.008667752146720886, -0.10983583331108093, -0.12136991322040558, 0.06345513463020325, -0.05450120195746422, 0.09638916701078415, 